%YAML:1.0
---
my_detector: !!opencv-object-detector-hog
   winSize: [ 224, 224 ]
   blockSize: [ 16, 16 ]
   blockStride: [ 8, 8 ]
   cellSize: [ 8, 8 ]
   nbins: 9
   derivAperture: 1
   winSigma: 4.
   histogramNormType: 0
   L2HysThreshold: 2.0000000000000001e-01
   gammaCorrection: 1
   nlevels: 64
   signedGradient: 0
   SVMDetector: [ 3.47020151e-03, 6.67866645e-03, 2.81774483e-05,
       -4.10730345e-03, -7.15936767e-04, 3.45770502e-03, 7.09781714e-04,
       -6.51539117e-03, -4.96436842e-03, 3.25514958e-03, 8.73299874e-03,
       -4.08678578e-04, -6.19924627e-03, 9.13946598e-04, 3.24068777e-03,
       2.29585776e-03, -6.44283043e-03, -5.63036418e-03, 2.39883969e-03,
       8.16810317e-03, 7.48254010e-04, -4.51196125e-03, 1.10814779e-03,
       5.79167763e-03, 3.13975266e-03, -7.23041641e-03, -6.13458781e-03,
       1.48507487e-03, 1.10734627e-02, 1.82231469e-03, -5.74268913e-03,
       3.60924006e-03, 5.49993152e-03, 5.83301159e-03, -6.20997790e-03,
       -7.65244011e-03, -7.11555779e-03, -2.57608388e-03, 6.21379307e-03,
       -5.94857091e-04, 4.47348505e-03, -3.76693346e-03, 8.07193050e-04,
       1.76952791e-03, -3.55523359e-03, -9.36439447e-03, -1.14838767e-03,
       7.41438987e-03, 8.95687845e-04, 4.80732601e-03, -3.13519454e-03,
       1.48751933e-04, 2.59259227e-03, -4.32839897e-03, -9.60072409e-03,
       -4.01925296e-04, 1.11990683e-02, 8.40597786e-04, 7.39984075e-03,
       -3.77162453e-03, -4.77436515e-05, 2.31068418e-03, -6.79669948e-03,
       -1.19213490e-02, 1.46426086e-03, 1.31292837e-02, 2.09955242e-03,
       7.80239794e-03, -1.92388904e-03, -1.52215653e-03, 4.11098124e-03,
       -6.20643841e-03, -1.30102283e-03, -2.93140113e-03,
       -2.56742327e-03, -9.76742245e-03, 2.21383595e-03, 2.18134397e-03,
       4.77677677e-03, 4.68975445e-03, -1.77643471e-03, -2.81370914e-04,
       -2.57671298e-03, -3.93760577e-03, -1.46892713e-02, 3.07274144e-03,
       2.99963891e-03, 7.73074478e-03, 5.93366381e-03, -1.13353820e-03,
       2.82227338e-05, -3.74138379e-03, -1.72134128e-03, -1.10078091e-02,
       1.99169596e-03, 3.44946515e-03, 5.84887341e-03, 5.85385924e-03,
       -3.11336271e-03, 7.62151671e-04, -2.97515886e-03, -1.83957361e-03,
       -1.66167282e-02, 3.71429557e-03, 4.04436840e-03, 9.37108882e-03,
       8.39956943e-03, -2.90770875e-03, 3.46740737e-04, -3.57461581e-03,
       -2.56829197e-03, -5.49048360e-04, 3.05279973e-04, -1.07466104e-03,
       2.08178232e-03, 4.14688000e-03, -4.09397064e-04, -1.44543150e-03,
       -5.06585324e-03, -1.73667213e-03, 1.03795563e-03, 3.26067954e-03,
       5.61080466e-04, 2.61264062e-03, 4.00875974e-03, -7.26220896e-04,
       2.69739889e-03, -2.67020543e-03, -4.08916548e-03, -1.63158344e-03,
       1.46779977e-03, 4.73620632e-04, 2.60521239e-03, 7.38803996e-03,
       1.07540644e-03, 8.62577348e-04, -3.71562364e-03, -2.93710688e-03,
       -4.04015183e-04, 6.34099403e-03, 2.22300156e-03, 2.17393041e-03,
       6.43774215e-03, -1.53943358e-04, -2.07798183e-03, -3.72187537e-03,
       -4.60565236e-04, -4.79617761e-03, -3.40530393e-03,
       -4.88519727e-04, 2.66825780e-03, -1.32063613e-03, 1.52048201e-03,
       -3.17413942e-03, -5.55578852e-03, 5.93388337e-04, -5.35861682e-03,
       -7.13501777e-03, -3.28912237e-03, 1.57659408e-03, -5.00706374e-04,
       3.84735613e-04, -2.46446487e-03, -4.88046324e-03, 1.24015045e-04,
       -7.70199206e-03, -4.59651463e-03, -2.60790461e-04, 4.78965603e-03,
       -9.80287557e-04, -9.39661404e-04, -3.96451447e-03,
       -7.04156514e-03, 1.52681977e-03, -9.05509479e-03, -8.42792913e-03,
       -3.37405107e-03, 3.24084284e-03, -7.78519956e-04, -1.52526295e-03,
       1.89505669e-03, 1.08007633e-03, 1.71655149e-03, -3.02382000e-03,
       -5.66760544e-03, 6.37832622e-04, -4.84879920e-03, -4.82884748e-03,
       1.32778438e-03, 2.42435350e-03, 1.44260679e-03, 2.20088614e-03,
       -2.73055723e-03, -1.96488365e-03, 3.25437030e-03, -3.48430220e-03,
       -6.21525943e-03, -3.54911527e-03, 1.48656010e-03, 1.32673304e-03,
       1.81011937e-03, -3.90846748e-03, -4.34774393e-03, -1.46450009e-04,
       -8.77548009e-03, -7.47146411e-03, 1.73156010e-03, 1.57720235e-03,
       1.49678008e-03, 4.28660121e-03, -3.69588914e-03, -6.42836443e-04,
       2.56321928e-03, -7.47262500e-03, -9.05846152e-03, -4.57801111e-03,
       -3.05628218e-03, -2.48010294e-03, -1.19627402e-04,
       -1.52023102e-03, -1.95693443e-04, 9.60694102e-04, -1.89773133e-03,
       -9.71779169e-04, 2.56070890e-03, -1.34691480e-03, -4.93323570e-03,
       -3.38919717e-03, -3.86582571e-03, -3.88410612e-04, 1.59704639e-03,
       -3.20349424e-03, -2.08416185e-03, 3.26950173e-03, -2.87304004e-03,
       -3.11663700e-03, 1.15305581e-03, -1.62820111e-03, 1.68382283e-03,
       1.49670662e-03, -3.74822784e-03, -2.12322222e-03, 2.39279261e-03,
       -1.85588805e-03, -7.56719103e-03, -4.82917810e-03,
       -4.69512446e-03, 2.77082878e-03, 2.62665399e-03, -5.15072187e-03,
       -3.85546568e-03, 4.20987234e-03, 6.25146832e-03, -3.43273696e-03,
       -1.69352326e-03, -4.25336231e-03, 1.86158321e-03, -3.46843241e-04,
       4.29404294e-03, -4.77363094e-04, -2.98711890e-03, 8.86907615e-03,
       -5.00496151e-03, -1.87745492e-03, -7.21766381e-03, 2.50329752e-03,
       1.22723065e-03, 6.15022471e-03, -3.81449790e-04, -2.92972592e-03,
       9.30141937e-03, -4.35548322e-03, -1.28262851e-03, -3.53634567e-03,
       4.17127507e-03, 1.38607893e-05, 6.29086699e-03, 5.08499565e-04,
       -2.89347908e-03, 1.19088907e-02, -6.41863653e-03, -8.39306624e-04,
       -6.99592661e-03, 3.79817793e-03, 1.83366786e-03, 8.11746810e-03,
       1.76420109e-03, -1.87633547e-03, 2.07871315e-03, -4.38931352e-03,
       -1.21500017e-03, -2.12419033e-03, 2.91310204e-03, -1.12421061e-04,
       2.31151748e-03, -3.51817277e-03, -6.25195971e-04, 1.21341192e-03,
       -6.00937288e-03, -1.63321942e-03, -1.58599718e-03, 4.00576647e-03,
       1.94042467e-03, 2.39293440e-03, -5.32479212e-03, 1.52225746e-03,
       3.20558785e-03, -5.73331909e-03, -1.10850425e-03, -1.59052771e-03,
       6.65138429e-03, 2.97983934e-05, 1.94998004e-03, -3.67927132e-03,
       1.58220169e-03, 2.88817007e-03, -7.54881650e-03, -2.33790115e-03,
       -7.65822013e-04, 8.63660872e-03, 2.06408277e-03, 2.77596945e-03,
       -6.06496818e-03, 3.88466683e-03, -2.60643457e-04, -8.62948014e-04,
       -5.26254764e-03, -4.99431230e-03, -1.14107551e-03, 3.36753833e-03,
       3.15037975e-03, -3.22705624e-03, 2.63050431e-03, 2.96730635e-04,
       -1.07528642e-03, -5.79519104e-03, -6.76492788e-03, 8.23798298e-04,
       5.99949295e-03, 2.66283518e-03, -5.70787210e-03, 3.47845163e-03,
       1.76436524e-03, -1.80825198e-04, -6.28518919e-03, -4.87955939e-03,
       -1.65750179e-03, 4.29517264e-03, 3.08068166e-03, -5.76003082e-03,
       2.75907712e-03, 1.10255287e-03, -8.57776671e-04, -6.91683032e-03,
       -6.81414409e-03, 3.57150042e-04, 8.00927728e-03, 2.45892350e-03,
       -8.33499990e-03, 2.84500490e-03, 1.60582853e-03, -1.33845850e-03,
       -2.03569536e-03, -1.03449053e-03, -3.63632245e-03,
       -2.68931105e-03, 3.33149615e-03, 3.11382767e-03, -7.37246010e-04,
       3.82281048e-03, 4.54569614e-04, -8.76025762e-04, -8.25549432e-05,
       -2.82390811e-03, -3.70987784e-03, -4.37168492e-04, 1.20602443e-03,
       -3.44577711e-03, 1.69529533e-03, 1.23116968e-03, -1.85894815e-03,
       4.24853089e-04, -6.96687086e-04, -3.12681613e-03, 3.70085333e-03,
       5.37927309e-03, 1.47207757e-04, 5.39054768e-03, 3.64444475e-03,
       2.38055163e-05, 8.14178784e-04, 6.29029062e-04, -4.48566582e-03,
       1.71366803e-04, 2.87750200e-03, -3.78829311e-03, 4.55199130e-04,
       -1.00494968e-03, -1.16597279e-03, 3.30486873e-05, 1.10718713e-03,
       -3.39943799e-03, -1.34220428e-03, -5.65293944e-03, 2.99174618e-03,
       -1.06227607e-03, -2.05721729e-03, -6.75989548e-04, 2.40953220e-03,
       7.19225791e-04, -5.11973072e-03, -1.96492765e-03, -6.81772921e-03,
       4.34692018e-03, -1.56931652e-04, -1.95813109e-03, 2.11664918e-03,
       -4.66966652e-04, 2.86222366e-03, -3.76388268e-03, -2.63379025e-03,
       -7.63676036e-03, 3.11205047e-03, -1.96454860e-03, -3.82322725e-03,
       2.32794625e-03, 1.50250713e-03, 1.64118805e-03, -6.33783871e-03,
       -2.39303499e-03, -8.62256065e-03, 3.49824945e-03, 1.18330121e-03,
       -6.23469939e-04, 2.29113712e-03, 9.64204781e-04, 3.05038737e-03,
       -5.08090667e-03, -5.96784940e-03, -3.38635384e-03,
       -3.46181914e-03, 2.50987452e-03, 1.62323203e-03, 3.51318414e-03,
       1.24749041e-03, 1.23680185e-03, -5.50799724e-03, -6.23021834e-03,
       -5.78421401e-03, -6.91811740e-03, 1.75024767e-03, -1.46158462e-04,
       5.08900685e-03, 2.91870302e-03, 3.25425481e-03, -5.90446033e-03,
       -8.59698374e-03, -5.57225198e-03, -3.10871587e-03, 4.36312193e-03,
       2.06508092e-03, 6.85787108e-03, 4.07364639e-03, 2.20730295e-03,
       -6.37112884e-03, -1.00089200e-02, -9.44126956e-03,
       -5.27278939e-03, -4.64709150e-03, -2.18537822e-03,
       -5.98685117e-03, -1.27574464e-03, 8.50238558e-03, 3.89258587e-03,
       -3.12013144e-05, 1.84446893e-04, -8.82495719e-04, -4.21067327e-03,
       -1.38747529e-03, -7.28661427e-03, -3.17952409e-03, 9.94355604e-03,
       3.38804000e-03, -1.94460899e-03, 3.18966951e-04, 9.06516507e-04,
       -8.11236817e-03, -3.33200628e-03, -4.77819750e-03, 1.37713400e-03,
       7.98578002e-03, 5.23286546e-03, 1.32098538e-03, 1.37759396e-03,
       2.27879093e-04, -8.02279171e-03, -3.49727715e-03, -6.24867529e-03,
       5.46649040e-04, 9.11683217e-03, 4.64218250e-03, -5.51495701e-04,
       1.58247829e-03, 1.32154173e-03, 5.90125332e-03, -1.80156599e-03,
       -9.11641575e-04, 1.47250027e-03, -2.04613039e-04, 3.47688398e-03,
       -5.15132817e-03, -6.10960554e-03, 8.14244326e-04, 8.49066954e-03,
       -1.55930384e-03, -2.32397905e-03, 6.06959336e-04, -1.36661925e-03,
       4.24676482e-03, -5.35060186e-03, -8.41487106e-03, 1.61352288e-03,
       4.81716730e-03, -9.95248556e-04, -1.27371401e-03, -5.85079310e-04,
       1.52623851e-03, 4.93378239e-03, -8.75565317e-03, -8.07037205e-03,
       9.82241007e-04, 5.71382791e-03, -1.73434662e-03, -1.81559927e-03,
       -2.00055307e-03, 3.36162309e-04, 5.45899570e-03, -9.23151150e-03,
       -1.11899162e-02, 9.85647086e-04, -8.06439311e-06, 1.95218320e-03,
       3.56642157e-03, 2.75665289e-03, -3.87319899e-03, -4.54284158e-03,
       -4.41598851e-04, -2.47696089e-03, -2.79101636e-03,
       -1.09189155e-03, 1.78332545e-03, 4.00064420e-03, 2.01776228e-03,
       -3.91201768e-03, -5.18010091e-03, -5.45448216e-04,
       -1.28693448e-03, -4.72897338e-03, -2.34289607e-03, 1.74393202e-03,
       2.96627148e-03, 2.86685303e-03, -3.07948911e-03, -6.26492267e-03,
       -1.62549468e-03, -4.42156196e-03, -2.98094470e-03,
       -4.81868442e-03, 1.11737754e-03, 2.86847423e-03, 1.77761656e-03,
       -2.64254794e-03, -6.13678107e-03, -1.60481280e-03,
       -3.86043172e-03, -4.97001875e-03, -5.86065231e-03, 1.87620069e-04,
       -4.57367190e-04, 1.03282114e-03, 3.37803923e-03, 8.10180325e-03,
       2.37287721e-03, -2.42106663e-03, -1.42012816e-03, -5.01442142e-03,
       1.55201007e-03, 1.86304539e-03, 9.39915073e-04, 2.28345720e-03,
       7.86332600e-03, 5.02026267e-03, -3.28605343e-03, -8.83961329e-04,
       -9.71811637e-03, -8.89513642e-04, 7.21933102e-05, 2.28383858e-03,
       9.81824286e-03, 1.09655624e-02, 1.76291086e-03, -4.82482975e-03,
       -5.49087860e-03, -8.46187584e-03, 1.90370332e-03, 2.87927873e-03,
       1.41532905e-03, 7.97556154e-03, 1.01256501e-02, 3.99280200e-03,
       -5.76609466e-03, -6.69579860e-03, 4.17911651e-04, -9.90535482e-04,
       1.89244674e-04, 3.20947403e-03, 4.43309871e-03, -7.49120140e-04,
       1.16417476e-03, -1.57289708e-03, -4.63254546e-04, 2.43288465e-03,
       -8.73579178e-04, -5.16250031e-04, 4.34127776e-03, 3.23237386e-03,
       2.90019228e-03, 3.81490472e-03, -1.60237018e-03, -5.14362880e-04,
       -1.60632201e-03, -1.70956994e-03, -1.28860725e-03, 4.01703129e-03,
       1.42917153e-03, -2.55256472e-03, -6.06822199e-04, -5.16870292e-03,
       -5.21404948e-03, 2.65546347e-04, -2.02205544e-03, -1.91263272e-03,
       5.35710808e-03, -1.41110050e-03, 1.45279500e-03, 2.10695295e-03,
       -5.45161916e-03, -6.75974134e-03, -4.84041823e-03, 2.86785973e-04,
       4.37418045e-03, 4.24363418e-03, -1.80833274e-03, 1.75351126e-03,
       3.42924916e-03, 2.20557814e-03, -2.26219534e-03, -4.67046676e-03,
       1.40092440e-03, 4.47685318e-03, 4.34967084e-03, -3.49148246e-03,
       6.27460133e-04, 2.32951064e-03, 1.69046130e-03, -5.16763004e-03,
       -7.52570899e-03, -9.08860122e-04, 6.42062072e-03, 5.32783335e-03,
       1.13943731e-03, 2.02319655e-03, 4.53117676e-03, 1.62948552e-03,
       -6.06301660e-03, -8.96405522e-03, 1.26039449e-04, 7.54648726e-03,
       5.77214453e-03, 1.39413547e-04, 6.34471537e-04, 3.57522606e-03,
       1.18568190e-03, -1.07070263e-02, 1.80237531e-03, -3.07049463e-03,
       -2.37124320e-03, 2.21399684e-03, -3.93450307e-03, 2.89680855e-03,
       1.21547566e-06, -7.22835597e-04, 2.31502973e-03, -6.78993965e-05,
       -5.15651284e-03, -1.95576996e-03, 1.88178674e-03, -3.19720712e-03,
       3.97440884e-03, 1.95694156e-03, -2.15701433e-03, -1.45425831e-04,
       2.66345544e-03, -3.71382269e-03, 1.33582464e-04, 4.14983602e-03,
       -7.12047564e-03, 3.93632613e-03, 8.39043001e-04, -2.38182984e-04,
       1.92823383e-04, 7.43358803e-04, -4.17799922e-03, 9.82680358e-04,
       4.18886822e-03, -6.46382011e-03, 5.38372109e-03, 2.51051853e-03,
       -2.03592633e-03, -1.97681691e-03, -1.43190718e-03,
       -3.96057125e-03, -7.21035618e-03, -5.72324148e-04, 3.72734177e-03,
       3.99154425e-03, -7.11804780e-04, -1.07107486e-03, -8.36837164e-04,
       -6.13125798e-04, -5.38103562e-03, -6.78830454e-03,
       -3.44909553e-04, 1.62256090e-03, 5.41993557e-03, 3.44431843e-04,
       -2.78100983e-04, -4.66279307e-04, -2.21231254e-03,
       -4.29036235e-03, -6.25908701e-03, 6.71416696e-04, 4.27860906e-03,
       5.23928972e-03, 6.22322026e-04, 1.14885179e-05, -4.77392634e-04,
       -2.28465404e-04, -6.27375534e-03, -6.19822601e-03, 8.42192036e-04,
       3.03764595e-03, 7.28363777e-03, 2.18919921e-03, 1.13258790e-03,
       9.31416638e-04, -3.60042835e-03, -7.96329044e-03, -3.27149732e-03,
       1.34453247e-03, 4.97296825e-03, 9.72669164e-04, 7.56695541e-03,
       1.21853908e-03, -1.48035784e-03, -2.52671679e-03, -1.04019465e-02,
       -5.43980673e-03, -4.28483145e-05, 3.76328500e-03, -2.52644508e-03,
       7.23465066e-03, 2.37472565e-03, -6.16177800e-04, -2.98123667e-03,
       -8.92325304e-03, -3.12114251e-03, 3.94259719e-03, 7.05055427e-03,
       1.78558810e-03, 6.79855142e-03, 2.64138671e-05, -2.34964001e-03,
       -3.00569180e-03, -1.11837192e-02, -4.28266637e-03, 3.62377847e-03,
       6.42253691e-03, -2.36785016e-03, 5.19203860e-03, 1.13112864e-03,
       -1.67905295e-03, -3.27968475e-04, 1.73326896e-03, 5.46191819e-04,
       2.50963843e-03, 2.63221376e-03, -7.48574908e-04, -1.18257257e-03,
       -5.85127249e-03, -2.64616893e-03, -3.82372964e-05, 3.32062622e-03,
       3.82905616e-03, 2.79900967e-03, 3.78949079e-03, -3.19830375e-03,
       -4.55556018e-03, -7.86959101e-03, -4.18733200e-03, 1.09895621e-03,
       4.42338968e-03, 3.92713537e-03, 4.00384050e-03, 3.88478860e-03,
       -1.51404514e-04, -1.23559928e-03, -7.03930529e-03,
       -3.88403540e-03, 3.34559078e-03, 8.05960130e-03, 8.05249810e-03,
       4.36235406e-03, 5.10211196e-03, -3.55193322e-03, -5.00580203e-03,
       -1.01788193e-02, -4.59040748e-03, -4.03473387e-03, 2.18623877e-03,
       3.72515130e-03, 6.69166073e-03, -8.72695062e-04, -8.39969236e-03,
       -2.63125566e-03, 1.52787031e-03, 1.92699768e-03, -5.46906749e-03,
       2.01715808e-03, 3.35815921e-03, 6.00588741e-03, 1.10166485e-03,
       -8.36398359e-03, -3.08917672e-03, 1.22816674e-03, 2.59783148e-04,
       -2.77911243e-03, 2.88586854e-03, 5.34902932e-03, 8.38227943e-03,
       3.74463061e-03, -9.58460290e-03, -4.87385178e-03, 1.88644836e-03,
       2.91689252e-03, -4.29612305e-03, 2.67491513e-03, 5.15142363e-03,
       7.66861020e-03, 4.72191162e-03, -1.01315798e-02, -5.14821336e-03,
       2.22806539e-03, 6.72418042e-04, -1.07480655e-03, -5.97005710e-05,
       -2.34970372e-04, 2.55931122e-03, -1.32459495e-03, 3.09307361e-04,
       3.05870059e-03, -8.90944910e-04, -2.55953870e-03, -2.53337843e-04,
       -1.23268634e-03, -9.21825471e-04, 3.34439636e-03, 2.78672902e-04,
       1.61088863e-03, 6.10624067e-03, -5.14642452e-04, -2.40190164e-03,
       -1.32206897e-03, 1.47303077e-03, 1.39499467e-03, 2.79473793e-03,
       2.02619223e-04, 1.23942387e-03, 2.56310799e-03, -1.23656774e-03,
       -3.36502120e-03, -4.13547794e-04, 1.28278125e-03, 1.33906561e-03,
       4.47612628e-03, 2.76215887e-03, 2.62261624e-03, 5.68538764e-03,
       -2.54135171e-04, -3.33766732e-03, -6.83399243e-03, 1.98931713e-03,
       -2.74841744e-03, -2.96787941e-03, 6.49140868e-03, 1.32381497e-03,
       -4.84262267e-03, -4.10332205e-03, -7.77161040e-04,
       -7.89978541e-03, 3.46010085e-03, -2.25093449e-03, -1.43694272e-03,
       9.32910293e-03, 6.64607738e-04, -5.21605229e-03, -5.02942316e-03,
       -9.75407718e-04, -7.98692461e-03, 1.76246092e-03, -2.97787646e-03,
       -3.33462819e-03, 8.70043226e-03, 2.21527088e-03, -5.05488319e-03,
       -4.07589693e-03, 3.10066738e-04, -8.99992324e-03, 3.58834141e-03,
       -3.13791190e-03, -2.37231812e-04, 1.13344416e-02, 6.29534537e-04,
       -5.96785871e-03, -4.79884725e-03, 4.14426991e-04, 1.62179372e-03,
       3.36337136e-03, 2.28662090e-03, -1.49536645e-03, -3.22930585e-03,
       -2.03655544e-03, -3.74121801e-03, -2.77917320e-03,
       -1.64981047e-03, 2.85990187e-03, 5.20837307e-03, 2.86507932e-03,
       2.97263381e-03, -5.08163532e-04, -2.77806283e-03, -6.41474966e-03,
       -5.45593211e-03, -1.70335337e-03, 2.90244375e-03, 7.78564531e-03,
       4.81110578e-03, 4.07890475e-04, -1.40702323e-04, -8.09186255e-04,
       -5.19161625e-03, -5.73968701e-03, -1.98449637e-03, 4.00611572e-03,
       1.03616193e-02, 5.45931002e-03, 6.25484018e-03, 3.30842100e-03,
       -1.35210250e-03, -8.77590664e-03, -9.91251785e-03,
       -2.69315625e-03, -6.90419879e-03, -1.71287591e-03, 5.37890010e-03,
       -2.29277508e-03, 4.77071898e-03, 6.11533690e-03, 2.58963509e-03,
       3.49602150e-03, -8.59523658e-03, -8.29008780e-03, -2.68392987e-03,
       6.10100199e-03, -2.86604674e-03, 6.36283634e-03, 6.57281233e-03,
       3.89291090e-03, 3.28274118e-03, -1.02416240e-02, -5.82018960e-03,
       -9.74736991e-04, 7.63469050e-03, -2.54402636e-03, 7.11897155e-03,
       7.41392095e-03, 1.04507315e-03, 1.72166852e-03, -1.11533934e-02,
       -7.01153604e-03, -1.28470699e-03, 8.14429298e-03, -2.06801924e-03,
       8.75558611e-03, 9.12013464e-03, 1.37186702e-03, 3.34580371e-04,
       -1.36856874e-02, 4.92095482e-03, 7.69055972e-04, 3.83747462e-03,
       -2.06052954e-03, 5.03016124e-03, -3.65018798e-03, -3.01893312e-03,
       -1.68482854e-03, 1.61749090e-03, 5.65390801e-03, 2.40977053e-04,
       3.36300395e-03, -3.70912836e-03, 7.07887020e-03, -3.08508985e-03,
       -4.41325922e-03, -1.99873978e-03, 2.07852060e-03, 6.25300314e-03,
       1.25997292e-03, 3.24166822e-03, -2.10021390e-03, 9.69297544e-04,
       -4.22560610e-03, -2.74146372e-03, -1.44429738e-03, 4.69590334e-04,
       7.33243488e-03, 1.32993620e-03, 3.28882155e-03, -3.70925805e-03,
       2.38482235e-03, -3.72679252e-03, -5.31270774e-03, -1.62433507e-03,
       1.79981254e-03, -1.01160794e-03, 1.16862217e-03, 6.57184166e-04,
       -7.39673560e-04, 1.38854538e-03, 4.47979150e-03, 8.60479311e-04,
       -1.78107049e-03, -4.71507013e-03, 1.42223187e-04, 2.33062799e-03,
       1.26997405e-03, -4.28937987e-04, 2.37446791e-03, 4.61707637e-03,
       8.08663899e-04, -2.29568570e-03, -5.18942811e-03, -2.17898283e-03,
       2.00333074e-03, 1.67471450e-03, 2.65748333e-03, 1.27642229e-03,
       3.43867089e-03, -8.75673315e-04, -4.23353259e-03, -8.77570920e-03,
       -1.00383663e-03, 4.08107648e-03, 2.83887633e-03, 3.09936563e-03,
       1.73071190e-03, 2.28414894e-03, -1.14738790e-03, -5.16513921e-03,
       -9.12613887e-03, -2.59286677e-03, -1.84065721e-03, 1.51103432e-03,
       -2.83182249e-03, 1.63008051e-03, -1.20673829e-03, 9.10193892e-04,
       6.49973471e-03, -7.88114616e-04, -2.53648008e-03, -4.58515156e-03,
       1.98466496e-05, -3.14911990e-03, -6.06174464e-04, -5.28404606e-04,
       4.68653673e-03, 9.01802164e-03, -6.86852203e-04, -4.35733702e-03,
       -2.28674803e-03, 1.03828521e-03, -5.62275201e-03, 2.23998935e-03,
       3.36334750e-04, -9.00367231e-05, 5.92180435e-03, -2.62504723e-03,
       -3.99671821e-03, -6.60942215e-03, -3.17844097e-04,
       -6.53808936e-03, -7.43708049e-04, 1.09214068e-03, 4.15456621e-03,
       9.20352526e-03, -3.12897330e-03, 5.82473469e-04, -1.92185922e-03,
       -2.93583469e-03, -4.48933383e-03, -5.13987336e-03, 2.17914488e-03,
       4.82289912e-03, 2.84954603e-03, 2.44984752e-03, 3.18117952e-03,
       -3.30853369e-03, -2.02220515e-03, -4.39808797e-03,
       -7.13536842e-03, -6.93893351e-04, 4.36834618e-03, 3.06925410e-03,
       3.74559104e-03, 1.75682409e-03, -2.29593995e-03, -2.96044117e-03,
       -6.28439616e-03, -5.23227407e-03, 4.20587044e-03, 5.38961077e-03,
       1.09477772e-03, 1.47135113e-03, 5.32630971e-03, -3.38896341e-03,
       -1.15711335e-03, -6.10379549e-03, -5.79353468e-03, 6.11204596e-04,
       4.24366770e-03, 1.47757737e-03, 3.61819542e-03, 5.44691877e-03,
       1.51340838e-03, -9.98888514e-04, -6.96408504e-04, 4.50235419e-03,
       -2.37063691e-03, -2.50072381e-03, -3.26690171e-03, 3.64779524e-04,
       6.19694358e-03, 3.44514940e-03, -6.11091382e-05, -2.27071258e-04,
       4.57200641e-03, -4.18832479e-03, -3.71467392e-03, -5.98152913e-03,
       6.68982393e-04, 5.77538880e-03, 2.84574670e-03, -1.70290377e-03,
       -6.53512834e-04, 8.28903541e-03, -2.28887005e-03, -9.45547596e-04,
       -4.34665754e-03, -2.33587879e-03, 6.66084513e-03, 4.43933345e-03,
       -1.54862157e-03, -5.06031793e-04, 1.00141997e-02, -4.71104169e-03,
       -2.87178531e-03, -7.87019078e-03, -1.61357247e-03, 6.99249841e-03,
       3.28281254e-04, -5.71103301e-04, 2.09715497e-03, 3.13635916e-03,
       3.82138975e-03, -9.79116652e-04, -4.82953573e-03, 5.16424607e-03,
       4.64097224e-03, 5.14045998e-04, 1.65344065e-03, 3.27464286e-03,
       7.36101065e-04, 1.92689395e-03, -3.68934096e-04, -5.43055031e-03,
       5.49621135e-03, 6.78190542e-03, -2.74360529e-04, -5.07033954e-04,
       2.42724293e-03, 5.24085015e-03, 4.18096595e-03, -4.16006456e-04,
       -4.65112599e-03, 5.82110230e-03, 4.02385229e-03, -3.77063116e-04,
       1.97955407e-03, 3.92778916e-03, 2.09102174e-03, 1.64148177e-03,
       1.24108768e-03, -5.25693269e-03, 5.61992545e-03, -4.53454815e-03,
       -3.22841434e-03, -2.23048803e-04, 4.74062469e-03, 3.37184174e-03,
       4.33172937e-03, 2.23791250e-03, 2.24742433e-03, 1.01549842e-03,
       -5.22269774e-03, -2.86729145e-03, 3.15301004e-05, 3.02343909e-03,
       4.51041199e-03, 6.27310900e-03, 2.28321925e-03, 2.02766783e-03,
       3.85303487e-04, -9.09077376e-03, -3.97816673e-03, -6.54639385e-04,
       6.04045717e-03, 5.58104645e-03, 5.47722820e-03, 4.57633520e-03,
       4.61624842e-03, -9.05035922e-05, -8.60833097e-03, -3.03059677e-03,
       -7.51870335e-04, 5.36422106e-03, 8.94502923e-03, 8.10078532e-03,
       5.00923954e-03, 4.16476000e-03, -1.00421277e-03, -1.46904110e-03,
       -3.31455283e-03, 9.69215122e-04, -1.46782550e-04, 2.12830049e-03,
       -6.23881177e-04, -3.17067606e-04, -4.82160045e-04, 2.54712999e-03,
       -9.78617172e-05, -1.17122242e-03, 1.69616973e-03, 1.25543750e-03,
       3.60076735e-03, 4.73124412e-04, 3.36981102e-05, -1.71383412e-03,
       2.70438567e-03, -6.40897430e-04, -8.21231515e-04, 2.67554773e-03,
       7.70932184e-06, 1.15555478e-03, -2.42777797e-03, -2.32342095e-03,
       -1.59946561e-04, 2.97439471e-03, 1.29014661e-03, 1.74722041e-03,
       2.63171992e-03, 1.82756269e-03, 3.08676064e-03, -1.68598926e-04,
       -1.36283471e-03, -1.66200998e-03, 2.46399571e-03, -2.35860632e-03,
       -5.10342047e-03, 5.14195963e-05, -2.90532247e-04, -2.28766119e-03,
       3.35392170e-03, 3.72089772e-03, 4.48406395e-03, -3.04643821e-04,
       -4.24538087e-03, -7.00767944e-03, 1.39987946e-03, -4.02799313e-04,
       -6.86483691e-04, 5.11228433e-03, 7.19330041e-03, 6.72912458e-03,
       -5.68647345e-04, -3.86306853e-03, -6.99923560e-03,
       -1.05932391e-04, 1.13339361e-03, -3.47817480e-03, 3.62986978e-03,
       5.69727737e-03, 4.78752563e-03, -1.33892894e-03, -6.73689274e-03,
       -9.16761812e-03, -4.15238406e-04, 1.60975626e-03, -1.42758468e-03,
       5.48935914e-03, 1.03550311e-02, 8.49879254e-03, -2.24127062e-03,
       -1.22194143e-03, 4.72842576e-03, 4.50411811e-03, 1.56818214e-03,
       2.25833253e-04, -3.54450871e-03, 2.24251417e-03, 9.88775049e-04,
       -4.14696522e-03, -5.29987563e-04, 5.06017916e-03, 6.11757673e-03,
       2.81345611e-03, 2.85019312e-04, -3.03072901e-03, 2.19633966e-03,
       -1.56945246e-03, -3.85958981e-03, 2.80284369e-03, 4.97664977e-03,
       5.37018338e-03, 2.51398119e-03, 2.91089294e-03, -4.06161370e-03,
       2.14011688e-03, 1.70697644e-03, -2.86857272e-03, 3.87035147e-03,
       5.97559800e-03, 8.06525629e-03, 4.43139207e-03, 3.81950638e-03,
       -2.90579489e-03, 2.22591404e-03, -2.25196156e-04, -7.21628137e-04,
       -2.03563110e-03, 2.92127859e-03, 1.30820426e-03, -1.28532061e-03,
       6.23304921e-04, 1.24912814e-03, 3.97498207e-03, -4.09525260e-03,
       -7.71933841e-03, -6.68939017e-03, 2.54337024e-03, 5.74445061e-04,
       2.98210449e-04, 2.28400319e-03, 5.13130450e-04, 3.89433908e-03,
       -5.11965295e-03, -1.03043802e-02, -3.58500431e-04, 2.99911783e-03,
       8.79111467e-04, -1.12998975e-03, 3.13239312e-03, 1.66191394e-03,
       4.86399280e-03, -4.64211544e-03, -7.59483594e-03, -4.98333992e-03,
       2.36506993e-03, -3.83272010e-04, 5.27804776e-04, 4.87843482e-03,
       1.50042516e-03, 4.84618591e-03, -6.18269807e-03, -1.02488371e-02,
       -1.09873051e-02, -9.10338713e-04, -1.98991460e-04, 1.61762617e-03,
       2.98346975e-03, 9.63820901e-04, 6.02615578e-03, 7.76148343e-04,
       -6.01524068e-03, -1.21453069e-02, -1.89669256e-03, 1.45892019e-03,
       1.77014596e-03, 3.50185391e-03, 1.13866234e-03, 7.70779094e-03,
       2.67055980e-03, -6.21496001e-03, -9.77245159e-03, -1.32899766e-03,
       1.11494667e-03, 2.14705709e-03, 2.33542523e-03, 7.28058920e-04,
       7.17350328e-03, -9.32923926e-04, -5.91677893e-03, -1.06892316e-02,
       -2.63474323e-03, 2.66496395e-03, 2.13578949e-03, 5.32138394e-03,
       2.09222711e-03, 9.66188498e-03, 1.71814081e-05, -6.29112171e-03,
       -2.30291276e-04, -7.72763090e-03, -1.34024664e-03,
       -1.16488547e-04, 2.15874100e-03, 3.20738560e-04, 6.81133335e-03,
       5.05639799e-03, 3.61879870e-06, 1.81515433e-03, -1.14993388e-02,
       -3.95489763e-03, -2.58239475e-03, 3.06101353e-03, 1.05725916e-03,
       8.44166707e-03, 6.78821467e-03, -1.71724742e-03, 8.09304009e-04,
       -7.19529530e-03, -6.48630259e-04, -1.01599086e-03, 5.32323448e-03,
       8.90338444e-04, 9.43737663e-03, 6.31107902e-03, -4.11553738e-05,
       1.88225706e-03, -1.30113130e-02, -4.84576076e-03, -5.04388940e-03,
       8.22000206e-03, 1.84788671e-03, 1.10788606e-02, 8.31659511e-03,
       -1.81955472e-03, -8.92557856e-03, -3.93821072e-04, 5.70006110e-03,
       9.51922673e-04, 5.56161115e-03, -2.33040191e-04, -4.03423532e-04,
       -1.02723483e-03, -3.55407759e-03, -1.05470605e-02,
       -2.90558557e-03, 6.86415099e-03, 4.32200497e-04, 6.62716664e-03,
       -7.78096903e-04, -8.19422421e-04, -8.11422768e-04,
       -2.60018883e-03, -1.03250165e-02, -1.16266508e-03, 8.28850642e-03,
       1.80686323e-03, 6.75980002e-03, 6.55879790e-04, -2.77334428e-03,
       -2.15757731e-03, -5.14488155e-03, -1.21188452e-02,
       -5.19923866e-03, 9.74794477e-03, 1.42240152e-03, 8.52852780e-03,
       1.39866769e-03, -4.08923859e-03, -2.43131863e-03, -4.67706053e-03,
       -2.98750889e-03, 2.29291874e-03, 6.70798065e-04, -1.17889419e-03,
       -2.31713266e-03, -3.64160514e-03, -1.87535479e-04, 1.49894680e-04,
       -2.75407243e-03, -2.72247242e-03, 1.58982049e-03, -7.92346080e-04,
       -6.18586026e-04, -9.32919269e-04, -3.87425069e-03,
       -2.52918177e-03, 3.47299065e-04, -1.72524806e-03, -6.48706860e-04,
       2.28423905e-03, -8.39441025e-04, -3.12439050e-03, -6.92332746e-04,
       -2.35573156e-03, -1.22263900e-03, -3.11981858e-04,
       -4.30165604e-03, 1.18694920e-03, 1.25918014e-03, -2.35898839e-03,
       -2.08883034e-03, 4.92746534e-04, -2.33423989e-03, -4.21748869e-03,
       -6.91353460e-04, -2.77551007e-03, -2.80501368e-03, 1.36345846e-03,
       3.13807745e-03, -2.87852192e-04, 3.87380179e-03, -2.27161264e-03,
       8.28323013e-04, -4.42851800e-04, -5.76489931e-03, -2.96870759e-03,
       8.14060331e-04, 2.91567086e-03, 7.14617418e-05, 2.73050950e-03,
       -3.00279725e-03, 9.28915339e-04, 3.77526776e-05, -6.06070925e-03,
       -6.46846602e-04, 2.14276114e-03, 1.08693354e-03, -3.89817567e-03,
       4.46999725e-03, -1.94760459e-03, 3.37283360e-03, 9.17387024e-06,
       -5.00539644e-03, 8.52796889e-04, 1.63326215e-03, -6.72832597e-04,
       -4.29998292e-03, 2.18475284e-03, -2.31042085e-03, 3.27316253e-03,
       2.40993599e-04, -3.54002300e-03, -4.50826902e-03, 1.36776082e-03,
       2.74207629e-03, -8.18570668e-04, 1.41379365e-04, 3.57435131e-03,
       -1.61190506e-03, 1.88627047e-03, -3.48897208e-03, -5.99965872e-03,
       1.05765287e-03, 1.58846716e-03, 3.36093042e-04, 1.72487553e-03,
       4.10015741e-03, -1.40613716e-04, 4.36466094e-03, -3.14282230e-03,
       -2.57154950e-03, 1.36096147e-03, 6.26596250e-03, 1.30374834e-03,
       -2.72600004e-03, 3.54909780e-03, -1.45404052e-03, 7.46640202e-04,
       -1.28443795e-03, -3.59163107e-03, 4.64837038e-04, 4.48104646e-03,
       4.67315409e-03, -7.47086422e-04, 4.92884731e-03, -1.22796441e-03,
       4.06552479e-03, -6.73942792e-04, -6.78723259e-03, 1.22869702e-03,
       2.78016040e-03, 1.90360378e-03, 2.42613791e-03, 1.70825777e-04,
       1.37521664e-03, -7.04208433e-05, -3.18784337e-03, -6.20167982e-03,
       2.99754529e-03, 3.47283529e-03, -1.12708367e-03, 1.95888523e-03,
       -6.16591205e-05, 1.06143777e-03, -2.20044749e-04, -2.96812458e-03,
       -8.55581556e-03, -9.79907694e-04, 2.38506380e-03, 2.16520135e-03,
       5.53779583e-03, -9.37830831e-04, -4.48485807e-04, -6.04584755e-04,
       -3.39573529e-03, -8.02328903e-03, 3.35340563e-04, 3.24301654e-03,
       -2.69041909e-03, 5.40427538e-03, -1.43498124e-03, -1.81429135e-03,
       -1.08150684e-03, -3.22986743e-03, -5.29394671e-03, 2.57364911e-04,
       3.69904854e-04, 2.06525816e-04, 3.06821615e-03, 7.74380425e-03,
       2.56591057e-03, -1.47410564e-03, 3.12787411e-03, -6.50003692e-03,
       7.64685799e-04, -1.25893310e-03, 4.45322396e-04, 2.65003508e-03,
       7.86682032e-03, 3.25087388e-03, -4.74007102e-05, 3.71854915e-03,
       -5.41904848e-03, 1.04177091e-03, 9.64144361e-04, -7.29572319e-04,
       2.58287950e-03, 8.49236269e-03, 3.12472199e-04, -2.29969341e-03,
       2.34015868e-03, -6.37081126e-03, 2.57651764e-03, 1.52422537e-04,
       7.66221492e-04, 2.09238473e-03, 6.66949479e-03, -2.66645075e-04,
       -6.40954007e-04, 2.25535431e-03, -3.61474184e-03, -2.25690170e-03,
       -4.57353238e-03, -1.10815431e-03, 5.63209411e-04, 2.81118858e-03,
       5.20498445e-03, 1.56228093e-03, -5.34700172e-04, -3.61095252e-03,
       -4.52509010e-03, -3.61392926e-03, 4.28115862e-04, 1.12707855e-03,
       3.10653052e-03, 3.51316528e-03, 9.12933203e-04, 5.74605481e-04,
       -3.59814824e-03, -4.13300330e-03, -6.45685615e-03, 1.66202954e-04,
       -6.70159818e-04, 2.71172752e-03, 4.84110834e-03, 1.77148345e-03,
       -9.27073299e-04, -2.45754817e-03, -7.48995272e-03,
       -5.29305963e-03, 2.16598809e-03, -4.12770751e-04, 3.14877531e-03,
       2.14436022e-03, 9.39605292e-04, 1.04657235e-03, -3.44206486e-03,
       6.94333203e-03, 4.09754179e-03, 4.36409330e-03, 6.13797968e-03,
       2.60622520e-03, 3.41354311e-03, -7.98108522e-03, -4.02251084e-04,
       -3.96750541e-03, 6.69124816e-03, 4.75602690e-03, 3.78858414e-03,
       8.59081000e-03, 3.38369468e-03, 4.22835583e-03, -8.35856609e-03,
       -7.54944049e-04, -3.16675473e-03, 8.47406592e-03, 5.78588387e-03,
       6.25104923e-03, 7.52784032e-03, 1.57727639e-03, 2.45985202e-03,
       -1.01276794e-02, -1.12394528e-05, -2.56955507e-03, 7.48303486e-03,
       5.88556239e-03, 5.55241294e-03, 9.18332767e-03, 2.50875577e-03,
       3.59835266e-03, -1.10394973e-02, -7.97565037e-04, -1.21409388e-03,
       1.57776335e-03, 1.46975811e-03, -1.10892754e-03, -5.68657229e-03,
       2.30659638e-03, 9.44019353e-04, 1.07369421e-03, -6.51353830e-03,
       -1.81195268e-04, 1.21338067e-04, -1.49983994e-03, -1.65080931e-03,
       -4.29862458e-03, 2.06958177e-03, 5.99023711e-04, 1.43032685e-05,
       -8.13118927e-03, -1.10620027e-03, 3.08217644e-03, 2.43452145e-04,
       -4.00617719e-03, -7.84884766e-03, 4.01204405e-03, 1.45519525e-03,
       3.63116851e-03, -6.80744229e-03, -6.72789465e-04, 1.89216970e-03,
       -3.53470538e-03, -5.86191239e-03, -7.05933431e-03, 3.58807528e-03,
       2.00373889e-03, 4.21979930e-03, -8.29911046e-03, 2.31521390e-03,
       2.56661628e-03, 3.95871093e-03, 4.04971512e-03, 4.17862134e-03,
       -1.48678862e-03, -6.28276786e-04, -2.08956981e-03,
       -6.42665895e-04, 1.83618697e-03, 3.08325398e-03, 3.38353869e-03,
       2.36922968e-03, 6.84658857e-03, -2.36895378e-03, 1.39255566e-03,
       -1.94313459e-03, -2.66132015e-03, 3.82438698e-03, 2.11445428e-03,
       3.81671591e-03, 5.37146721e-03, 4.22951719e-03, -6.16019068e-04,
       -4.37214949e-05, -4.13299957e-03, -3.39187769e-04, 2.45684735e-03,
       3.70185194e-03, 2.15993542e-03, 4.25352156e-03, 7.19445990e-03,
       -2.52480106e-03, 3.17273685e-03, -4.13947878e-03, -3.08892014e-03,
       -7.76756415e-03, -1.79188082e-03, -1.02347648e-03, 7.71906751e-04,
       2.54613766e-03, 2.23948527e-03, 2.41756719e-03, -4.63849446e-03,
       -5.10184234e-03, -5.35343029e-03, 6.91421446e-04, 3.84520995e-03,
       4.46212990e-03, 3.82918795e-03, 1.94908679e-03, 2.79796589e-03,
       -7.64139974e-03, -6.47960464e-03, -8.20150599e-03,
       -9.04975925e-04, 2.38895556e-03, 3.72768845e-03, 4.52021137e-03,
       1.70343695e-03, 1.30796328e-03, -4.28241398e-03, -4.89823846e-03,
       -5.18360455e-03, 2.22383905e-03, 9.40653123e-03, 9.45958309e-03,
       5.39154001e-03, 1.82160072e-03, 1.51833682e-03, -7.45087443e-03,
       -6.29923260e-03, -6.95312512e-04, 6.27986621e-04, 3.41396371e-04,
       -3.94594343e-03, 1.44667830e-03, 2.17038745e-04, -6.89154584e-03,
       -2.39628344e-03, 2.87622958e-03, 3.02062044e-03, 4.71472600e-03,
       1.78469042e-03, -5.60549740e-03, 2.95829843e-03, 2.17050663e-04,
       -6.68219384e-03, -7.76814704e-05, 3.99039919e-03, -9.18453501e-04,
       2.23988364e-03, 1.05277484e-03, -3.40630184e-03, 4.76629240e-03,
       3.18376301e-03, -1.19319223e-02, -4.62639192e-03, 2.81753996e-03,
       2.51159747e-03, 7.07892841e-03, 3.08252638e-03, -3.57663305e-03,
       5.81970857e-03, 3.29554547e-03, -1.28244460e-02, -2.13584164e-03,
       4.75457357e-03, 1.49446109e-03, 2.38440256e-03, -6.51626382e-04,
       1.82199571e-03, 2.11203541e-03, -5.29889912e-05, -2.93109519e-03,
       -2.25322437e-03, -3.70861380e-04, 2.19928962e-03, 1.77943148e-03,
       -8.28335527e-04, -2.13629194e-03, 4.39343741e-03, 1.42691587e-03,
       -1.68280338e-03, -3.11284233e-03, 1.54935627e-03, 2.05099210e-03,
       2.83760414e-03, -2.08851695e-03, 6.78456156e-04, 2.46624602e-03,
       1.08622666e-03, -5.13713993e-03, -4.78786416e-03, -2.36708019e-03,
       3.01740295e-03, 3.09585570e-03, -2.87423260e-03, -4.47966857e-03,
       4.92827035e-03, 3.55749065e-03, -3.92528018e-03, -6.12112414e-03,
       -3.26327019e-04, -8.14096909e-03, 2.42528645e-03, 2.69454787e-04,
       -1.77566009e-03, 2.55150115e-03, -4.46879398e-03, -4.30882955e-03,
       2.16091517e-03, -4.83314367e-03, -8.63343850e-03, 4.16380772e-03,
       1.77738443e-03, 6.35124597e-05, 8.99517036e-04, -6.06698543e-03,
       -5.23568317e-03, 2.70055840e-03, -5.69075625e-03, -8.04355647e-03,
       4.35190741e-03, 1.84580556e-03, 7.91526923e-04, 1.35983329e-03,
       -8.14263429e-03, -5.12283342e-03, 4.26555704e-03, -5.89145254e-03,
       -8.09657667e-03, 6.71761204e-03, 5.07145468e-03, 2.14738050e-03,
       -1.02470221e-04, -1.03755957e-02, -5.91823226e-03, 4.37050220e-03,
       -6.44450914e-03, 3.45718325e-03, 6.49061007e-03, 1.26677763e-03,
       -7.10118422e-03, 5.39673353e-03, -4.44179401e-03, -1.16035028e-03,
       -6.75968919e-03, -3.71367577e-03, 4.01528273e-03, 7.42650125e-03,
       -1.16938015e-03, -9.29716974e-03, 7.32557289e-03, -6.46034721e-03,
       -5.33132988e-04, -7.66827771e-03, -2.73253862e-03, 5.76490723e-03,
       8.91491491e-03, 2.42394186e-03, -1.05520608e-02, 3.19460686e-03,
       -6.11609640e-03, -2.59453431e-03, -8.93243775e-03,
       -1.36845687e-03, 6.54756883e-03, 8.83751735e-03, 3.98191652e-04,
       -1.32505298e-02, 2.98202108e-03, -7.89552368e-03, -1.83858257e-03,
       -1.02034025e-02, 1.52263092e-03, 1.61526713e-03, -1.86879374e-03,
       -1.33570738e-03, -3.71091464e-03, -7.71719380e-04, 3.69080435e-03,
       1.44817447e-03, 2.35006050e-03, -2.33039886e-04, 6.35617878e-04,
       -2.59079179e-03, -2.74445931e-03, -4.37130779e-03,
       -1.65504648e-03, 2.56775529e-03, 1.73896539e-03, 2.91383849e-03,
       -1.74614112e-03, 9.29169357e-04, -2.92061782e-03, -5.41115645e-04,
       -4.74571297e-03, 1.37041218e-03, 4.26123198e-03, 2.16216664e-03,
       2.44880584e-03, 1.28578197e-03, -5.57511748e-06, -3.17600882e-03,
       -2.94734910e-03, -6.10823883e-03, 1.08901702e-03, 3.57103720e-03,
       2.56595179e-03, 4.89513809e-03, 9.40999598e-04, -2.37474707e-03,
       -2.98002997e-04, -5.28039085e-03, -3.05788766e-04, 5.37591660e-03,
       5.07541792e-03, 4.19415213e-04, 2.44789687e-03, 3.96014861e-04,
       -2.12749932e-03, -4.59412462e-04, -8.80004186e-03, 1.07194115e-04,
       7.01326458e-03, 7.20536755e-03, 2.88738823e-03, 5.35620004e-03,
       6.99726341e-04, 7.06795603e-04, -3.62137193e-03, -6.93734875e-03,
       1.59731077e-04, 7.00177345e-03, 5.85959945e-03, 5.82231314e-06,
       2.74201343e-03, 9.10811126e-04, 1.78240379e-03, -6.29224582e-03,
       -1.18896430e-02, 8.12239887e-04, 9.94329900e-03, 8.65622237e-03,
       2.70939339e-03, 5.93317673e-03, 2.58800853e-03, 8.17725435e-04,
       -2.21185759e-03, -4.71506501e-03, 8.58475978e-04, 1.32100249e-03,
       5.79982297e-03, 1.44403882e-03, -1.04845595e-03, -4.88993386e-03,
       2.44954042e-03, -8.97644844e-04, -5.41169243e-03, -1.61608332e-03,
       -1.38636178e-03, 5.98656386e-03, 2.84034468e-04, -1.17950595e-03,
       -5.03586605e-03, 5.21545473e-04, -8.05299205e-04, -4.59496398e-03,
       1.93837681e-03, 7.55311165e-04, 4.91782045e-03, 1.57354528e-03,
       -2.74809240e-03, -4.23969422e-03, 3.37832561e-03, 8.67004332e-04,
       -4.95670596e-03, -1.47239247e-03, -3.28484853e-03, 3.25872167e-03,
       -1.82512449e-05, -2.34441622e-03, -2.94959615e-03,
       -6.06864784e-03, -4.63531731e-04, -4.42618039e-03,
       -2.50188285e-03, -1.03104266e-03, 3.98540497e-03, 1.98110030e-03,
       7.52559048e-04, -3.50340968e-03, -6.10517990e-03, 2.11105356e-03,
       -4.16144961e-03, -3.72096524e-03, -2.52305786e-03, 6.15093298e-03,
       4.78078658e-03, 1.71662803e-04, -4.85493056e-03, -4.05024504e-03,
       1.46179704e-03, -3.99358571e-03, -1.95925194e-03, 1.84395106e-03,
       5.81285683e-03, 2.92220339e-03, -1.16451131e-03, -5.09211933e-03,
       -2.85637612e-03, 4.28460492e-03, -3.09984898e-03, -2.91492906e-03,
       9.49986628e-04, 7.82412663e-03, 6.41169958e-03, -2.01331172e-03,
       -5.55061409e-03, -7.61745544e-03, 1.27216219e-04, -4.34555346e-04,
       4.04235488e-03, 1.72127818e-03, -2.97852140e-03, -5.74862177e-04,
       2.93607917e-03, -7.45166093e-04, -9.69623309e-03, -3.30848922e-03,
       -2.39519915e-03, 2.82215560e-03, 1.45522831e-03, -3.36470339e-03,
       -7.18997791e-04, 4.32337495e-03, 6.24609587e-04, -5.05205756e-03,
       6.47479319e-04, -1.79776491e-03, 3.53464088e-03, 9.83123318e-04,
       -4.73073125e-03, 5.93524310e-04, 5.87697700e-03, 2.29846570e-03,
       -5.80413360e-03, -2.96511920e-03, -3.61645222e-03, 2.07954785e-03,
       1.35142740e-03, -4.80084121e-03, 7.67875521e-04, 7.54607609e-03,
       5.70388697e-03, -3.61473649e-03, 2.25098245e-03, 8.80241394e-04,
       1.05605612e-03, 3.61168035e-03, 1.11194106e-03, -1.23660977e-03,
       2.30677961e-03, -4.79458366e-03, -2.72872369e-03, 2.19948008e-03,
       3.38047656e-04, 1.96884922e-03, 3.54448054e-03, 1.37412094e-03,
       -4.26828832e-04, 3.45471688e-03, -4.99130785e-03, -3.42471572e-03,
       2.21894588e-04, 4.98383364e-04, 7.38521980e-04, 2.80828774e-03,
       1.86227250e-03, -1.48973009e-03, 2.13202275e-03, -3.27424589e-03,
       -3.25076841e-03, 6.67489425e-04, 6.24667970e-04, 9.89813590e-04,
       2.58628814e-03, 2.28056381e-03, 4.45818761e-04, 1.82043982e-03,
       -2.68748519e-03, 2.01082366e-04, -7.56723341e-04, 3.62266810e-03,
       6.72352733e-04, -1.86491827e-03, 8.53628502e-04, 2.82618799e-03,
       -3.39174352e-04, -4.16166848e-03, 3.32685979e-03, 3.43145919e-04,
       3.21958214e-03, 7.65258737e-05, -1.06126326e-03, 7.15878210e-04,
       5.79749933e-03, 1.24796503e-03, -1.19570794e-03, 2.58636707e-03,
       -5.68699616e-04, 3.93236522e-03, 1.39956898e-03, -4.60473727e-03,
       1.56054925e-03, 5.02128480e-03, -2.81257648e-03, -3.70346708e-03,
       5.93409175e-03, 4.73042310e-04, 3.68792517e-03, 8.30003177e-04,
       -2.75251665e-03, 1.62453717e-03, 7.52151618e-03, -6.74630050e-04,
       2.20778791e-04, 5.38044982e-03, 4.51981602e-03, -3.89288121e-04,
       -5.34902792e-03, -4.28543519e-03, -3.25053534e-03, 4.47702128e-03,
       2.85604852e-03, -3.14288074e-04, 9.41947661e-03, 5.95436711e-03,
       4.88996156e-04, -5.34942281e-03, -2.92504719e-03, -9.44111671e-04,
       3.29508190e-03, 2.60156486e-03, 1.15244044e-03, 6.33417536e-03,
       3.49213439e-03, 1.02211570e-03, -8.78089201e-03, -3.84452590e-03,
       -4.58238460e-03, 3.84204648e-03, 8.91698292e-04, -7.44050834e-04,
       1.11390231e-02, 3.78891570e-03, 1.01169141e-03, -9.68294963e-03,
       -1.84948766e-03, -1.09205942e-03, 3.67942546e-03, 2.18023401e-04,
       1.48697908e-03, -5.57080260e-04, -3.62916547e-03, 1.55713665e-03,
       5.09359501e-03, 2.53473502e-03, -1.20352360e-03, 5.65153314e-03,
       -1.36667059e-03, -3.48480418e-03, 7.04731734e-04, -3.36626964e-03,
       2.46955850e-03, 4.45551006e-03, 2.27864971e-03, 7.27615334e-05,
       6.59227371e-03, -2.93848966e-03, -4.78706975e-03, -1.92671386e-03,
       -5.02133649e-03, -1.23832526e-03, 5.51162986e-03, 3.94156249e-03,
       -1.99656421e-03, 7.42053008e-03, -2.83249014e-04, -4.61371848e-03,
       1.00743643e-03, -4.86973999e-03, -1.44049712e-03, 5.73910773e-03,
       3.92428832e-03, 2.27241559e-04, 8.51011276e-03, -1.79731601e-03,
       -4.32678685e-03, 8.48525495e-04, 1.76965768e-04, 6.74872368e-04,
       -4.85392520e-03, 7.69607577e-05, -1.72144093e-03, 4.40508546e-03,
       1.17262441e-03, 1.93152204e-03, 3.99701064e-03, -1.44197675e-03,
       1.74339989e-03, -3.92111810e-03, 6.38625119e-04, -2.72932462e-03,
       7.22416025e-03, 2.64165271e-03, 4.86049941e-03, -8.95084639e-04,
       -1.80384354e-03, 6.71844988e-04, -6.40057120e-03, 3.96699732e-04,
       -1.57373969e-03, 5.69222355e-03, 3.23433289e-03, 2.10997439e-03,
       3.33639188e-03, -3.08509055e-03, 1.70082343e-03, -4.49752156e-03,
       1.06167397e-03, -3.32767586e-03, 7.58988690e-03, 3.63403279e-03,
       4.90719732e-03, 2.53819698e-03, 2.93240510e-03, 9.15921235e-04,
       3.38584254e-03, -6.98102638e-04, 1.77143636e-04, -2.49164668e-03,
       -3.61062400e-03, -5.59786567e-04, 3.07718106e-03, 5.62362000e-03,
       2.89815827e-03, 5.35526965e-03, -2.69856653e-03, -1.78681381e-04,
       -5.10586845e-03, -3.21082422e-03, -1.65238464e-03, 6.33854745e-03,
       3.87093099e-03, 9.32891271e-04, 2.89336126e-03, -6.29747403e-04,
       -1.88338303e-03, -2.76530161e-03, -7.28616025e-03,
       -1.25722261e-03, 6.71023177e-03, 6.91215042e-03, 2.13663210e-03,
       4.42717550e-03, -1.76569819e-03, -2.20741192e-03, -5.91934333e-03,
       -6.14702981e-03, -1.05832762e-03, -1.12337852e-03,
       -1.18961663e-03, -7.81881681e-04, 4.01671743e-03, -2.84502112e-05,
       -2.31521972e-03, 5.08977007e-03, 2.49421247e-03, -3.07395938e-03,
       4.17519972e-04, -7.65795994e-04, -3.06721521e-03, 5.78691484e-03,
       4.64401412e-04, -1.66031392e-03, 5.28913317e-03, 1.75440684e-03,
       -1.27845968e-03, -2.18270463e-03, -2.78358161e-03,
       -1.13004458e-03, 5.49493637e-03, 1.16673182e-03, -3.15638259e-03,
       4.29206342e-03, 2.80841067e-03, -3.46822361e-03, -1.30933663e-03,
       -2.36457982e-03, -2.64680851e-03, 7.70184211e-03, 3.01087415e-03,
       -1.82093750e-03, 2.74466118e-03, 2.84653623e-03, 9.52219591e-04,
       -7.32138846e-03, -4.41777520e-03, 1.00802653e-03, 1.05733774e-03,
       2.40464695e-03, -1.34970678e-03, 4.93623270e-03, 1.32845028e-03,
       -5.41915419e-03, -8.52580369e-03, -6.17736578e-03, 9.16219607e-04,
       1.61246676e-03, 3.36780562e-03, -1.72584620e-03, 6.41913433e-03,
       -8.21973008e-05, -5.02266502e-03, -9.09125432e-03,
       -4.47296118e-03, 2.28809236e-04, 2.50634621e-03, 1.59160444e-03,
       -1.81545143e-03, 4.62872209e-03, 1.88242120e-03, -7.04223430e-03,
       -1.06092561e-02, -5.90505125e-03, -8.88927258e-04, 3.34246852e-03,
       2.61892565e-03, -9.96169751e-04, 5.99893648e-03, -3.25673551e-04,
       -7.01138098e-03, 1.63204619e-03, -2.06240267e-03, 6.25494868e-03,
       1.14171510e-03, -6.85337977e-03, -9.76053925e-05, 3.74789204e-04,
       -1.63374387e-03, 1.03922840e-03, 2.58503761e-03, -3.43131856e-03,
       7.99932703e-03, 1.02738704e-04, -6.94739213e-03, -7.91763479e-04,
       1.88085996e-03, -2.23074225e-03, 3.16019607e-04, 3.65075469e-03,
       -2.76329345e-03, 8.18890240e-03, -5.96089172e-04, -8.53062794e-03,
       -4.14791226e-04, -1.26497442e-04, -2.70633213e-03, 1.14610069e-03,
       5.38420817e-03, -2.26958818e-03, 1.07371621e-02, -1.01697515e-03,
       -8.85570608e-03, -1.13919470e-03, 2.23098556e-03, -2.91359308e-03,
       -1.18166069e-03, -3.59190721e-03, -2.27832352e-03,
       -2.59316200e-03, 2.52089999e-03, 4.40108357e-03, 5.38705569e-03,
       9.19605664e-05, -9.37054108e-04, -1.81772327e-03, -6.60583656e-03,
       -3.15355160e-03, -2.97961524e-03, 8.95136385e-04, 2.89139710e-03,
       6.22970052e-03, 9.58739023e-04, 2.67942756e-04, -2.67969398e-03,
       -5.85319055e-03, -4.77457978e-03, -3.47396196e-03, 3.51785310e-03,
       8.25203583e-03, 5.69949253e-03, 2.12751888e-03, 2.64824857e-03,
       -4.98852273e-03, -9.13837273e-03, -6.95890747e-03,
       -2.80024600e-03, 2.57113599e-03, 8.10471084e-03, 6.19925698e-03,
       2.67130393e-03, 3.73830413e-03, -6.91115158e-03, -2.64817174e-03,
       -1.19199732e-03, 5.17759872e-05, 2.59660138e-03, 2.56263465e-03,
       1.89988990e-03, 4.20212513e-04, -6.83595601e-04, -5.09121502e-03,
       -4.05658921e-03, -4.69111226e-04, 4.21859964e-04, 2.70417170e-03,
       5.11395652e-03, 2.69791903e-03, -9.74954397e-04, -2.60215183e-03,
       -4.93914401e-03, -4.58629336e-03, -2.54258607e-03,
       -3.15062382e-04, 1.18154997e-03, 2.33827042e-03, 8.04504380e-04,
       2.21969956e-03, 1.74040569e-03, -6.18790276e-03, -6.35385374e-03,
       -3.12860706e-03, 6.80275843e-04, 1.05804298e-03, 4.75451397e-03,
       8.75889615e-04, 1.43740315e-03, 1.46151858e-03, -4.53233300e-03,
       -1.55656540e-03, 3.44789616e-04, 9.48306406e-04, 7.85068914e-05,
       8.28757882e-04, 2.06253328e-03, 5.65659674e-03, -1.89247902e-03,
       -9.53170704e-04, 1.24031608e-03, 6.67928907e-05, 1.68999401e-03,
       -1.99836632e-03, -1.88692333e-03, 3.23454826e-03, 7.63333542e-03,
       8.67669354e-04, 3.48133640e-03, -4.80702566e-03, 1.37344978e-04,
       3.20238434e-03, 2.07116501e-03, -1.31499197e-03, 1.96055253e-03,
       5.69513440e-03, -1.81536109e-03, -1.58898043e-03, -1.23851409e-03,
       -2.49472330e-03, 3.17466166e-03, 9.67338972e-04, -3.19771538e-03,
       3.21045332e-03, 7.19237793e-03, 1.62561284e-03, 3.24622216e-03,
       -1.44545245e-03, -9.37710237e-03, 6.29702990e-04, 1.23662676e-03,
       5.70047414e-04, -2.71061988e-04, 2.97539099e-03, 4.13682684e-03,
       -8.01923510e-04, -1.04231504e-03, -1.07347500e-02, 3.50337964e-03,
       1.56340399e-03, 6.22729494e-05, -2.93971068e-04, 4.27381275e-03,
       3.31643247e-03, -4.02186502e-04, -3.57868290e-03, -9.31003783e-03,
       2.73183337e-03, 2.04416364e-03, 2.57386081e-03, 1.58909534e-04,
       3.63640673e-03, 3.61794885e-03, -1.68245716e-03, -4.78330906e-03,
       -1.11394189e-02, 5.91113046e-03, 1.13756920e-03, 2.62410496e-03,
       1.32215978e-03, 5.23512950e-03, 2.65395897e-03, -8.84261855e-04,
       -6.62768446e-03, -3.63180484e-03, 1.72368588e-03, 6.86734682e-03,
       -3.87634384e-03, 4.37274715e-03, 1.55169226e-03, 3.07381828e-03,
       -2.17602984e-03, -6.24282192e-03, -5.61786070e-03, 2.67972169e-03,
       8.10531806e-03, -4.34474135e-03, 5.67164598e-03, 2.47511943e-03,
       4.09239251e-03, -1.28297950e-03, -3.78185674e-03, 2.91614735e-04,
       9.43375111e-04, 6.17657602e-03, -5.78867551e-03, 3.93267768e-03,
       1.71115214e-03, 3.56094935e-03, -3.05146165e-03, -3.51390848e-03,
       -1.26799836e-03, 3.02118971e-03, 8.06544255e-03, -6.30933512e-03,
       5.59172127e-03, 2.70996452e-03, 3.55843594e-03, -1.53634732e-03,
       -1.23357982e-03, 6.06527756e-05, -1.44541916e-03, -1.36838073e-03,
       7.32475147e-03, 2.95911543e-03, -4.57952585e-04, -2.53058341e-03,
       1.25310989e-03, -6.44440704e-04, 1.64566940e-04, -1.63217646e-03,
       -2.13378412e-03, 7.08675617e-03, 5.56239672e-03, 5.08957019e-04,
       -4.19325288e-03, 1.46268139e-04, -7.62108946e-04, -1.80429174e-03,
       -2.83878297e-03, -2.38796580e-03, 1.10035632e-02, 4.44749836e-03,
       1.01506989e-03, -2.55801599e-03, -1.09818822e-03, 9.68371634e-04,
       -2.03200546e-03, -2.84337788e-03, -2.04477739e-03, 1.11245466e-02,
       7.01740105e-03, 1.56080525e-03, -4.19660797e-03, -2.87926546e-03,
       -2.19548726e-03, 1.84416806e-03, 3.91582679e-03, -1.98972761e-03,
       7.55031360e-03, -3.68131528e-04, -5.51124942e-03, -2.94201751e-03,
       -1.42232154e-03, -4.15937649e-03, 2.85118027e-03, 4.70655086e-03,
       -3.35941976e-03, 8.42765905e-03, -2.91850709e-04, -5.76289510e-03,
       -6.09225172e-05, -3.38953221e-04, 4.69268474e-04, 3.46304523e-03,
       4.76451544e-03, -8.00034381e-04, 5.98762929e-03, -1.14132010e-03,
       -7.24506285e-03, -4.66271536e-03, -2.70406832e-03,
       -9.92456800e-04, 3.64227802e-03, 5.62168425e-03, -3.19568114e-03,
       7.24431500e-03, -6.24066277e-04, -7.45272357e-03, -9.13167547e-04,
       2.63802678e-04, -2.78929761e-03, -3.18815373e-03, 3.40497209e-04,
       3.42684652e-05, -6.23054476e-03, 2.03130324e-03, 5.12401853e-03,
       4.99236444e-03, 3.95840674e-04, -2.73683970e-03, -4.95449034e-03,
       -1.23250997e-03, -1.83240219e-03, -8.43745656e-03, 4.81845951e-03,
       7.96305295e-03, 6.63934229e-03, 1.99736026e-03, -2.70713936e-03,
       -3.47929890e-03, -4.17839648e-04, -1.62748946e-03,
       -4.85420180e-03, 3.58346524e-03, 6.37344643e-03, 5.37233474e-03,
       3.92255781e-04, -9.86384461e-04, -5.02204383e-03, -3.16574075e-03,
       -2.73745437e-03, -7.05465022e-03, 6.82347780e-03, 9.87835694e-03,
       6.59608655e-03, 2.00061081e-03, 4.32594679e-03, 1.20949326e-03,
       3.62703623e-03, 4.47819661e-03, -2.25920253e-03, -1.78361591e-03,
       -1.58893259e-03, 9.00321233e-04, 1.38372241e-03, 4.04355256e-03,
       -1.20063580e-03, 3.89296119e-03, 3.18336533e-03, -2.65259412e-03,
       1.69777937e-04, -1.13985594e-03, 1.95897021e-03, 1.85063027e-03,
       4.68657725e-03, -1.55487459e-03, 2.39100284e-03, 2.42700754e-03,
       -3.28282686e-03, -2.18774076e-03, -7.27638952e-04, 1.82199397e-03,
       2.67176516e-03, 5.14504965e-03, -4.21205861e-03, 3.17788124e-03,
       -1.31177430e-05, -4.19115322e-03, 2.98971951e-04, 6.47628563e-04,
       2.99454527e-03, 4.87763342e-03, 5.21802285e-04, 5.83860092e-04,
       -2.98771332e-03, -5.01018902e-03, -8.10013909e-04,
       -6.07221806e-03, 9.86349536e-04, 2.58583599e-03, 3.93758295e-03,
       -2.46076874e-04, -9.42100189e-04, -2.86202948e-03,
       -4.51930892e-03, 3.24684964e-03, -6.75206026e-03, -3.48837668e-04,
       2.58287531e-03, 7.56874355e-03, 6.24843175e-04, 4.67630365e-04,
       -3.68487951e-03, -6.33181632e-03, 3.43413500e-04, -9.58305039e-03,
       1.61171705e-03, 3.74809839e-03, 4.03891783e-03, 6.56142947e-04,
       5.25895884e-05, -3.90232890e-03, -6.39536744e-03, 4.33554593e-03,
       -1.01493048e-02, 5.32382168e-04, 4.77549108e-03, 9.20596998e-03,
       -4.05464694e-03, -3.21936357e-04, 1.65879098e-03, 3.17026535e-03,
       -8.68335017e-04, 3.31731141e-03, 5.30334748e-03, 2.99872924e-03,
       -1.51114352e-03, -5.86683676e-03, 2.60043107e-05, -9.11021707e-05,
       1.64722232e-03, -8.37837404e-04, 3.17702047e-03, 6.16292702e-03,
       1.98285514e-03, -1.32699031e-03, -5.02221100e-03, 8.46129027e-04,
       1.86626660e-03, 2.41695601e-03, -1.67776155e-03, 4.73614549e-03,
       6.73270226e-03, 3.75129166e-03, 1.18495145e-05, -7.33477389e-03,
       1.83631107e-03, 1.06419565e-03, 7.12097157e-04, -2.50308565e-03,
       5.85246412e-03, 7.25002214e-03, 2.18439498e-03, 5.51474106e-04,
       6.82911050e-05, 5.30029600e-03, 9.25108418e-03, -1.85445009e-04,
       -2.06438289e-03, -9.39726364e-03, -5.64973755e-03,
       -5.65147121e-03, -3.80791584e-03, 6.64395047e-04, 4.48170723e-03,
       9.68324766e-03, 2.32953392e-03, -2.03273725e-03, -1.10301282e-02,
       -7.60018313e-03, -5.39076421e-03, -4.19433601e-03, 2.40684476e-05,
       4.86036157e-03, 1.18890190e-02, -1.40193535e-03, 4.38503484e-04,
       -1.20936483e-02, -6.18013320e-03, -5.77454688e-03,
       -3.32145300e-03, 9.95942857e-04, 4.49650455e-03, 1.20237451e-02,
       5.03712858e-04, -1.21027487e-03, -1.51819056e-02, -8.10145028e-03,
       -4.80720261e-03, -3.25827650e-03, -5.93480188e-03, 2.09903548e-04,
       -4.70873696e-04, -5.35668246e-03, 4.06323606e-03, -1.78872922e-03,
       -1.63513969e-03, -6.99718075e-04, -4.23284713e-03,
       -6.15284313e-03, -9.36056487e-04, 5.81117172e-04, -7.02529028e-03,
       4.79244627e-03, 6.99472148e-04, -3.21598444e-03, 3.15968646e-04,
       -4.85521322e-03, -5.59592340e-03, -1.83675019e-03,
       -5.16900618e-04, -5.45082055e-03, 5.01566194e-03, -5.08285454e-03,
       -1.65512890e-03, 2.74464634e-04, -1.44303066e-03, -4.16230178e-03,
       -3.22087272e-03, -1.11214576e-04, -6.83528697e-03, 5.16193034e-03,
       -2.98204971e-03, -2.53933249e-03, 2.29904172e-03, -6.47254987e-04,
       -3.59831704e-03, 2.17961404e-03, 1.28848851e-03, -3.07480828e-03,
       -3.42974393e-03, 6.85993116e-04, 4.54717968e-03, -2.50759651e-03,
       -4.23424970e-03, -2.74808798e-03, 4.26035468e-03, 2.47165677e-03,
       -3.41315079e-03, -6.32216688e-03, -7.25736667e-04, 5.96942613e-03,
       -4.97614080e-03, -4.66587674e-03, -1.72858546e-03, 6.05615554e-03,
       2.58556637e-03, -4.67436295e-03, -7.79269077e-03, -4.87736543e-04,
       3.15607851e-03, -3.91001999e-03, -1.99588001e-04, 1.14476390e-03,
       9.34927259e-03, 3.59860063e-03, -6.15993747e-03, -1.25895208e-02,
       -1.30548247e-03, 6.00650022e-03, -7.04561640e-03, 5.17684093e-04,
       3.77709302e-03, 6.27272809e-03, 5.95619669e-04, -2.55455193e-03,
       4.84368764e-03, 3.88993090e-03, -3.79629643e-03, -7.57144811e-03,
       -4.10766480e-03, 3.07930354e-03, 8.06615129e-03, -1.85925339e-03,
       -3.02456296e-03, 5.13233943e-03, 5.57273021e-03, -3.56607977e-03,
       -8.12225509e-03, -4.63170884e-03, 4.84117633e-03, 8.32675491e-03,
       2.07023765e-03, -4.15562512e-03, 5.24727348e-03, 5.17334417e-03,
       -3.81247047e-03, -7.23289186e-03, -2.07728310e-03, 3.55611322e-03,
       9.41983145e-03, 1.52022505e-04, -4.22741659e-03, 4.64539975e-03,
       8.05659778e-03, -3.54295410e-03, -6.92970725e-03, -2.18966906e-03,
       -3.26015470e-05, -4.46352782e-03, -4.42430982e-03,
       -4.60954499e-04, -3.70855676e-04, 1.32422254e-03, -5.67981182e-03,
       -6.71734160e-05, 2.34119268e-03, 1.97189930e-03, -1.06991641e-03,
       -3.15495837e-03, -2.28895136e-04, 3.90983274e-04, 1.41863292e-03,
       -5.83588379e-03, -1.37408962e-03, 3.68994405e-03, 2.86608934e-03,
       -2.07530544e-03, -9.82693047e-04, -3.07798386e-04,
       -3.71899368e-04, -1.46476174e-04, -5.17975492e-03, 1.93226617e-03,
       4.24110051e-03, 5.20099280e-03, 2.42716982e-03, 8.47356219e-04,
       6.42891217e-04, -3.57290206e-04, -9.69052548e-04, -5.89292124e-03,
       1.85909471e-03, 7.35139288e-03, 1.40019448e-03, 2.72224145e-03,
       1.34588580e-03, -2.58034607e-03, 3.35063116e-04, 1.81563105e-03,
       -2.10085255e-03, -2.36045034e-03, -2.09979480e-03, 9.40955710e-04,
       2.36801966e-03, 1.80196261e-03, -3.41304136e-03, 2.35863333e-03,
       3.66127049e-03, -1.59111689e-03, -2.05388083e-03, -2.97564850e-03,
       2.20277160e-03, 1.53600471e-03, 1.53855933e-03, -4.00797790e-03,
       2.80209468e-04, 3.11688380e-03, -4.31496097e-04, -1.39604288e-03,
       5.44558861e-04, 2.10277014e-03, 1.92829943e-03, 1.58378342e-03,
       -5.47895068e-03, 3.30582308e-03, 6.20429125e-03, 7.65245350e-04,
       -9.29783855e-04, -2.76141654e-04, -6.64336781e-04,
       -2.19321507e-03, 2.04441661e-04, 3.17740999e-03, 3.27366590e-03,
       -2.13004719e-03, 3.71200894e-03, -2.63170479e-03, -3.03504453e-03,
       -2.34639435e-03, -5.76282293e-03, -6.46829372e-04, 4.21235664e-03,
       3.01263086e-03, -2.95613310e-03, 5.66824060e-03, -4.88143414e-03,
       -3.23980278e-03, 7.95933476e-04, -3.39934789e-03, 4.68801794e-04,
       1.82213017e-03, 5.44879865e-03, -3.89776216e-03, 3.69105744e-03,
       -2.82302825e-03, -1.31373690e-03, 7.05072089e-05, -5.68203256e-03,
       1.21976284e-03, 2.99301813e-03, 5.17385872e-03, -3.96390492e-03,
       5.00304252e-03, -5.01171825e-03, -3.24852951e-03, -2.13822303e-03,
       2.16950662e-03, 3.58066615e-03, 1.39383343e-03, 2.63635535e-03,
       3.08533176e-03, -4.97615663e-03, -3.21612554e-03, -4.15749149e-04,
       -1.78120087e-03, 3.14873015e-03, 5.74828964e-03, 2.46019312e-03,
       3.89012881e-03, 4.00113128e-03, -8.15818086e-03, -6.62435452e-03,
       -1.83672062e-03, 1.85945595e-04, 3.78895109e-03, 5.82613982e-03,
       2.30970047e-03, 1.56329328e-03, 2.97564710e-03, -3.38073727e-03,
       6.29376911e-04, 4.24696691e-03, 2.03440152e-03, 4.28146170e-03,
       7.89708737e-03, 2.95424042e-03, 3.41347931e-03, 5.11773536e-03,
       -6.33755047e-03, -1.65869226e-03, 4.72665904e-03, 3.11861956e-03,
       2.04435294e-03, 4.65143984e-03, -6.66340638e-04, -1.60000427e-03,
       -2.39375769e-03, -7.21870922e-03, -5.18939737e-03, 2.53190612e-03,
       3.24405334e-03, 5.26630925e-03, 6.25806162e-03, -1.11375819e-03,
       -1.46868464e-03, -3.65298102e-03, -6.98107714e-03,
       -6.71091955e-03, 2.18556682e-03, 5.96807944e-03, 3.80057655e-03,
       5.57117024e-03, -1.50975329e-03, -2.26116157e-03, -3.72471078e-03,
       -7.95351900e-03, -5.36935404e-03, 3.79602751e-03, 6.56523090e-03,
       6.76882546e-03, 7.40207732e-03, -1.68287323e-03, -1.58360356e-03,
       -6.35032542e-03, -7.83826783e-03, -7.82032683e-03, 3.77530209e-03,
       2.93585588e-03, 2.21532304e-03, 8.47007846e-04, -7.11279409e-03,
       -3.44962161e-03, 4.70216386e-03, -1.05545437e-03, -2.08569248e-03,
       -1.20042893e-03, 5.07024163e-03, 5.31291962e-03, 2.17175297e-03,
       -5.20207500e-03, -2.73253809e-05, 4.41293558e-03, 1.90910953e-03,
       -1.78925868e-03, -3.45355948e-04, 6.81396341e-03, 2.66087032e-03,
       8.77695973e-04, -9.74743068e-03, -2.58468301e-03, 3.76204913e-03,
       -1.57405471e-03, -1.34470651e-03, 2.13102927e-03, 9.67328902e-03,
       7.28453603e-03, 1.46117108e-03, -8.17315932e-03, 7.39202485e-04,
       3.38123040e-03, 3.26596084e-03, -9.05684254e-04, 3.01075168e-03,
       -6.66246560e-05, -2.24187900e-03, -6.52962945e-06,
       -1.51944242e-03, 4.32414701e-03, -1.39537768e-03, -2.36172788e-03,
       3.13908188e-03, 1.02714018e-03, 8.14625237e-04, -9.21251893e-04,
       6.16740726e-04, -2.76519591e-03, 5.86538389e-03, -1.41208433e-03,
       -4.26178845e-03, 1.23902736e-03, -8.18928868e-07, -1.19105796e-03,
       -1.81150006e-03, 2.15478340e-05, -2.60241097e-03, 4.38507460e-03,
       -1.64892152e-03, -3.14934016e-03, 2.42160936e-03, -9.08513437e-04,
       -1.81106373e-03, 4.00057499e-04, 1.23850326e-03, -4.36583580e-03,
       6.30282192e-03, -1.88992696e-03, -5.11855446e-03, 1.61346034e-04,
       -2.21829372e-03, -9.19635131e-05, -3.19993054e-03,
       -8.20866728e-04, -4.13888739e-03, 1.57778279e-03, 2.60222191e-03,
       9.64363921e-04, -1.80244388e-03, 5.24268067e-03, -1.19968143e-04,
       -4.90662875e-03, -3.62122264e-05, -4.24519693e-03, 2.05408246e-03,
       3.95165849e-03, 1.60179683e-03, -2.15150742e-03, 5.13200974e-03,
       2.63315596e-04, -1.96068757e-03, 6.99017197e-04, -6.25981390e-03,
       4.60097240e-03, 5.36955846e-03, 2.08742637e-03, 2.48754106e-04,
       9.25473589e-03, 9.71444708e-04, -3.86430277e-03, 8.60112021e-04,
       -4.84445132e-03, 5.05356444e-03, 7.06219068e-03, 1.69934798e-03,
       7.39825948e-04, 1.02982000e-02, -8.39678664e-03, 9.76222509e-04,
       -6.11463678e-04, 2.29583049e-04, -2.58142129e-03, 9.79260658e-04,
       6.71819085e-03, 6.09476445e-03, -3.06984549e-03, -1.07257226e-02,
       1.11807545e-03, -1.47511938e-03, 3.66028165e-04, -1.39292877e-03,
       2.01498531e-03, 6.29037013e-03, 9.24363080e-03, -2.06788932e-03,
       -9.97598097e-03, 1.35521288e-03, -8.26106581e-04, -3.24231759e-03,
       -2.02614511e-03, 3.55946389e-03, 1.04984194e-02, 9.24025849e-03,
       -1.68501725e-03, -1.27879409e-02, 2.86095636e-03, -1.88302342e-03,
       -2.66797864e-03, -2.53059482e-03, 4.45077987e-03, 1.00258663e-02,
       1.27567286e-02, 6.57743542e-04, -6.49065524e-03, -1.51432154e-03,
       -1.36085681e-03, 4.29468695e-03, -1.89923361e-04, 3.64901056e-03,
       5.16455760e-03, 3.69555526e-03, -2.46654125e-03, -7.61135295e-03,
       -1.30177173e-03, -2.74988776e-03, 2.12565251e-03, 2.31150095e-03,
       4.59091598e-03, 5.53740561e-03, 2.60435464e-03, -3.02204094e-03,
       -3.90224066e-03, -9.90964007e-04, -2.12333049e-03, 4.34193807e-03,
       -1.48378499e-03, 2.39272835e-03, 5.00641530e-03, 5.24599804e-03,
       9.80213634e-04, -3.87884886e-03, -1.11251918e-03, -4.37792996e-03,
       1.13066297e-03, 1.15581159e-03, 2.87915603e-03, 4.17826837e-03,
       3.37739149e-03, 3.81930091e-04, -2.31457315e-03, -1.60621619e-03,
       2.34235404e-03, 1.13439986e-04, -4.42830985e-03, 9.75907722e-04,
       4.08279337e-03, -4.02887724e-03, -3.56293912e-03, -1.83487870e-03,
       -1.93668122e-04, 4.20725299e-03, 1.35258550e-03, -4.75658482e-04,
       1.87983818e-03, 2.84117763e-03, -5.89611987e-03, -4.94909938e-03,
       -1.79187348e-03, -1.41720241e-03, 2.62875413e-03, -1.55718438e-03,
       -4.22455510e-03, 2.55269674e-03, 4.18876531e-03, -2.49287044e-03,
       1.01992628e-03, -3.16686579e-04, 1.93743315e-03, 4.94091120e-03,
       4.20174445e-04, 5.66933770e-04, 3.62168811e-03, 3.19962669e-03,
       -3.28725879e-03, -3.45367822e-04, -2.06068275e-03, 4.28184168e-03,
       -3.32933408e-03, -2.41061935e-04, -4.61870339e-03,
       -1.56859096e-04, 2.50111823e-03, -6.94520539e-03, -1.96599867e-03,
       -1.50452455e-04, 4.60497150e-03, -1.63868815e-03, 3.09141632e-03,
       -2.73189647e-03, -1.82841759e-04, 2.47035385e-03, -7.16670463e-03,
       -3.49268597e-03, 1.30806045e-04, 3.95932654e-03, -4.13391413e-03,
       -9.75772680e-04, -6.28262851e-03, -1.42207125e-03, 1.17787125e-03,
       -8.10267869e-03, 4.36871574e-04, 2.14340794e-03, 3.68024199e-03,
       -3.16104642e-03, 2.78176111e-03, -4.82514687e-03, -1.75073475e-03,
       2.06663995e-03, -7.25973910e-03, -5.19234512e-04, -1.00054480e-02,
       -4.14011674e-03, 1.66483666e-03, -1.08613877e-03, -8.10662284e-04,
       4.34443587e-03, 3.51723656e-03, 4.54685232e-03, -2.80579762e-03,
       -1.20600341e-02, -4.60451841e-03, 3.08223860e-03, -9.39627585e-04,
       -1.37318252e-03, 5.62801911e-03, 4.33681486e-03, 3.01011046e-03,
       -3.07011837e-03, -8.78492743e-03, -4.22738353e-03, 4.31041280e-03,
       -6.84407714e-04, -1.04247010e-03, 5.30349882e-03, 2.43728352e-03,
       4.99967439e-03, 3.70603841e-04, -9.58637148e-03, -3.87361809e-03,
       5.59972133e-03, -2.73623533e-04, -3.99694429e-04, 6.00969093e-03,
       2.82233837e-03, 3.72388843e-03, 1.30776584e-03, -2.36178492e-03,
       1.28302883e-04, -7.89426267e-04, 1.17589592e-03, 3.39209149e-03,
       3.00802011e-03, -1.79086102e-03, -6.98426666e-05, -7.92496488e-04,
       -1.61473348e-03, -4.27625673e-05, -4.08174790e-04,
       -1.32199063e-03, 2.92757177e-03, 2.74516363e-03, -3.38768866e-03,
       -1.62469514e-03, -1.19525757e-04, -9.88969579e-04,
       -5.99258812e-04, 1.22021243e-04, 9.09749302e-04, 6.08673319e-03,
       5.09343389e-03, -1.97129115e-03, 6.99540018e-04, -1.40499393e-03,
       -4.16892057e-04, -5.85263828e-04, -1.75910915e-04,
       -2.08564638e-03, 5.69176767e-03, 4.47619986e-03, -4.41710418e-03,
       -1.83040753e-03, -2.80132634e-04, -3.13062198e-03,
       -2.96788476e-03, -3.74003523e-03, -4.36265813e-03, 4.07712394e-03,
       8.67432728e-03, 4.36494406e-03, 3.91432084e-03, 5.12229861e-04,
       -2.21084687e-03, -4.12821770e-03, -6.30277721e-03,
       -5.66159794e-03, 3.40624992e-03, 1.03801806e-02, 4.71476140e-03,
       6.06032833e-03, 2.24220427e-03, -1.04121724e-03, -1.23827183e-03,
       -1.90530857e-03, -7.23689003e-03, 3.58496909e-03, 1.17335571e-02,
       6.27415627e-03, 5.28186793e-03, -5.23297989e-04, 2.19373917e-03,
       -1.42300362e-03, -4.84199543e-03, -8.58130306e-03, 2.59269495e-03,
       1.38897812e-02, 7.74589460e-03, 8.58181342e-03, 1.56100467e-03,
       -4.17057704e-03, -3.08345351e-03, 1.32906181e-03, -4.64541867e-04,
       3.69734620e-03, -1.99969480e-04, -1.95276900e-03, -2.37935991e-03,
       9.98912263e-04, -6.04160316e-03, -1.88839191e-03, 1.74896384e-03,
       1.49260892e-03, 3.84980044e-03, 1.36078219e-03, -2.51385383e-03,
       -2.67191557e-03, 2.04976904e-03, -4.67304327e-03, -1.45532330e-03,
       1.56760681e-03, -1.30309211e-03, 3.51040531e-03, 1.88851671e-04,
       -1.67416572e-03, -1.65768422e-03, 1.89560687e-03, -6.00792980e-03,
       6.33989694e-04, 1.39185367e-03, 8.05561023e-04, 4.56144754e-03,
       2.24732142e-03, -1.91918400e-03, -2.02572439e-03, 2.05326010e-03,
       2.38731067e-04, 2.84502888e-03, -5.18057350e-05, -7.41535099e-04,
       -4.44643199e-03, -5.07060764e-03, -1.93687360e-04, 1.72498275e-03,
       -2.21094443e-03, -1.86759920e-03, 3.04965046e-03, 2.07320158e-03,
       7.97558750e-04, 3.05305561e-03, -2.20481376e-03, 2.76048522e-04,
       3.76622332e-03, -9.42855666e-04, 2.62719055e-04, 5.68870746e-04,
       1.06087408e-03, -2.60489667e-03, -6.30697468e-03, -5.51449927e-03,
       -1.87886995e-03, 1.12108665e-03, 2.96152692e-04, -2.35765823e-03,
       3.08952498e-04, 3.01378639e-03, -1.80391595e-03, 2.46722857e-03,
       -1.30906585e-03, -1.37089728e-03, 2.88495491e-03, 2.29323865e-03,
       -3.29915551e-03, 4.82179830e-03, 2.58376915e-03, 2.92931939e-03,
       -8.35496874e-04, -2.48582661e-03, -1.04934094e-03, 3.74268927e-03,
       -3.21413553e-03, -1.65064319e-03, 5.47793088e-03, 1.67621986e-03,
       4.48656175e-03, 1.67213019e-03, -1.02946872e-03, -5.04182884e-04,
       6.20555365e-03, -2.53783725e-03, -1.09692081e-03, 5.32846898e-03,
       4.98023769e-03, 2.52508279e-03, -3.53365205e-03, -2.94931582e-03,
       -1.77874404e-03, 4.02804557e-03, -3.58005776e-03, 5.93618257e-04,
       6.32603886e-03, 4.96179936e-03, 4.55782423e-03, -1.22941192e-03,
       -1.63950061e-03, -1.03623595e-03, 6.16700342e-03, -1.99438259e-03,
       -3.40870232e-03, 1.06516329e-03, 3.66271846e-03, -2.73176283e-03,
       4.29985952e-03, 5.84173715e-03, 3.01272507e-06, -7.76194385e-04,
       6.11669791e-04, -7.20653683e-03, 1.44865725e-03, 3.95266525e-03,
       -2.41128844e-03, 3.15220351e-03, 9.34121665e-03, 1.17302767e-03,
       1.00156595e-03, -1.07000151e-03, -2.89652613e-03, 2.96296831e-03,
       3.76679190e-03, -4.93657915e-03, 2.43416987e-03, 5.29790251e-03,
       6.71602262e-04, 1.43378717e-03, 2.91610183e-03, -6.89779641e-03,
       3.29795107e-03, 4.06572130e-03, -4.94959997e-03, 1.92407133e-05,
       9.66947526e-03, 3.30361933e-03, 4.22421424e-03, 2.09741597e-03,
       1.60094933e-03, 2.68166489e-03, -3.52997542e-03, 3.77661740e-06,
       3.63968662e-03, -1.04801077e-03, -2.59111030e-03, 2.46302970e-03,
       -2.46002642e-03, 3.04600038e-03, 1.92709302e-03, -4.95396415e-03,
       2.93008707e-05, 5.38079906e-03, -2.74027087e-04, -2.33644224e-03,
       3.58496653e-03, -1.78479182e-03, 2.12031091e-03, 3.38597666e-03,
       -4.86737536e-03, 1.56672590e-03, 4.29699989e-03, 5.50724799e-04,
       -2.00530118e-03, 1.50185463e-03, -5.03628375e-03, 3.86691256e-03,
       1.84378214e-03, -6.48218766e-03, 1.64886180e-03, 8.12223181e-03,
       1.60889444e-03, -3.21151735e-03, -6.43533276e-05, -4.65555163e-03,
       6.06004475e-03, 3.19825159e-03, 3.34336003e-03, -2.22101924e-03,
       -2.89877038e-03, 7.52852997e-04, 4.30166438e-05, -1.48391316e-03,
       2.79385992e-03, 7.74419028e-03, 3.65189160e-03, 3.82983871e-03,
       -1.68845989e-03, -3.74264945e-03, 3.88047472e-03, -1.56128802e-03,
       -2.54732813e-03, 1.81487692e-03, 9.45456326e-03, 4.24960582e-03,
       3.56455194e-03, -3.55314766e-03, -1.17367110e-03, 8.70576245e-04,
       1.26726984e-03, -2.34642299e-03, 3.54613876e-03, 1.08168954e-02,
       4.41743108e-03, 3.52574233e-03, -1.83945789e-03, -3.22387298e-03,
       3.78684700e-03, 4.38442366e-05, -3.75745655e-03, 3.91781563e-03,
       4.92859213e-03, -9.26693465e-05, -5.22262743e-03, -6.29319344e-03,
       -1.33233028e-03, -4.64202312e-04, -1.41518761e-03, 2.55829585e-03,
       3.13313212e-03, 2.64754309e-03, 1.70971871e-05, -4.86813253e-03,
       -5.62429754e-03, 6.77719479e-04, 2.69782217e-03, -4.96912107e-04,
       3.50826420e-03, 4.40238882e-03, 4.12110705e-03, -8.69419484e-04,
       -3.31863901e-03, -6.61495747e-03, -1.96238444e-03,
       -5.36865904e-04, -1.41338469e-03, 3.34653724e-03, 4.27830499e-03,
       1.07072585e-03, -1.84461343e-04, -1.76467630e-03, -5.60830720e-03,
       8.62809655e-04, 2.57776724e-03, -8.12688784e-04, 4.57212562e-03,
       4.09425423e-03, -6.78391807e-05, -1.98597438e-03, 2.81683193e-03,
       -2.60545430e-03, -6.09943457e-03, 5.07735880e-04, 4.12013801e-03,
       -1.25636649e-03, 2.32726219e-03, -1.60256273e-03, -2.17610341e-03,
       3.68602877e-03, 2.15744585e-04, -2.47358531e-03, 8.63873051e-04,
       4.29090811e-03, -4.24284674e-03, 3.47526337e-04, -5.22604445e-04,
       -5.96799469e-03, 1.68641307e-03, -2.26606824e-03, -7.63623510e-03,
       -1.26018573e-03, 3.65697430e-03, -1.70036964e-03, 4.60266881e-03,
       -2.36650207e-03, -6.90673804e-03, 1.97398942e-03, 1.46502210e-03,
       -3.40763433e-03, -6.94303308e-04, 3.93771520e-03, -5.84281981e-03,
       3.14211030e-03, -2.69589457e-03, 5.27020497e-03, 9.57372505e-03,
       -1.46757317e-04, -2.21332838e-03, -4.88103600e-03,
       -2.58645322e-03, -4.17952798e-03, -5.10769896e-03,
       -1.26146106e-03, 5.72992628e-03, 9.83200409e-03, -1.29587390e-03,
       -6.76171971e-04, -6.16375729e-03, -1.25276262e-03,
       -4.69354307e-03, -5.29141678e-03, -8.66704329e-04, 7.18069775e-03,
       1.10372510e-02, -1.93484570e-03, -5.21044945e-03, -5.67301968e-03,
       -3.58600426e-03, -5.12726791e-03, -5.09826140e-03, 1.90943072e-03,
       7.07157888e-03, 9.89090558e-03, -3.36615765e-03, -3.20345652e-03,
       -6.58158585e-03, -2.85522477e-03, -6.22963021e-03,
       -5.21814078e-03, -6.31553633e-03, 3.95465526e-04, -1.66230602e-03,
       -1.25673832e-03, 8.60469695e-03, -2.05644150e-03, 1.20664109e-03,
       2.43554497e-03, -2.56403349e-03, -4.81710024e-03, 1.67411205e-03,
       -4.71582607e-04, -2.80254730e-03, 7.48527469e-03, -4.14889911e-03,
       2.13999883e-04, 4.21435852e-03, -2.86470982e-03, -8.54490045e-03,
       9.71568632e-04, -3.81645421e-03, -2.46919878e-03, 1.15601374e-02,
       -1.59995374e-03, 2.61286879e-03, 6.26008864e-03, -4.30276897e-03,
       -6.33921381e-03, 3.51125747e-03, -2.91183149e-03, -4.73298179e-03,
       1.02973627e-02, -2.88732164e-03, 2.16379506e-03, 8.40160064e-03,
       -3.93631263e-03, -1.35253288e-03, 1.24589528e-03, 3.46859382e-03,
       -3.63771361e-03, -6.39533112e-03, -4.85227676e-03, 1.85967467e-04,
       -1.33738969e-03, 1.43352523e-03, 2.39235535e-03, 3.22986464e-03,
       5.68489125e-03, -6.83958922e-03, -8.88219569e-03, -6.08808547e-03,
       2.22560996e-03, -1.82783010e-03, 2.48182612e-03, 7.86075310e-04,
       9.93986265e-04, 4.92291944e-03, -5.18357800e-03, -8.14402476e-03,
       -5.31367306e-03, -2.84138514e-04, -2.88793677e-03, 9.83648584e-04,
       6.59341225e-03, 3.68182128e-03, 7.88440183e-03, -8.13567173e-03,
       -1.05613079e-02, -5.95725328e-03, 1.09725620e-03, -3.67194298e-03,
       2.88637495e-03, -1.67816412e-03, -3.71340220e-03, -4.87944391e-03,
       -1.20258308e-03, 1.42833940e-03, -3.70702753e-03, -8.04299721e-04,
       4.72488115e-03, 3.07941227e-04, -2.13208050e-03, -3.80645227e-03,
       -7.04666879e-03, -2.80991802e-03, 2.17403960e-03, -1.74075109e-03,
       -2.07771338e-03, 4.27626586e-03, -1.08625949e-03, -4.09584446e-03,
       -4.92645102e-03, -3.77310929e-03, -2.24875915e-03, 3.43742617e-03,
       -3.14865401e-03, -1.30222435e-03, 6.39223168e-03, -1.06339750e-03,
       -5.21593494e-03, -5.70268370e-03, -7.83884432e-03,
       -6.21020840e-03, 4.76073753e-03, -1.81775395e-04, -9.98111907e-04,
       7.23638339e-03, -1.40090543e-03, -1.55660592e-03, 1.72301137e-04,
       -2.71624001e-03, 1.51909341e-03, -1.27585430e-03, -6.25857501e-04,
       -2.97107757e-03, -4.82854521e-04, 6.58652789e-05, 1.18808923e-04,
       2.08542030e-03, -1.97293633e-03, 9.77823627e-04, -1.79460435e-03,
       -2.84395559e-04, -2.10723793e-03, 1.10395940e-03, 1.40665343e-03,
       3.74817973e-05, 1.66498823e-03, -2.71694269e-03, 3.07383388e-03,
       -9.41712351e-04, -1.99654349e-03, -4.49143304e-03,
       -1.97934406e-03, -2.01059203e-03, 3.56400129e-03, 3.97198228e-03,
       -1.17804983e-03, 1.85816607e-03, -2.13843049e-03, -2.05166847e-03,
       -5.04235271e-03, -3.01664317e-04, -2.49120319e-04, 1.52981293e-03,
       2.49640574e-03, -1.38361705e-03, 1.51003114e-04, -6.96867763e-04,
       -1.07388722e-03, -8.60049156e-04, -3.01704364e-04,
       -9.88904270e-04, 1.58138620e-03, 2.78615509e-03, -3.19357682e-03,
       7.72599829e-04, 2.37200898e-03, 8.20831396e-04, 1.47020305e-03,
       1.06819719e-03, -2.51589599e-03, 6.34711236e-03, 4.36966307e-03,
       -3.39231268e-03, -1.35521952e-03, -1.99144799e-03,
       -1.60430535e-03, -1.90070437e-04, -1.26129529e-03, 1.69518229e-04,
       6.72424957e-03, 4.85012773e-03, -5.54911746e-03, 7.51207175e-04,
       1.66576589e-03, -1.45810744e-04, 1.90196466e-03, -1.00026511e-04,
       -1.78551278e-03, -1.05624204e-03, -2.19140085e-03, 3.55210621e-03,
       7.80791976e-03, -3.51920188e-03, -1.96229736e-03, -2.82874168e-03,
       -2.25922489e-03, -1.72424992e-03, -3.96326213e-04,
       -2.41929386e-03, 1.45897351e-03, 7.67941028e-03, -2.84963590e-03,
       -6.11108262e-04, -1.83251232e-03, -2.97992420e-03,
       -1.52532617e-03, -3.87624605e-04, -2.42832047e-03, 4.51640086e-03,
       8.66461266e-03, -3.15030408e-03, -1.36648852e-03, -2.83502438e-03,
       -2.38548848e-03, -1.58705609e-03, 1.42878591e-04, -2.04986054e-03,
       3.61286290e-03, 8.81776214e-03, -1.45719456e-03, 1.12892815e-03,
       -2.37612333e-03, -3.35165742e-03, -7.07300962e-04, 2.34960389e-04,
       3.34360846e-03, 2.16053915e-03, 7.38204923e-04, -3.24406405e-03,
       -5.43856109e-03, 1.34433806e-03, 6.05500070e-04, -1.62268546e-03,
       -6.22321328e-04, 1.59896328e-03, 2.02708994e-03, 1.36603788e-03,
       -4.32507042e-03, -7.08040176e-03, 2.06933240e-03, -1.44460893e-04,
       -1.58204511e-03, -2.85587594e-04, 1.37824949e-03, 4.26154031e-04,
       7.65353849e-04, -3.69539787e-03, -3.82746384e-03, 2.20499071e-03,
       1.95929036e-03, -6.32002775e-04, -7.84141361e-04, 1.58867391e-03,
       3.08329501e-04, 1.74937584e-03, -2.57348572e-03, -5.43196406e-03,
       3.66249657e-03, 5.16720349e-04, -1.60867954e-03, -4.09941655e-04,
       1.51590863e-03, 4.70944075e-03, -3.35079874e-03, 8.17294419e-03,
       -6.82489044e-05, -1.06221223e-02, -4.06738790e-03,
       -2.86791124e-03, 6.75085757e-04, 4.34679538e-03, 7.10413372e-03,
       -3.68125527e-03, 8.78565572e-03, -5.24357893e-04, -1.25564076e-02,
       -6.44380087e-03, -3.27657582e-03, 3.16462247e-03, 3.98992002e-03,
       5.81147010e-03, -2.88515748e-03, 9.90698021e-03, 8.67231924e-04,
       -1.05216838e-02, -3.57599882e-03, 1.03140343e-03, 5.49403811e-03,
       7.52511621e-03, 7.89734442e-03, -3.21095320e-03, 9.88122821e-03,
       3.01020191e-04, -1.18452227e-02, -4.88613546e-03, 1.64995750e-03,
       3.40188015e-03, 3.17751081e-03, 1.50634232e-03, -2.83096428e-03,
       -6.58511010e-04, 4.49595274e-03, 1.70192961e-03, -2.65162089e-03,
       -3.98873584e-04, 5.16570173e-03, 4.60778223e-03, 3.26080923e-03,
       -3.05174524e-03, -3.38453497e-03, 3.84280528e-03, 7.54735724e-04,
       -5.08776167e-03, 4.22561832e-04, 3.77502455e-03, 5.04000019e-03,
       3.04089277e-03, -3.83801619e-03, -1.65407232e-03, 7.50927627e-03,
       5.50348312e-03, -2.21918989e-03, -6.33376185e-04, 4.36714524e-03,
       6.09568879e-03, 4.85525606e-03, -4.13924409e-03, -4.28259885e-03,
       6.71252515e-03, 4.36958484e-03, -2.96132360e-03, 1.49974565e-03,
       4.71726246e-03, 1.62978843e-03, -7.39195239e-05, -2.83930777e-03,
       -7.57771172e-03, -2.51259631e-03, 1.61766331e-03, -1.39842671e-03,
       5.38763171e-03, 2.66346289e-03, 7.37526047e-04, 1.15987007e-03,
       -3.47959180e-03, -1.05971731e-02, -4.17020032e-03, 1.48278847e-03,
       1.67216465e-04, 6.28424110e-03, 3.86417215e-03, 3.63249262e-03,
       -1.31077715e-03, -3.99927422e-03, -6.40107691e-03,
       -2.83789565e-03, 1.60406111e-04, -3.00955935e-03, 5.14872512e-03,
       1.64761557e-03, 2.14596489e-03, 9.02836444e-04, -5.51500823e-03,
       -9.05075390e-03, -5.43893408e-03, 2.50810379e-04, -2.11372762e-03,
       5.74914040e-03, 3.75349587e-03, -3.19035514e-03, -1.45349803e-03,
       -1.30517653e-03, -2.69405381e-03, -6.99667999e-06,
       -2.06284705e-04, -2.89921975e-03, 1.26511720e-03, 4.17694729e-03,
       -4.54913871e-03, -1.65153726e-03, 5.76563354e-04, -3.19018657e-03,
       -1.05637431e-04, 1.74051232e-03, -4.03937465e-03, 1.24612905e-03,
       5.10492921e-03, -2.66202749e-03, 1.03077700e-03, -3.95241845e-03,
       -4.11651330e-03, -6.77461852e-04, -2.37098988e-03,
       -5.07913623e-03, 2.35510920e-03, 5.90719655e-03, -2.60672066e-03,
       2.70642620e-03, -1.59326661e-03, -7.40323542e-03, -3.87470209e-04,
       -9.53754585e-04, -6.18863478e-03, 2.17185402e-03, 6.80818548e-03,
       1.30830298e-03, 2.08153343e-03, -6.41070446e-03, -5.64249000e-03,
       -1.99935818e-03, -3.55962012e-03, 4.27013350e-04, 2.03523738e-03,
       7.97960255e-03, 2.16378691e-03, 1.89571234e-03, -7.35355960e-03,
       -5.66249806e-03, -8.12669459e-04, -2.49349815e-03, 9.25388362e-04,
       1.22201152e-03, 8.05070996e-03, 2.51523848e-03, 1.52250542e-03,
       -8.98032729e-03, -6.43170392e-03, -1.49235618e-03,
       -3.70598165e-03, 9.72517184e-04, 4.24767425e-03, 8.52207560e-03,
       3.89873725e-03, 1.98928686e-03, -1.10253068e-02, -6.21301914e-03,
       -2.58943008e-04, -2.87687988e-03, 1.61484431e-03, 2.94595351e-03,
       -1.32682908e-03, -4.72053001e-03, -3.80210020e-03,
       -1.30607095e-03, -2.69136787e-03, 3.37471976e-03, 7.07491348e-03,
       1.46992295e-03, 6.93285605e-04, -2.48776120e-03, -9.42733791e-03,
       -6.51369663e-03, -4.98285145e-03, -4.47728718e-03, 1.96604035e-03,
       7.86525849e-03, 4.45292331e-03, 2.89216056e-03, -1.23346783e-03,
       -4.84695844e-03, -4.23552282e-03, -2.91626086e-03,
       -1.70159002e-03, 3.58996517e-03, 8.05207156e-03, 2.55060964e-03,
       -2.13523061e-04, -2.53191055e-03, -1.04989531e-02,
       -8.65595788e-03, -7.53954519e-03, -3.94685520e-03, 2.51138350e-03,
       9.47169401e-03, 6.55726437e-03, 9.17085679e-04, 2.54482753e-03,
       -4.56683105e-03, -1.83208194e-03, -9.59279423e-04,
       -1.76038151e-03, -2.72618956e-03, 3.48009111e-04, 2.22493755e-03,
       -2.18728150e-04, 1.81744841e-03, -5.28039970e-03, -3.08391638e-03,
       5.30449499e-04, -1.26427878e-03, -1.43836415e-03, 6.52031682e-04,
       1.90575107e-03, -1.60457578e-03, 4.30240436e-03, -3.08752828e-03,
       -2.86463602e-03, -1.35429623e-03, -3.04414821e-03,
       -2.47832946e-03, 1.59391202e-03, 3.37335770e-03, 1.79349317e-03,
       4.50192485e-03, -4.83664032e-03, -3.84195405e-03, 8.99028440e-04,
       -2.50824750e-03, -1.12278771e-03, 2.46275356e-03, 3.05519858e-03,
       7.71317864e-04, 2.81176413e-03, 1.74655532e-03, -5.08841453e-03,
       -8.69636890e-03, -3.36317997e-03, 2.56620627e-03, 6.76872325e-04,
       3.85828875e-03, 7.14894338e-03, 2.76777451e-03, 5.86316048e-04,
       -5.09384880e-03, -8.10598116e-03, -2.17752601e-03, 4.64875717e-03,
       1.81431149e-03, 3.88021790e-03, 7.65178213e-03, 4.37052827e-03,
       3.03086010e-03, -5.03764488e-03, -7.80328596e-03, -2.25405605e-03,
       6.06338377e-04, 1.22728292e-03, 4.75956546e-03, 9.64602176e-03,
       3.52879940e-03, 2.25521391e-03, -5.76740270e-03, -6.94918213e-03,
       -8.07441364e-04, 1.63685670e-03, 2.69280653e-03, 5.33331838e-03,
       9.47231799e-03, -7.31198597e-05, 5.06249489e-04, -5.67788212e-03,
       -4.76261193e-04, -1.08221674e-03, -5.05047105e-03, 2.76038749e-03,
       1.36415998e-03, 4.02234215e-03, 1.57417008e-03, 6.08834322e-04,
       -6.47355476e-03, -2.81914672e-05, -2.33558399e-04,
       -5.20033622e-03, 3.49976146e-03, 1.07351388e-03, 5.31102298e-03,
       4.02729306e-03, 3.06653837e-03, -6.34413259e-03, -1.05069019e-03,
       -3.42297205e-03, -9.43531748e-03, 9.57812066e-04, -1.27735548e-03,
       6.28695916e-03, 6.95211207e-03, 4.16032411e-03, -7.17695756e-03,
       2.50383600e-04, -2.25074287e-03, -1.04810214e-02, 8.10801692e-04,
       -2.26976606e-03, 8.32067709e-03, 2.78171478e-03, -1.27791881e-03,
       -1.12851628e-03, -5.26490808e-03, -2.10841163e-03, 1.09798345e-03,
       2.86391168e-03, 1.91479072e-03, 1.46895152e-04, 3.89144057e-03,
       -2.54480843e-03, -2.05272692e-03, -4.71354835e-03,
       -3.80444783e-03, 3.00516211e-03, 2.43588514e-03, 2.29556696e-03,
       3.36137041e-03, 5.35498466e-03, -5.33070532e-04, -1.95793645e-03,
       -8.20750091e-03, -3.45999910e-03, -8.89784424e-04, 3.18022002e-03,
       4.13385732e-03, 1.02230592e-03, 6.77969493e-03, -3.02516436e-03,
       -3.84954084e-03, -7.60940835e-03, -5.23004914e-03, 1.54708175e-03,
       2.95064854e-03, 3.92618263e-03, 5.66632859e-03, 3.91139556e-03,
       -1.83405110e-03, -4.78607370e-04, -6.16854895e-03,
       -7.37300375e-03, -1.08547742e-03, 3.37834004e-03, 3.03120189e-03,
       1.02668209e-02, 5.22424700e-03, -7.76921574e-04, -5.14246000e-04,
       -6.63973158e-03, -1.06408382e-02, -1.89510628e-03, 1.00836426e-03,
       2.45389552e-03, 1.34096565e-02, 4.75959620e-03, -1.20110251e-03,
       7.06410385e-04, -6.51106611e-03, -7.95810111e-03, 5.10461214e-05,
       5.66171855e-03, 3.94528359e-03, 1.24503337e-02, 7.28757726e-03,
       9.00852378e-04, 3.57258279e-04, -5.81544684e-03, -1.15117673e-02,
       -1.15091959e-03, 3.40773398e-03, 3.62934661e-03, 1.54479397e-02,
       1.73771824e-03, -3.77242221e-04, 1.99165754e-03, -5.27448440e-03,
       3.16315156e-04, -1.00538798e-03, -1.48209510e-03, 4.32597124e-04,
       2.70796614e-03, 2.66067800e-03, -6.21309096e-04, 2.14383123e-04,
       -5.84198162e-03, 2.31431844e-03, 8.03643838e-04, 2.39188550e-03,
       -2.80540378e-04, 3.04791355e-03, 4.94676642e-03, -1.28468964e-03,
       -7.11548142e-04, -9.22519341e-03, 2.68445094e-03, 1.68093349e-04,
       3.15995596e-04, 1.07472262e-03, 4.30501252e-03, 6.41959580e-03,
       -1.98084605e-03, -3.58470739e-03, -9.74574778e-03, 5.10180462e-03,
       2.04464258e-03, 5.16238296e-03, 6.61672093e-04, 5.34071913e-03,
       2.99676321e-03, -2.21400498e-03, 1.64077687e-03, -3.43780639e-03,
       -2.89809657e-03, -1.75961351e-03, -1.35925948e-03, 2.97183078e-03,
       -1.64039113e-04, 5.51092485e-03, 2.23020022e-03, 3.87648074e-03,
       -3.93781671e-03, -5.45393617e-04, -1.22533098e-03,
       -2.87748757e-03, 1.98362279e-03, 3.73758085e-04, 3.79477371e-03,
       -9.56746342e-04, 9.86427418e-04, -3.21431365e-03, -4.45716642e-03,
       -2.31196103e-03, -7.49876315e-04, 9.30621929e-04, 3.18026287e-05,
       7.58024817e-03, 3.28759011e-03, 3.76936514e-03, -2.34639016e-03,
       -1.41656084e-03, -2.02964549e-03, -1.85649167e-03,
       -1.40553538e-03, 1.45097577e-03, -1.41151308e-03, 3.31358635e-03,
       -2.54791277e-03, 2.14793789e-03, -1.08170800e-03, 1.67999788e-05,
       -2.67794298e-04, 4.93234163e-03, 1.36971148e-03, -9.59604629e-04,
       5.82857197e-03, -1.34185294e-03, -2.30074555e-04, 1.96194532e-03,
       1.09812932e-03, -7.47094338e-04, 4.72613238e-03, 1.83615799e-03,
       -1.97906047e-03, 4.99628624e-03, -4.86004399e-04, 3.18290247e-03,
       1.53178745e-03, 1.54362072e-03, 1.13545440e-03, 4.32164082e-03,
       -8.54949642e-04, -2.05234345e-03, 8.39000661e-03, 1.25658105e-03,
       2.30197469e-03, 4.64377971e-03, 2.62669264e-03, 9.76965297e-04,
       5.32679213e-03, -8.71413213e-04, 2.42605922e-03, 2.05603451e-03,
       2.98295938e-03, -5.31714316e-03, -2.32016132e-03, -2.05535605e-03,
       1.77051697e-03, 1.35258946e-03, -1.38852606e-03, 1.51658151e-03,
       1.02359895e-03, 2.63370760e-03, -1.02697909e-02, -4.29875357e-03,
       -2.55070557e-03, 1.70209038e-03, 8.93092190e-04, -2.70188204e-03,
       4.57059359e-03, 1.03197154e-03, 2.60913698e-03, -5.80406515e-03,
       -4.76631196e-03, -8.69776704e-04, 1.72643969e-03, 4.60339885e-04,
       -2.69875419e-03, 3.27753834e-03, -2.05844594e-03, 9.19837330e-04,
       -1.10602733e-02, -7.68264476e-03, -1.20730582e-03, 1.87890232e-03,
       8.68526928e-04, -4.30797692e-03, -2.50704982e-03, 8.28703574e-04,
       6.40514772e-04, 2.94527737e-03, -1.63552165e-03, -2.15784786e-03,
       2.81862146e-03, -1.53668644e-03, -5.89369144e-03, -3.17713083e-03,
       -1.06411485e-03, 3.69940838e-03, 3.21951811e-03, -2.93842121e-03,
       -2.69418932e-03, 3.45860724e-03, -3.75560543e-04, -4.97809611e-03,
       2.62403337e-04, 3.65062011e-03, -1.67750870e-03, 9.89039545e-04,
       -2.70962692e-03, -3.47867399e-03, 4.24627739e-04, -1.98904047e-04,
       -3.87717178e-03, -9.07314552e-06, 1.86976162e-03, 1.50777667e-03,
       1.49124954e-03, -3.36484727e-03, -4.07320866e-03, 2.35202024e-03,
       1.69689918e-03, -3.09300679e-03, 1.25195703e-03, 5.93132863e-04,
       3.71362374e-04, -8.79558641e-03, -3.55399097e-04, 2.38228284e-04,
       4.71783662e-03, 6.66857325e-03, -3.52241041e-05, 2.61870585e-03,
       -1.14228087e-03, -2.22451333e-03, -1.26080485e-02,
       -1.73683348e-03, 1.43080472e-03, 6.48212200e-03, 9.19991452e-03,
       1.73513207e-03, -1.85386895e-03, -6.36262179e-04, -8.47716932e-04,
       -1.02912588e-02, 4.13287169e-04, 2.20011896e-03, 7.14586768e-03,
       8.12473334e-03, 3.73919727e-04, -3.13575692e-05, -2.01596925e-03,
       -4.43577580e-03, -1.29488977e-02, -6.77637232e-04, 5.32067660e-03,
       9.46066622e-03, 1.09045980e-02, 4.15432733e-03, 3.03318305e-03,
       1.45034038e-03, -5.09330894e-05, 2.89761694e-04, -3.80512211e-03,
       -4.48478479e-03, 2.00284325e-04, -2.92668631e-03, 1.12750416e-03,
       2.00509024e-03, 4.35170764e-03, 6.03791093e-04, 2.29025300e-05,
       -3.64461285e-03, -5.78490691e-03, 5.35661879e-04, -3.82685941e-03,
       -5.24857933e-05, 1.89262035e-03, 2.17270642e-03, 8.22451024e-04,
       1.12462330e-04, -2.86412612e-03, -4.49846871e-03, 3.25065432e-03,
       -3.00686667e-03, 2.82651768e-03, -3.19563347e-04, 5.29145123e-03,
       2.40601250e-03, 1.96975260e-03, -2.51876935e-03, -5.79213211e-03,
       4.51115193e-03, -4.33806842e-03, 1.49802258e-03, -6.49979862e-04,
       3.77553166e-03, -5.96377722e-05, 4.16968483e-03, -6.58299262e-03,
       -2.18822202e-03, 7.15587288e-04, -5.99787512e-04, -2.68267910e-03,
       -3.19901644e-03, 5.47122816e-03, 1.35284581e-03, 4.13595652e-03,
       -7.70144397e-03, -1.47832895e-03, 3.66068562e-03, 1.04157266e-03,
       -2.07669754e-03, -9.36406723e-04, 5.43757761e-03, 1.37869036e-03,
       7.21195573e-03, -5.77663910e-03, -4.20339638e-03, -5.76115737e-04,
       -7.33655994e-04, -4.79971850e-03, -4.18410311e-03, 6.64578471e-03,
       3.05113592e-03, 7.96117447e-03, -4.76365350e-03, -4.06168029e-03,
       3.00379656e-03, 1.62642123e-03, -5.12458431e-03, 2.68671406e-03,
       -9.24274907e-04, -8.49549286e-03, -1.23155620e-02, 1.61999324e-03,
       -1.88485952e-04, 1.38987741e-03, -4.80332092e-04, 1.89624866e-03,
       4.04353021e-03, -1.25487335e-03, -7.45619927e-03, -1.06757376e-02,
       6.08277228e-03, 8.81214160e-04, 3.02707939e-03, 4.57073824e-04,
       1.96394045e-04, 1.74693461e-03, -1.70258735e-03, -8.51826742e-03,
       -1.37019139e-02, 3.40761221e-03, -2.05627130e-03, 1.36004644e-03,
       8.48913740e-04, 2.56113173e-03, 3.74336354e-03, -1.04096509e-03,
       -7.00606639e-03, -1.19782090e-02, 6.38404768e-03, -1.08024525e-03,
       4.55209007e-03, 2.43476685e-03, 5.54719591e-04, -4.44890605e-03,
       3.07773909e-04, -7.81801413e-04, -1.84515724e-03, 6.77373167e-03,
       -5.90225281e-05, -5.90480492e-03, -2.29012338e-03,
       -4.94355243e-03, -8.66902899e-03, 1.97862787e-03, -1.77987342e-04,
       -4.41952317e-04, 7.54446024e-03, -1.65454042e-03, -6.17606053e-03,
       -2.38962006e-03, -9.49242897e-03, -5.87018346e-03, 7.14959693e-04,
       -1.51151360e-03, -1.42063177e-03, 1.19026396e-02, -1.19979109e-03,
       -6.65935082e-03, -4.92141536e-03, -6.28067553e-03,
       -1.16686681e-02, 2.48713163e-03, -4.22292855e-04, -1.70405314e-04,
       1.38498358e-02, -3.15164775e-03, -5.83461672e-03, -5.66601893e-03,
       -1.09968903e-02, 2.86493241e-03, 2.94859451e-03, 4.80890181e-03,
       2.91374483e-04, -5.30985976e-03, -5.21583157e-03, -4.81094327e-03,
       -1.53910101e-03, -2.79450114e-03, 5.77114522e-03, 3.08189844e-03,
       7.40035810e-03, -1.94482878e-03, -8.81076790e-03, -4.89083584e-03,
       -5.21667069e-03, -1.65510364e-03, -1.51573319e-03, 3.90630728e-03,
       7.40102120e-03, 6.23598974e-03, 4.87768411e-04, -7.41970725e-03,
       -8.11878033e-03, -8.04100093e-03, -1.91589468e-03,
       -4.00519837e-03, 6.08433411e-03, 9.79228411e-03, 9.95572936e-03,
       -8.27564625e-04, -9.70444363e-03, -9.41628125e-03,
       -9.97301098e-03, -1.45189383e-03, -4.25411714e-03,
       -2.99897697e-03, 3.70679982e-03, 4.74513462e-03, -2.28195428e-03,
       -4.72296204e-04, -5.83069725e-03, 2.81205048e-05, 1.96738634e-03,
       3.30197369e-03, -5.19800186e-03, 2.30467552e-03, 3.28857545e-03,
       -3.98237165e-03, -1.63830456e-03, -5.52781811e-03, 1.65557343e-04,
       5.39963692e-03, 3.60763702e-03, -2.07698438e-03, 3.40987882e-03,
       1.57969154e-03, -3.29480553e-03, 1.13567675e-03, -5.63324429e-03,
       7.52317545e-04, 2.03371304e-03, 4.25292738e-03, -3.98314651e-03,
       3.15624103e-03, -1.43049037e-04, -4.44169063e-03, -5.43560134e-04,
       -5.01623983e-03, 9.31337767e-04, 5.48083056e-03, 4.39715385e-03,
       -2.29740646e-04, 9.63719911e-04, -3.08188930e-04, 2.99370172e-03,
       3.36171407e-03, 2.02163798e-03, -8.50383309e-04, -6.83352351e-03,
       8.20596295e-04, 2.24675910e-04, 1.18953479e-03, 8.51214980e-04,
       3.12281190e-03, 4.35886811e-03, 2.77905958e-03, -2.41011707e-03,
       -9.86967981e-03, 1.46046642e-03, -5.93868725e-04, 1.09427341e-03,
       9.35635064e-04, 1.10296323e-03, 4.73321183e-03, 3.34226782e-03,
       -3.32011865e-03, -8.80262442e-03, -1.64046884e-03, 1.34743983e-04,
       1.15571439e-03, 5.86047815e-03, 1.74906768e-03, 5.53102838e-03,
       4.51467512e-03, -4.51936107e-03, -1.16500109e-02, -1.34263001e-03,
       -4.00061923e-04, 5.54210693e-03, 3.84762930e-03, -4.44972003e-03,
       -8.14031530e-03, -1.03779195e-03, -2.39972142e-05,
       -2.51835154e-04, 2.40784837e-03, -9.96244489e-04, 8.37192591e-03,
       6.54575601e-03, -1.42717920e-03, -9.54012480e-03, -2.37317453e-03,
       -1.34017330e-03, 1.12195348e-03, 3.96533217e-03, -9.14921984e-04,
       6.70134462e-03, 4.96913027e-03, -1.91271584e-03, -8.08785390e-03,
       -1.15739997e-03, -6.74985815e-04, -1.84870337e-03, 5.52450307e-04,
       -7.82398973e-04, 9.72574856e-03, 7.06130126e-03, 1.64451753e-03,
       -9.20612924e-03, -2.63837771e-03, -2.27989582e-03,
       -8.58753105e-04, 2.69616279e-03, -6.90877018e-03, 1.70565757e-03,
       -1.07400457e-03, -9.07371461e-04, -1.34898862e-03, 1.14996999e-03,
       1.09888706e-03, 1.15132576e-03, 3.57969268e-03, -5.69926808e-03,
       3.25108180e-03, -1.07292738e-03, -2.86136544e-03, 8.66109156e-04,
       3.61414830e-04, 1.93265604e-03, 2.27116165e-03, 3.60162836e-03,
       -8.40588938e-03, 1.99220236e-03, -1.15740590e-03, -6.78494049e-04,
       -2.30733352e-03, 3.57728358e-03, 1.15335009e-04, 2.07270030e-03,
       5.34327747e-03, -7.28821242e-03, 4.44253022e-03, -8.15749459e-04,
       -3.29853874e-03, 1.13471629e-04, 3.20890895e-03, 5.58478234e-04,
       2.87601235e-03, 4.60872240e-03, 2.56994599e-03, 4.75750817e-03,
       -6.84565239e-05, 3.95107083e-03, -2.38663075e-03, 2.65540299e-03,
       -5.05575968e-04, -3.77038121e-03, -4.37530084e-03, 5.08083124e-03,
       8.23757611e-03, -2.71079771e-04, 3.60526028e-03, -5.99303329e-03,
       4.71096020e-03, 9.89608452e-06, -3.91383935e-03, -5.21497475e-03,
       2.24934751e-03, 4.74993465e-03, 2.08788272e-03, 3.61977727e-03,
       -4.36207000e-03, 2.22016685e-03, -4.89276950e-04, -5.17426245e-03,
       -4.79711732e-03, 4.09200136e-03, 8.90723243e-03, 1.65484892e-03,
       3.88559583e-03, -7.82597717e-03, 5.55364788e-03, -1.02451319e-04,
       -4.86313784e-03, -5.83069725e-03, -1.20808957e-02,
       -7.77064997e-04, 1.84667949e-03, -2.30093137e-03, -4.95855603e-03,
       6.22049032e-04, 9.35792574e-04, 1.26177003e-03, -2.21481780e-03,
       -1.50800385e-02, 1.13204611e-03, 2.73627997e-03, 1.66079390e-03,
       -2.90234643e-03, 1.22873008e-03, 4.78303729e-04, 1.49169541e-03,
       -4.70292754e-03, -1.66331958e-02, -1.22450863e-03, 1.66119088e-03,
       -3.45986104e-03, -3.25301406e-03, 2.59123556e-03, 3.73986340e-03,
       4.37216368e-04, -6.15413906e-03, -2.04455890e-02, 1.50951836e-03,
       3.07773775e-03, 9.35699325e-04, -4.85694094e-04, 3.24204727e-03,
       3.77138238e-03, -1.82518910e-04, -1.10847754e-02, 1.52989838e-03,
       2.73213140e-03, 4.15678369e-03, 4.42397920e-03, 1.17982132e-03,
       2.70429417e-03, -2.23746989e-03, -2.15984113e-03, -8.61515873e-04,
       -3.68360372e-04, 3.71791073e-03, 4.74288268e-03, 5.16073080e-03,
       -8.78820312e-04, 3.60182417e-03, -2.24967045e-03, -1.93247932e-03,
       -2.43676337e-03, 1.03440357e-03, 2.40038545e-03, 4.80890647e-03,
       3.68806114e-03, 3.92326294e-03, 2.02038651e-03, -2.42993864e-03,
       -3.18052503e-03, -9.62395512e-04, -1.30772212e-04, 3.29135801e-03,
       5.19503374e-03, 4.78475774e-03, 1.72427064e-03, 3.61302309e-03,
       -8.43388669e-04, -3.43637425e-03, -3.88510316e-03,
       -3.63157422e-04, 2.19383347e-03, -1.81126175e-03, -2.38476950e-05,
       1.02502527e-03, -2.27019866e-03, 9.11399111e-05, -1.58779346e-03,
       7.97266373e-04, -1.51202432e-03, 2.66205776e-03, -3.34994681e-03,
       -1.97827723e-03, 1.92686985e-03, 2.39833011e-04, 2.11001723e-03,
       -1.85745850e-03, -2.25860917e-04, 3.23180197e-04, 3.10719619e-03,
       -2.36474862e-03, 1.67113647e-03, 3.38717178e-03, -3.80946067e-03,
       -2.90326454e-04, -4.04480752e-03, 3.22072092e-03, -1.43921457e-03,
       4.60859109e-03, -4.80386103e-03, -1.11740944e-03, 5.05115092e-03,
       -6.33539981e-04, 1.94780820e-03, -2.64496030e-03, 1.95482513e-03,
       2.01356088e-04, -2.30542710e-03, -2.33346154e-03, 3.98700213e-04,
       -2.68169330e-03, 1.32371194e-03, 5.23689378e-04, 3.20943096e-03,
       -2.09080117e-05, 1.22888037e-03, -2.99795065e-03, -6.01356500e-04,
       -1.19086797e-03, -7.99024943e-03, 8.93044053e-04, -6.52908566e-05,
       6.03008782e-03, 2.64956080e-03, 1.56365533e-03, -9.33124218e-04,
       -1.27080502e-03, 1.45035330e-03, -1.45720132e-03, 1.46580674e-03,
       -5.16434200e-04, 3.34090018e-03, -6.98928547e-04, 2.24583759e-03,
       -1.40829512e-03, 1.70578365e-03, 5.28348086e-04, -7.06201885e-03,
       1.45498692e-04, -1.24461902e-03, 6.10717805e-03, 1.54059776e-03,
       -3.91757907e-03, 1.71647617e-03, 7.66455708e-03, 5.17164124e-04,
       -4.96898079e-03, -2.20553647e-03, -8.75606667e-04, 1.88527757e-03,
       -1.13240525e-03, -2.66612694e-03, 2.65196781e-03, 6.90791244e-03,
       1.36026216e-03, -4.57215030e-03, 5.90686512e-04, 2.15052138e-03,
       1.49397820e-03, 7.14485184e-04, -3.89108784e-03, -2.71781228e-05,
       7.19257025e-03, 5.50469500e-04, -4.85322857e-03, -5.83488320e-04,
       -2.96711060e-03, 1.55530975e-03, -2.06121098e-04, -3.20720975e-03,
       9.57172015e-04, 5.88035304e-03, 6.69532281e-04, -5.48071275e-03,
       3.23268841e-03, 3.32824973e-04, 1.49465387e-03, 1.48352294e-03,
       -2.92540295e-03, -3.30313644e-03, 2.55902275e-03, 4.82045906e-03,
       -4.31381073e-03, -9.35797987e-04, 2.92137638e-03, 8.02150276e-03,
       -1.94674800e-03, -6.13775977e-04, -2.23283935e-03, 4.70785704e-03,
       5.61889168e-03, -6.99785212e-03, -2.36486946e-03, 2.65217572e-03,
       8.50735512e-03, 8.51945733e-05, -3.37365316e-03, -3.58856167e-03,
       3.77910299e-04, 4.87926509e-03, -6.94911368e-03, -1.44483391e-04,
       3.60692758e-03, 8.62868316e-03, -4.50162683e-03, -5.03940857e-04,
       -2.63455184e-03, 2.42929254e-03, 6.38710754e-03, -1.13060093e-02,
       -2.56183953e-03, 3.56682972e-03, 9.64653585e-03, -2.00590468e-03,
       2.63479975e-04, -1.55929697e-03, -1.77116785e-03, -1.72931387e-03,
       -6.84428727e-03, -1.96554422e-04, 6.06275676e-03, 2.77542113e-03,
       2.84782960e-03, -2.38218199e-04, -1.71053060e-03, -2.86442810e-03,
       5.70502947e-04, -6.25416869e-03, -2.97844759e-03, 7.95107335e-03,
       4.55814879e-03, 3.98920476e-03, -3.28272977e-03, -2.73007341e-03,
       -4.27241903e-03, -1.97720178e-03, -7.59183802e-03, 8.55668304e-07,
       8.49534851e-03, 4.50983504e-03, 4.83069336e-03, -3.69452219e-03,
       -3.19399545e-03, -5.01091313e-03, 5.46731229e-04, -7.43773114e-03,
       -2.74245488e-03, 1.08586038e-02, 6.60037110e-03, 5.71795925e-03,
       2.62919813e-03, 6.68108417e-03, 3.54950782e-03, 4.39988170e-03,
       -7.71229854e-03, -1.66699954e-03, 1.62335869e-04, 1.29014149e-03,
       2.68028933e-03, 2.53293617e-03, 9.53136664e-03, 2.80289142e-03,
       2.53055594e-03, -9.52513143e-03, -9.44147992e-04, 7.86359538e-04,
       -5.22506773e-04, 3.83351161e-03, 1.10178348e-03, 7.43974280e-03,
       1.83484412e-03, 2.74795713e-03, -1.10936249e-02, -1.78827450e-03,
       5.59017994e-04, 2.24982155e-03, 4.11400991e-03, 7.52555847e-04,
       1.20156193e-02, 2.05759122e-03, 3.60176200e-04, -1.40395388e-02,
       -7.61648174e-04, 1.97179732e-03, 2.01583593e-04, 6.02066843e-03,
       -3.76846595e-03, 2.22070049e-03, 4.72157774e-03, 3.46001412e-04,
       -4.09274083e-03, -3.47012165e-03, -4.72946907e-04, 1.58643664e-03,
       1.65264274e-03, -2.26077507e-03, 4.07500379e-03, 5.60905645e-03,
       5.81903748e-07, -6.08959934e-03, -3.02175712e-03, 7.32343353e-04,
