%YAML:1.0
---
my_detector: !!opencv-object-detector-hog
   winSize: [ 224, 224 ]
   blockSize: [ 16, 16 ]
   blockStride: [ 8, 8 ]
   cellSize: [ 8, 8 ]
   nbins: 9
   derivAperture: 1
   winSigma: 4.
   histogramNormType: 0
   L2HysThreshold: 2.0000000000000001e-01
   gammaCorrection: 1
   nlevels: 64
   signedGradient: 0
   SVMDetector: [ 4.03420581e-03, 4.26009577e-03, -1.24214726e-04,
       -4.06748848e-03, -1.86705461e-03, 1.03615504e-03, -1.13454560e-04,
       -5.75522007e-03, -1.78026932e-03, 3.91211081e-03, 5.68289682e-03,
       -1.21399900e-03, -5.46812685e-03, -3.61375096e-05, 1.43671897e-03,
       1.10376219e-03, -5.65973856e-03, -3.26970103e-03, 3.13435658e-03,
       5.21603227e-03, 3.56007105e-04, -5.07971691e-03, -3.36790254e-04,
       2.24641035e-03, 1.33682904e-03, -6.73573557e-03, -2.83911871e-03,
       1.73800101e-03, 6.73020491e-03, 2.49946490e-04, -6.06425526e-03,
       2.84122163e-03, 2.34721741e-03, 3.59917386e-03, -5.98522369e-03,
       -5.02867484e-03, -7.30266236e-03, -2.97244848e-03, 3.87396454e-03,
       2.23386986e-03, 1.11523469e-03, -3.08492430e-03, 2.05303868e-03,
       1.43846078e-03, -2.69801146e-03, -9.29949339e-03, -2.47556041e-03,
       3.68333678e-03, 2.70184688e-03, 1.03124487e-03, -2.78191315e-03,
       1.56689284e-03, 2.54903967e-03, -3.06440494e-03, -9.41420812e-03,
       -1.03106897e-03, 8.11500568e-03, 2.87702680e-03, 3.40580498e-03,
       -2.86975503e-03, 1.50604139e-03, 1.93244440e-03, -4.43256879e-03,
       -1.15071628e-02, -3.84263520e-04, 8.46625213e-03, 2.94664688e-03,
       3.10230814e-03, -1.40763784e-03, 1.41845318e-04, 3.58885434e-03,
       -4.03401954e-03, -1.82635174e-03, -5.00008184e-03,
       -1.59712229e-03, -9.63280164e-03, 4.07304149e-03, 1.95861305e-03,
       3.15168453e-03, 3.60279763e-03, -2.27529192e-04, -1.70596130e-03,
       -5.68142114e-03, -3.22854682e-03, -1.36182383e-02, 4.52595437e-03,
       2.61601899e-03, 5.76543296e-03, 4.56468109e-03, 4.37110313e-04,
       -9.74346127e-04, -6.42298022e-03, -7.43576966e-04,
       -1.03905853e-02, 3.71870724e-03, 2.31380528e-03, 3.67607665e-03,
       5.29389922e-03, -1.65154552e-03, -1.25829002e-03, -6.95346249e-03,
       -1.00266712e-03, -1.56129664e-02, 4.10992559e-03, 2.57809856e-03,
       6.98882574e-03, 7.49149732e-03, -9.05004621e-04, 1.10274777e-06,
       -1.37714262e-03, 8.39080254e-04, -1.16260548e-03, -2.57410202e-03,
       -8.43563117e-04, 2.20096111e-03, 2.67019984e-03, 2.44052339e-04,
       -2.10352079e-03, -2.32031895e-03, 2.07533198e-03, 2.39543471e-04,
       -5.18778164e-04, 1.24698353e-03, 3.12261819e-03, 2.92441086e-03,
       3.19583982e-04, 1.23617274e-03, -1.15904119e-03, -3.73560586e-04,
       -2.39301566e-03, -2.51121644e-04, -5.68456075e-04, 2.15120940e-03,
       5.05445898e-03, 1.44795259e-03, -1.65957099e-04, -1.93421717e-03,
       8.14297411e-04, -1.25897746e-03, 4.05027438e-03, 1.63803890e-03,
       2.21359823e-03, 4.71352041e-03, 1.65354321e-03, -2.38212920e-03,
       -2.87205097e-03, -1.13375403e-03, -7.45308725e-03,
       -2.97855563e-03, 3.38961341e-04, 4.69602970e-03, 8.82243563e-04,
       1.38220901e-03, -2.91156047e-03, -3.55443754e-03, -1.69472260e-04,
       -8.32483172e-03, -4.71221562e-03, -6.98433840e-04, 4.86394251e-03,
       3.85419233e-04, -5.14785468e-04, -3.52322985e-03, -4.52839863e-03,
       -9.58219578e-04, -1.05534960e-02, -4.62366315e-03, 5.04276715e-04,
       6.45593926e-03, 1.70818681e-03, -1.05711049e-04, -4.17629723e-03,
       -5.06347511e-03, 9.44304862e-04, -1.20857032e-02, -5.88545809e-03,
       -1.17996067e-03, 6.43277448e-03, 2.26545293e-04, -2.48688017e-03,
       2.64026294e-03, 1.51499209e-03, 1.54242921e-03, -1.55207876e-03,
       -6.28341781e-03, 3.12877091e-04, -5.53201826e-04, -3.41146137e-03,
       -6.52897463e-04, 2.69498443e-03, 1.90968881e-03, 2.31965049e-03,
       -3.65259562e-04, -2.59060832e-03, 1.94744288e-03, -7.13451940e-04,
       -4.91256174e-03, -4.81378660e-03, 2.65395874e-03, 1.32514467e-03,
       2.54499639e-04, -1.80356100e-03, -4.82279109e-03, -6.95346622e-04,
       -2.97913398e-03, -4.00714204e-03, -1.04823313e-03, 2.09764182e-03,
       1.77787128e-03, 2.85548437e-03, -6.14683493e-04, -9.54755466e-04,
       1.14294584e-03, -3.88426729e-03, -6.03913050e-03, -6.69927523e-03,
       -5.02600428e-03, -1.04775617e-03, 3.79810546e-04, -2.23716628e-03,
       -1.53337722e-03, 1.41738929e-04, 1.95305934e-03, 1.70186092e-03,
       2.65077222e-03, -3.66247166e-03, -2.02968949e-03, -1.01677061e-03,
       -5.06129395e-03, -1.88319385e-03, 2.84810638e-04, 1.00479438e-03,
       1.43126724e-03, 3.22595541e-03, -4.64559160e-03, -8.04778421e-04,
       1.69804820e-03, -2.72207055e-03, -1.51679351e-03, -6.29093382e-04,
       5.64747432e-04, 1.03071507e-03, 7.96448032e-04, -4.00283001e-03,
       -2.87255086e-03, -1.06064905e-03, -6.05732575e-03,
       -5.14662359e-04, -7.37239752e-05, -2.66311923e-04, 4.63798387e-05,
       1.84036593e-03, 7.27621606e-03, 5.11501101e-04, -2.56060011e-04,
       -2.73094536e-03, 2.96981866e-03, -1.12230144e-03, 2.21085611e-05,
       -3.51384236e-03, -3.72800254e-03, 9.00476426e-03, 7.28824380e-05,
       7.43507699e-04, -3.87010910e-03, 3.29831522e-03, -7.37061433e-04,
       5.59677894e-04, -4.38586809e-03, -4.27871477e-03, 1.06078750e-02,
       7.60389143e-04, -5.24132221e-04, -2.16712733e-03, 4.21803491e-03,
       -8.66829883e-04, 1.06064905e-03, -3.90943373e-03, -5.40651940e-03,
       1.24372616e-02, 1.96321955e-04, 7.87001743e-04, -3.53437243e-03,
       3.46553861e-03, -2.51082383e-04, 1.61715096e-03, -3.83783574e-03,
       -5.82090812e-03, -1.42209596e-04, -2.53669452e-03,
       -9.35672666e-04, -2.45105033e-03, 4.28097602e-03, 1.17462571e-03,
       1.72558811e-03, -3.52091342e-03, -2.70021427e-03, -1.71125779e-04,
       -2.44483259e-03, -5.73229801e-04, -2.43835011e-03, 4.27203812e-03,
       2.16783513e-03, 1.48569676e-03, -5.04797138e-03, -1.57189707e-03,
       -5.44550829e-04, -3.91163863e-03, -1.13672744e-04,
       -1.95749919e-03, 6.99106278e-03, 1.54244096e-03, 9.48074099e-04,
       -4.55378508e-03, -1.76912069e-03, -3.53963958e-04,
       -3.85254691e-03, -6.89547858e-04, -2.04528519e-03, 7.88646750e-03,
       2.65534897e-03, 1.28202827e-03, -6.91125495e-03, -5.69999276e-04,
       8.06502940e-04, 1.84657436e-03, -9.80423298e-04, -2.01331917e-03,
       -2.70241033e-03, 1.82035042e-03, 1.03105803e-03, -4.59488947e-03,
       1.51770236e-03, 2.04042043e-03, 1.90963293e-03, -2.02477840e-03,
       -3.73877399e-03, -1.08561723e-03, 4.15203348e-03, 3.27304559e-04,
       -7.38252280e-03, 3.08764703e-03, 2.64770002e-03, 2.83871335e-03,
       -1.69153640e-03, -2.60171574e-03, -4.28213598e-03, 2.48009642e-03,
       3.02846107e-04, -8.23209342e-03, 2.53139238e-04, 2.64157960e-03,
       2.42585270e-03, -3.03886901e-03, -4.38397843e-03, -3.03252926e-03,
       5.68133080e-03, -7.32435612e-04, -1.14128664e-02, 5.28831384e-04,
       1.98177528e-03, 1.14736217e-03, -2.77994247e-03, -1.57025293e-03,
       -2.10609427e-03, -2.17439979e-03, 4.16150177e-03, 2.42081075e-03,
       7.84457545e-04, 2.75231316e-03, 2.12970260e-03, -2.18505133e-03,
       -1.09866052e-03, -2.20960448e-03, -2.53896625e-03, 3.96664720e-03,
       1.70458655e-03, -1.16249488e-03, 1.97940599e-03, 2.64273491e-03,
       -1.67694793e-03, 4.52706532e-04, 2.38808963e-04, -2.70233303e-03,
       4.50082915e-03, 4.03862586e-03, -1.70124011e-04, 4.04026126e-03,
       3.75216780e-03, -4.18526324e-04, 7.16274837e-04, 6.03609020e-04,
       -2.85071228e-03, 3.66312638e-03, 3.61696165e-03, -3.14830570e-03,
       -4.78913920e-04, -9.09056107e-04, -5.30796242e-04, 4.47366940e-04,
       -3.64266685e-04, -8.56442493e-04, -8.01299524e-04,
       -1.81886216e-03, 1.53387850e-03, -6.77797245e-04, -8.79161060e-04,
       1.08502037e-03, 2.11176206e-03, -1.42932392e-03, -2.50686426e-03,
       -1.54596206e-03, -1.93312729e-03, 1.56937633e-03, -1.19344296e-03,
       -1.96664990e-03, 2.01000203e-03, 2.57713327e-05, 7.90887745e-04,
       -9.02163272e-04, -1.28989411e-03, -3.11785168e-03, 2.56163254e-03,
       -1.84294651e-03, -2.15519010e-03, 3.46877892e-03, 1.37566263e-03,
       -1.09759241e-03, -3.54532478e-03, -1.18386338e-03,
       -3.46859032e-03, 1.64605665e-03, -1.35189295e-03, 2.80554319e-04,
       3.40717006e-03, 1.55865378e-03, 3.57415108e-03, -2.43378943e-03,
       -5.18503273e-03, -4.70862398e-03, -3.76331853e-03,
       -6.70666748e-04, 2.68103532e-03, 5.62620303e-03, 2.73757195e-03,
       3.08796274e-03, -2.11718096e-03, -5.97054511e-03, -7.52637349e-03,
       -6.44805422e-03, -6.59065903e-04, 8.35908926e-04, 5.73540060e-03,
       2.84255855e-03, 4.88066720e-03, -3.65314935e-03, -7.13822013e-03,
       -7.04992283e-03, -3.72681790e-03, 1.60492619e-03, 3.66503187e-03,
       8.53957050e-03, 4.50389367e-03, 4.71224263e-03, -3.46569857e-03,
       -8.85237660e-03, -1.10400189e-02, -5.88318706e-03,
       -3.82375647e-03, -3.23492521e-03, -6.22666907e-03,
       -1.02256286e-04, 9.17566940e-03, 4.17901296e-03, -9.56733245e-04,
       -6.03277353e-04, 2.32912789e-04, -2.47503980e-03, -2.71083298e-03,
       -8.19406006e-03, -1.88426883e-03, 1.04517816e-02, 3.78445885e-03,
       -2.19617411e-03, -7.77614419e-04, 2.41223536e-03, -5.97413769e-03,
       -4.68835421e-03, -6.46545226e-03, 2.57905107e-03, 9.65822395e-03,
       6.07247977e-03, 6.64737658e-04, 8.10272759e-04, 2.11419305e-03,
       -4.07534558e-03, -4.83871531e-03, -9.06087551e-03, 1.81405793e-03,
       1.16290087e-02, 5.46359643e-03, -4.72961518e-04, 4.72755492e-04,
       4.17642109e-03, 4.57710773e-03, -7.76743167e-04, 5.31483209e-04,
       1.79442705e-03, 1.49776449e-03, 3.84254148e-03, -1.79521902e-03,
       -5.67818247e-03, -2.01164931e-03, 7.12320814e-03, 2.38256762e-04,
       -7.12691599e-06, 6.71888934e-04, 5.02085488e-04, 4.76248423e-03,
       -1.99768459e-03, -8.55315942e-03, -2.32296996e-03, 3.94582236e-03,
       9.37211677e-04, 2.60641659e-03, 1.11016014e-03, 2.46451888e-03,
       5.11635281e-03, -5.49872778e-03, -8.37782118e-03, -2.74891825e-03,
       5.09072933e-03, 1.77737093e-03, 1.75127329e-03, -4.40394593e-04,
       1.79160363e-03, 5.90447336e-03, -5.72260376e-03, -1.18154250e-02,
       -4.36060876e-03, -1.48630235e-04, 3.15501122e-03, 2.47301371e-03,
       1.24065729e-03, -1.39460841e-03, -3.88153450e-04, -1.67751871e-03,
       -3.03736865e-03, -3.17983027e-03, -1.60270813e-03, 2.68084789e-03,
       2.17309245e-03, 1.99718081e-04, -1.84943830e-03, -1.45627267e-03,
       -1.70200621e-03, -2.12571840e-03, -4.55148658e-03,
       -1.19844801e-03, 3.59256216e-03, 1.20965217e-03, 3.00257580e-05,
       -1.04223320e-03, -4.32531844e-04, -2.30514142e-03,
       -3.04880971e-03, -3.15293949e-03, -2.85500824e-03, 2.74774991e-03,
       5.50363446e-04, -1.50518888e-03, -1.17708801e-03, -7.21047749e-04,
       -1.73763849e-03, -2.43163016e-03, -4.11988469e-03,
       -4.28747991e-03, 9.24415217e-05, -1.13111490e-03, 1.04946212e-03,
       4.86887153e-03, 4.29678150e-03, 1.13288988e-03, 1.94707958e-04,
       -7.58973300e-04, -5.05266804e-03, 1.54018670e-03, 2.01183997e-04,
       -2.80492153e-04, 2.93831830e-03, 3.88874533e-03, 2.87429895e-03,
       -1.03977654e-04, 1.00210535e-04, -7.77127687e-03, -9.08507034e-04,
       -1.31247647e-03, 1.45924301e-03, 9.98644438e-03, 6.20922772e-03,
       1.22189661e-03, -1.01650204e-03, -3.96959065e-03, -9.43834521e-03,
       1.79191562e-03, 1.11250236e-04, -5.05787437e-04, 7.48595735e-03,
       5.52039128e-03, 2.95823719e-03, -1.58889592e-03, -4.15127119e-03,
       2.94851582e-03, 1.22001208e-03, -5.15877444e-04, 1.88683940e-03,
       6.99713174e-03, -1.35124556e-03, -2.69395136e-03, -4.59607365e-03,
       -1.26146909e-03, 3.58409691e-03, 1.11515657e-03, -1.46933354e-03,
       2.11765757e-03, 6.16247300e-03, 1.79135089e-03, -1.40333839e-03,
       -4.97911358e-03, -1.45043130e-03, 1.96651160e-03, 1.61597168e-03,
       -1.56876468e-03, 2.70896684e-03, 7.06025772e-03, -2.84601515e-03,
       -4.92661633e-03, -8.61657038e-03, -6.13744510e-03, 2.74332869e-03,
       7.63858960e-04, -2.72598048e-03, 3.09146498e-03, 5.87890064e-03,
       4.48097067e-04, -3.85626219e-03, -9.50912759e-03, -7.55490363e-03,
       -1.51255503e-04, -1.85929844e-03, 1.54239032e-03, 2.80352402e-03,
       -1.28309452e-03, -4.86935023e-04, 3.78814107e-03, 5.53010555e-04,
       1.16671389e-03, 1.14281883e-03, -1.01188174e-03, 7.20166136e-04,
       2.42065592e-03, -3.62604251e-03, -2.07765773e-03, 3.43430880e-03,
       5.03640855e-04, 1.25307019e-03, -1.35262834e-03, -4.02422715e-03,
       2.93631176e-03, 3.77708743e-03, -3.55566881e-04, -1.23526750e-03,
       3.79419653e-03, -2.92561686e-04, -2.27277237e-03, -8.68632167e-04,
       -3.71321104e-03, 2.41662143e-03, 3.55710369e-03, -1.48554600e-03,
       -2.85679544e-03, 3.79657792e-03, -6.64824503e-04, -3.18218907e-03,
       2.06142286e-04, -1.13473402e-03, 3.31152551e-04, 2.93272175e-03,
       -4.30317130e-03, 1.81605737e-03, -9.34113050e-05, -5.72062447e-04,
       5.33212151e-04, -1.64243393e-03, -2.41729897e-03, 1.43184920e-03,
       3.85582424e-03, -3.78715363e-03, 3.18805082e-03, 2.31541111e-03,
       -1.35761313e-03, -1.99235929e-03, -1.19540771e-03,
       -2.57594977e-03, 2.45902454e-03, 3.83266923e-03, -6.68937527e-03,
       2.29529198e-03, 1.23000215e-03, 4.79716575e-04, -1.34365493e-03,
       -3.93908704e-03, -2.47370591e-03, 3.80471535e-03, 5.18826395e-03,
       -5.50346309e-03, 4.50847158e-03, 3.84046580e-03, -4.74930130e-04,
       -4.09189891e-03, -3.44382861e-04, -2.47483607e-03,
       -5.21118287e-03, -2.69758073e-03, 4.96481638e-03, 5.90917747e-03,
       -1.13059221e-04, -5.79901680e-04, -3.17864167e-03,
       -4.16938507e-04, -3.27954441e-03, -4.88778809e-03,
       -2.41918187e-03, 3.70988017e-03, 8.42584670e-03, 1.24864944e-03,
       4.56547481e-04, -3.18070035e-03, -1.85306347e-03, -3.20864236e-03,
       -4.21905564e-03, -1.94326416e-03, 6.63043559e-03, 8.00491869e-03,
       6.54904463e-04, -2.08581005e-05, -3.85946594e-03, -1.41473173e-03,
       -5.11030853e-03, -4.07138281e-03, -1.60433340e-03, 5.68175176e-03,
       1.10518979e-02, 2.61429744e-03, 1.74879108e-03, -2.92884395e-03,
       -2.77205696e-03, -8.53573438e-03, -5.36765950e-03,
       -2.69662036e-04, 4.01949976e-03, 3.84650589e-03, 6.81993226e-03,
       3.44950403e-03, 1.23375934e-03, -2.79663829e-03, -1.14668636e-02,
       -7.61719793e-03, -2.39525153e-03, 2.82802060e-03, 2.94555351e-03,
       7.49185262e-03, 5.36040915e-03, 2.16739741e-03, -4.43357741e-03,
       -1.10643320e-02, -5.57086430e-03, 2.10764911e-03, 6.32933108e-03,
       5.33796521e-03, 7.40641961e-03, 2.45811953e-03, -3.03823152e-04,
       -5.90203097e-03, -1.40095241e-02, -6.79277955e-03, 8.27671785e-04,
       6.19697571e-03, 4.24704375e-03, 7.18155922e-03, 4.51681716e-03,
       4.39205702e-04, 1.16099976e-03, -3.91550020e-06, -5.17943641e-04,
       8.03326140e-04, 4.53026732e-03, -5.69683441e-04, 6.33568561e-05,
       -3.54806031e-03, -4.52972669e-03, 4.94998298e-04, 9.22773441e-04,
       1.26270554e-03, 1.12676981e-03, 5.83730219e-03, -2.46839738e-03,
       -3.20412195e-03, -4.34814673e-03, -7.76815554e-03, 7.85399112e-04,
       1.59342261e-03, 1.17483840e-03, 2.69176369e-03, 4.29052021e-03,
       -3.41231178e-04, 1.02817699e-04, -3.33239092e-03, -6.47237897e-03,
       1.22889434e-03, 4.25070245e-03, 3.41884582e-03, 3.23745469e-03,
       5.58519270e-03, -3.10959877e-03, -3.78932897e-03, -4.43716627e-03,
       -9.11777560e-03, -1.69031892e-03, -9.73163842e-05, 2.82494095e-03,
       4.81775124e-03, -5.53454680e-04, -6.05046703e-03, -1.38963596e-03,
       7.09346612e-04, 1.53676060e-03, -2.93212547e-03, -9.09938884e-04,
       1.98111148e-03, 5.57812396e-03, 2.01633340e-03, -6.67122426e-03,
       -2.84939515e-03, 1.04855288e-04, -4.60224575e-04, -2.31804652e-03,
       -1.40043232e-03, 4.81476169e-03, 6.52775075e-03, 3.16683552e-03,
       -6.62141666e-03, -2.41128239e-03, 1.60024778e-04, 1.33873068e-03,
       -3.95112438e-03, -2.67296517e-03, 3.50204413e-03, 7.54974410e-03,
       4.75702854e-03, -7.38053722e-03, -4.05786280e-03, -1.93112792e-04,
       -1.28623203e-03, -2.14952976e-03, -2.20291130e-03,
       -1.74583623e-03, 1.44844686e-04, -1.11296691e-03, 2.18465202e-03,
       4.29726392e-03, -1.40493430e-04, -1.63894007e-03, -7.24010170e-04,
       -2.63349642e-03, -1.49260124e-03, 3.42088781e-04, -1.33939565e-03,
       3.49006616e-03, 7.49351038e-03, 7.28601648e-04, 6.68695197e-04,
       -2.77395290e-03, -2.19432986e-03, -7.56865632e-07, 2.15955428e-04,
       9.27804678e-04, 3.64934583e-03, 3.88170430e-03, -1.35286921e-03,
       -2.53814622e-03, -1.32221333e-03, -1.91432983e-03, 1.29015278e-03,
       1.59915467e-03, 1.29461871e-03, 5.02888858e-03, 7.34233810e-03,
       1.14010991e-05, 7.71994994e-04, -8.16912856e-03, -4.42406221e-04,
       -7.10918684e-04, 6.14542878e-05, 6.29109377e-03, 2.20093853e-03,
       -1.53407408e-03, -3.55531485e-03, -1.34610396e-03,
       -9.09428298e-03, -2.23248964e-04, -1.90471328e-04, 1.05719932e-03,
       8.08746740e-03, 3.06616235e-03, -2.34552589e-03, -4.69032861e-03,
       -2.29902286e-03, -9.93486494e-03, -1.32497819e-03,
       -5.21843845e-04, 8.85216112e-04, 8.25488754e-03, 2.96481070e-03,
       -1.39406999e-03, -3.03529506e-03, -2.55088485e-03,
       -1.09223276e-02, -1.18013786e-03, -5.54451137e-04, 2.91580288e-03,
       9.70249437e-03, 2.57447502e-03, -2.79136538e-03, -4.23260266e-03,
       -3.71983065e-03, -2.64836617e-05, 7.07502302e-04, 1.04099303e-03,
       1.39349245e-03, 3.42039624e-04, -1.17117923e-03, -4.00812691e-03,
       -4.83288523e-03, -4.21220344e-03, 4.29617328e-04, 2.09000101e-03,
       1.68254809e-03, 4.22851322e-03, 2.72653881e-03, -1.84208737e-03,
       -6.09484455e-03, -7.81710166e-03, -4.77176579e-03, 1.60649978e-03,
       4.54556104e-03, 3.21053714e-03, 3.87573615e-03, 3.00953304e-03,
       -4.09989152e-04, -6.45412225e-03, -8.25899374e-03,
       -4.83632088e-03, 1.80323992e-03, 6.40457449e-03, 3.99853103e-03,
       7.86647294e-03, 5.72010735e-03, -9.74476454e-04, -9.12051927e-03,
       -1.26256794e-02, -5.17682405e-03, -6.75571337e-03,
       -1.60154572e-03, 4.40654717e-03, -1.52076036e-03, 1.99885853e-03,
       1.90567516e-03, -1.59355433e-04, 2.77808891e-03, -5.36577404e-03,
       -8.47717747e-03, -2.70498171e-03, 4.87570139e-03, -2.23188591e-03,
       3.49818752e-03, 1.91785896e-03, 4.42814897e-04, 3.19643598e-03,
       -6.73073484e-03, -7.86811858e-03, -3.67740284e-07, 6.69917744e-03,
       -1.43314735e-03, 3.29829613e-03, 2.25443649e-03, -1.99018209e-03,
       2.08275043e-03, -7.84342177e-03, -9.75192897e-03, -5.28455712e-04,
       7.17122201e-03, -2.08245683e-03, 4.59437585e-03, 3.49127967e-03,
       -2.13315734e-03, 2.03433097e-03, -9.91519447e-03, 3.43546085e-03,
       -2.19249562e-03, 2.61773774e-03, -3.37537890e-03, 2.88682035e-03,
       -2.71858647e-03, -1.88131130e-03, 7.86885503e-04, 1.37960340e-03,
       2.51414930e-03, -3.52718215e-03, 1.40671199e-03, -4.90641827e-03,
       4.54955921e-03, -1.76614895e-03, -8.11166305e-04, 8.35537037e-04,
       1.36551005e-03, 3.27341096e-03, -1.65189826e-03, 2.38860585e-03,
       -4.01633000e-03, -1.08335144e-03, -3.71182500e-03,
       -8.76055215e-04, 2.26017996e-03, 1.63299876e-04, 2.24364130e-03,
       -2.44518952e-03, 1.55263266e-03, -5.43347094e-03, 5.04031661e-04,
       -2.49158638e-03, -2.91534292e-04, 2.94000027e-03, 4.18934127e-04,
       -1.23445224e-03, -4.23961756e-04, -4.83583222e-04,
       -3.44732660e-04, 1.49446330e-03, 3.42478370e-03, 8.59629014e-04,
       -3.34683643e-03, -5.25575085e-03, -1.12015533e-03,
       -7.44468649e-04, -5.08506841e-04, 2.36669090e-04, 4.44822566e-04,
       3.12967366e-03, 8.42231268e-04, -3.77442618e-03, -4.92514623e-03,
       -3.20946425e-03, -1.07544016e-04, 5.03258081e-04, 2.94956611e-03,
       1.12208852e-03, 2.48481683e-03, -6.13626675e-04, -5.49033377e-03,
       -1.00979283e-02, -3.50350980e-03, 2.38805311e-04, 1.19645626e-03,
       4.18535341e-03, -8.39709654e-04, 1.00418087e-03, -7.44491816e-04,
       -6.36757305e-03, -9.68352519e-03, -1.24198594e-03,
       -2.03989609e-03, -2.87676754e-04, -5.60307829e-03, 7.67332269e-04,
       -2.53587333e-03, 1.15686015e-03, 7.75569584e-03, 2.73235631e-03,
       -1.56760856e-03, -4.01539728e-03, -1.31941575e-03,
       -6.95815170e-03, -5.65305992e-04, -2.45344010e-03, 4.49347589e-03,
       9.73048247e-03, 3.91752226e-03, -2.89176055e-03, -2.48862826e-03,
       -1.03458599e-03, -7.92738050e-03, 4.83601616e-04, -1.27096917e-03,
       2.71858618e-04, 9.14487150e-03, 8.54321406e-04, -2.68355641e-03,
       -5.32561168e-03, -1.59432716e-03, -9.97825619e-03,
       -1.74996955e-03, -1.34328648e-03, 3.66284465e-03, 1.15699433e-02,
       1.53618713e-03, 4.60471725e-03, -4.45804879e-04, 8.43538321e-04,
       -6.09818846e-03, -7.46756513e-03, 8.61777691e-04, 4.36204532e-03,
       1.51417148e-03, 1.73249317e-03, 6.94060605e-03, -1.82262959e-03,
       2.75618327e-03, -5.90988435e-03, -8.96053948e-03, -2.32682889e-03,
       3.87075311e-03, 1.43766077e-03, 2.54631997e-03, 4.97680390e-03,
       -8.70161341e-04, 3.60369973e-04, -8.08934495e-03, -8.62412713e-03,
       1.67405233e-03, 3.92000657e-03, -8.36403517e-04, -5.69349853e-04,
       7.97301251e-03, -2.15882924e-03, 2.38233572e-03, -8.26643594e-03,
       -9.01895203e-03, -2.34641763e-03, 2.48365081e-03, -1.07132981e-03,
       8.47441028e-04, 3.67409596e-03, -2.25774551e-04, -7.74784072e-04,
       -2.23970180e-03, 2.12462110e-05, 2.44595547e-04, -1.83958637e-05,
       -1.40454888e-03, 1.70547166e-04, 4.35748324e-03, 1.48386741e-03,
       -4.47081809e-04, -1.84792466e-03, 7.90028484e-04, -7.83202195e-05,
       -4.68993763e-04, -3.13556124e-03, 9.20473307e-04, 4.27489309e-03,
       3.73243209e-04, -1.12371519e-03, -2.84064398e-03, 2.93113827e-03,
       -7.36651069e-04, 1.49808265e-03, -2.66920519e-03, -2.98316171e-03,
       5.17453859e-03, 2.30874168e-03, 9.56554286e-05, -2.73620314e-03,
       5.19914133e-03, -1.42213772e-03, 6.23834727e-04, -5.35818329e-03,
       -1.97649887e-03, 4.28723777e-03, -3.05967231e-04, -1.52258400e-03,
       -5.84512250e-04, 1.28967408e-03, 4.24911361e-03, 1.89877581e-03,
       -1.25450292e-03, 4.84208483e-03, 3.32213764e-04, 5.53324535e-05,
       2.90050812e-04, 5.34581603e-04, 3.63021245e-04, 4.50785831e-03,
       3.03003332e-03, -1.53663114e-03, 4.40607406e-03, 1.98798813e-03,
       -1.47813314e-03, -1.96216744e-03, -8.51812365e-04, 2.98516359e-03,
       5.92887402e-03, 3.47357034e-03, -2.70462158e-04, 5.19605447e-03,
       -2.08633300e-03, -1.33523636e-03, 4.59629227e-04, -7.25796854e-05,
       1.19447138e-03, 6.54116319e-03, 5.40402858e-03, -8.61979715e-05,
       4.62856703e-03, -5.41820703e-03, -4.31486825e-03, -2.89917312e-04,
       3.55730113e-03, 1.68539037e-03, 2.96595879e-03, 3.39025958e-03,
       2.36420939e-03, 6.49684633e-04, -5.40666515e-03, -4.09254804e-03,
       4.20722354e-04, 2.96262582e-03, 2.92516616e-03, 3.36793368e-03,
       3.10887862e-03, 2.04150099e-03, 4.83598997e-04, -8.99843592e-03,
       -5.59716439e-03, -2.06532597e-04, 4.79726540e-03, 3.04138381e-03,
       3.91372619e-03, 5.10021299e-03, 4.90422500e-03, -8.12516664e-04,
       -7.53160939e-03, -5.31460671e-03, 9.85027727e-05, 4.78109578e-03,
       5.26228594e-03, 4.56575304e-03, 5.42296516e-03, 4.21313429e-03,
       -1.40433572e-03, -4.66512516e-03, -1.66724261e-03, 2.17551691e-03,
       -8.27466196e-04, 3.36087821e-03, 2.36198725e-03, 7.43610319e-04,
       8.39282933e-04, -7.23804580e-04, -3.39368288e-03, 1.67684819e-04,
       1.52979989e-03, 6.68509980e-04, 3.98693373e-03, 3.67233600e-03,
       1.75491546e-03, 6.52122835e-04, -1.37235608e-03, -4.88164090e-03,
       1.16819551e-03, 3.39174992e-03, -8.11178412e-04, 4.07895213e-03,
       1.63120963e-03, -1.19670911e-03, 7.80963688e-04, -1.28833891e-03,
       -2.34476710e-03, 3.49017512e-03, 2.25092238e-03, 1.00399286e-03,
       4.61924775e-03, 4.08542342e-03, 1.80720872e-05, 6.44852480e-05,
       -2.52150930e-03, -3.78850871e-03, -3.47542949e-03, 6.30405452e-03,
       -7.99066562e-04, -3.37295048e-03, 2.73275794e-03, 2.86837923e-03,
       2.68885167e-03, -1.00846996e-03, -5.15656872e-03, -4.80304984e-03,
       7.43965199e-03, -1.35663908e-03, -2.50760885e-03, 3.70655162e-03,
       5.75334020e-03, 3.69214476e-03, -1.24477758e-03, -5.16108610e-03,
       -3.32078524e-03, 6.42495835e-03, -3.88003682e-05, -5.04078111e-03,
       2.82091089e-03, 3.88375111e-03, 2.73860060e-03, -2.27354909e-03,
       -6.50461437e-03, -4.29971796e-03, 6.52175024e-03, -4.27696250e-05,
       -3.46539682e-03, 3.55967414e-03, 7.71761173e-03, 4.83677490e-03,
       -3.04670772e-03, 1.46588404e-03, 7.12938001e-03, 4.24124487e-03,
       2.69103260e-03, -4.71778214e-04, -2.39780778e-03, 4.56860143e-04,
       -1.87526341e-03, -3.11419228e-03, 1.60258496e-03, 7.20056938e-03,
       4.97252168e-03, 3.00628040e-03, 2.84468988e-04, -1.60582294e-03,
       3.65871791e-04, -3.92023008e-03, -2.64606648e-03, 3.17746354e-03,
       7.61707406e-03, 4.04954515e-03, 2.12226575e-03, 2.27580359e-03,
       -2.44379323e-03, 1.93212290e-05, -1.93527143e-03, -3.58955981e-03,
       3.18156718e-03, 7.84756709e-03, 5.57587901e-03, 2.76051927e-03,
       3.69846262e-03, -1.28055096e-03, -2.95202160e-04, -3.71462805e-03,
       -1.79013971e-03, -1.99318212e-03, 3.09252762e-03, 1.74352957e-04,
       -1.61904411e-03, 2.13837717e-03, 2.27284152e-03, 2.34878063e-03,
       -4.34404565e-03, -7.34709296e-03, -5.85605437e-03, 3.10532865e-03,
       6.32876108e-05, -7.09584390e-04, 3.85040720e-03, 3.18140909e-03,
       3.56647419e-03, -4.91665769e-03, -9.56231263e-03, -9.05500383e-06,
       5.15094213e-03, 1.96367866e-04, -2.15650769e-03, 4.10299608e-03,
       3.45733156e-03, 2.62888963e-03, -5.76277822e-03, -6.70942338e-03,
       -3.63161834e-03, 6.15345640e-03, 4.25852922e-04, -1.08785252e-03,
       5.91949886e-03, 4.33567213e-03, 3.92146083e-03, -7.28059234e-03,
       -9.42739006e-03, -1.02494285e-02, 2.09897943e-03, -4.47611703e-04,
       -1.15386829e-04, 5.02794655e-03, 2.80787237e-03, 4.98138461e-03,
       2.19361318e-04, -8.50516465e-03, -1.05422353e-02, 1.61460054e-03,
       5.98423707e-04, -2.36243839e-04, 6.65661180e-03, 4.52605588e-03,
       6.41930848e-03, 1.93745189e-03, -9.02562123e-03, -9.96240228e-03,
       2.36037374e-03, 3.07910756e-04, -2.94714031e-04, 4.87167994e-03,
       2.88322335e-03, 6.10148348e-03, -2.12832689e-04, -8.73352122e-03,
       -1.00625735e-02, 1.54116016e-03, 1.24477409e-03, -6.43098494e-04,
       8.42926838e-03, 5.63470181e-03, 8.27516802e-03, 9.56085918e-04,
       -9.66012944e-03, -1.70026394e-03, -6.50517130e-03,
       -6.74983545e-04, 6.91832276e-04, 4.90930397e-04, 1.22117938e-03,
       4.96492023e-03, 2.81576044e-03, -8.52249155e-04, -7.15947826e-04,
       -8.18830077e-03, -3.95345181e-04, -4.52076347e-04, 1.32263638e-03,
       1.95613038e-03, 6.57704752e-03, 4.05921135e-03, -2.84148823e-03,
       -1.77264679e-03, -5.58211748e-03, 6.52107585e-04, 8.94601922e-04,
       3.28928116e-03, 2.24911096e-03, 7.41019659e-03, 3.08114639e-03,
       -2.16404861e-03, -1.87080924e-03, -8.25922750e-03, 1.10484578e-03,
       -1.41209713e-03, 6.06477261e-03, 3.07706092e-03, 9.19093285e-03,
       4.55294875e-03, -4.65425942e-03, -6.69896556e-03, -8.10876372e-04,
       7.46956002e-03, 6.70738693e-04, 4.27123066e-03, 1.25094713e-03,
       8.12830927e-04, -1.09814317e-03, -3.79682914e-03, -8.31993576e-03,
       -3.37437633e-03, 7.11588748e-03, 8.55167673e-05, 5.31504024e-03,
       1.35953026e-03, 6.63748535e-04, -1.18102017e-03, -4.88928612e-03,
       -7.63067557e-03, -2.83835689e-03, 8.10652692e-03, 1.66328717e-03,
       4.76353243e-03, 2.55693495e-03, 6.13011769e-04, -2.14317697e-03,
       -3.33682145e-03, -8.97838082e-03, -6.60198275e-03, 7.59536587e-03,
       1.21457805e-03, 6.70519471e-03, 3.44195310e-03, -3.78992205e-04,
       -2.66444124e-03, -4.70114080e-03, -2.48180563e-03, 1.80990039e-03,
       1.31190091e-03, -2.68912554e-04, -1.59709249e-03, -2.85397004e-03,
       6.97571086e-04, 8.83647939e-04, -1.66339229e-03, -2.75709596e-03,
       3.60730424e-04, 8.08550918e-04, 4.89159604e-04, -4.11761604e-04,
       -2.64309067e-03, -5.76961087e-04, 1.24374020e-03, -1.50116126e-03,
       -7.49143190e-04, 2.39780359e-03, 6.42397266e-04, -2.28178920e-03,
       7.27741717e-05, -1.13302993e-03, -1.21415578e-05, -2.09057325e-04,
       -2.99795577e-03, 6.25179673e-04, 5.77848288e-04, 5.28529985e-04,
       -1.22558710e-03, 1.05161651e-03, -6.74061826e-04, -1.73451274e-03,
       -5.91260032e-04, -2.47847196e-03, -2.95730378e-03,
       -8.61953013e-04, 3.03798448e-03, 7.14919122e-04, 5.92315523e-03,
       -1.49907568e-03, 7.55156390e-04, -4.72387561e-04, -4.68375161e-03,
       -2.14854814e-03, -7.11573346e-04, 2.63599399e-03, 3.42831554e-05,
       4.69850609e-03, -2.21715285e-03, 3.58456513e-04, -4.67833801e-04,
       -3.52853490e-03, -1.28663308e-03, -6.46158005e-04, 1.59918959e-03,
       -2.71712220e-03, 5.95765701e-03, -1.10851368e-03, 2.37149955e-03,
       3.14106655e-05, -4.83262073e-03, 5.76675404e-04, -4.69041144e-04,
       -7.10525201e-04, -4.24563233e-03, 3.85001907e-03, -1.44753209e-03,
       1.93039374e-03, -4.81755240e-04, -2.17594532e-03, -3.70230456e-03,
       2.15699105e-03, 2.68062274e-03, -1.33613532e-03, 1.62422494e-03,
       1.21543382e-03, -2.33730138e-03, 3.07429309e-06, -1.68395450e-03,
       -4.86708106e-03, 2.48985505e-03, 2.09848885e-03, -1.56722695e-03,
       2.64943577e-03, 1.23184454e-03, -2.84399139e-03, 1.88546244e-03,
       -8.77891842e-04, -2.03713728e-03, 1.55001786e-03, 5.12158917e-03,
       -4.53568180e-04, 3.44961561e-04, 8.82574648e-04, -2.89673521e-03,
       -1.00539112e-03, 1.02819188e-03, -2.28974223e-03, 1.80853216e-03,
       4.32496332e-03, 1.19938154e-03, 1.22843741e-03, 1.44243962e-03,
       -3.73900682e-03, 1.70542195e-03, 2.65210192e-03, -2.46206438e-03,
       2.55491730e-04, 6.98305026e-04, 1.04201213e-03, 2.13204697e-03,
       -5.69570620e-05, 3.83158709e-04, 1.41471089e-03, -2.91869231e-03,
       -2.11418024e-03, 1.36217102e-03, 1.17341208e-03, -1.27822001e-04,
       1.41266850e-03, -1.92865831e-04, -4.04976250e-04, 1.24630530e-03,
       -3.21712391e-03, -2.00145668e-03, -1.26976648e-03, 1.33740669e-03,
       7.54471577e-04, 4.64207074e-03, -1.07797096e-03, -3.40091938e-04,
       7.07604515e-04, -2.58216914e-03, -1.35361671e-03, -6.13488490e-04,
       1.83069950e-03, -1.45890703e-03, 4.44065267e-03, -8.66386807e-04,
       -1.12091203e-03, 5.49112301e-05, -3.17387236e-03, -4.64110309e-03,
       -7.86155171e-04, -1.33388385e-03, 2.30632257e-03, 2.68694758e-03,
       8.27821344e-03, 3.53518222e-03, -1.13662204e-03, 1.86163466e-03,
       -5.86461881e-03, -8.45419185e-04, -2.64063547e-03, 3.28002428e-03,
       1.99613371e-03, 8.40015057e-03, 4.03842982e-03, 2.32400620e-04,
       2.35341047e-03, -3.10103735e-03, 5.19576541e-04, -1.14356808e-03,
       1.60573830e-03, 2.64145411e-03, 9.65696946e-03, 1.41902233e-03,
       -1.34643912e-03, 1.50841824e-03, -3.86650348e-03, 1.13733625e-03,
       -1.42868701e-03, 2.89923674e-03, 2.19557551e-03, 9.02261399e-03,
       4.54264344e-04, 1.42323508e-04, 1.28951750e-03, -2.94680172e-03,
       -1.08331058e-03, -5.07448381e-03, -7.68404803e-04, 1.70754304e-03,
       3.68894963e-03, 4.58623888e-03, 1.20994286e-03, -1.58131844e-03,
       -2.52523366e-03, -2.54926342e-03, -4.26054280e-03, 5.51157398e-04,
       3.45901470e-03, 4.52371128e-03, 3.51949385e-03, 1.13234669e-03,
       -1.30188011e-03, -2.99431966e-03, -2.64278450e-03,
       -6.27990952e-03, 3.34207754e-04, 1.72155292e-03, 4.61387215e-03,
       4.63939086e-03, 1.61419739e-03, -2.22997228e-03, -2.06952519e-03,
       -5.01308264e-03, -5.11799473e-03, 2.14149756e-03, 3.26738809e-03,
       5.79550210e-03, 2.81519117e-03, 1.60386250e-03, -1.14672282e-03,
       -4.52737790e-03, 5.25910500e-03, 4.87082312e-03, 4.58127027e-03,
       6.96064578e-03, 1.55197072e-03, 4.17526206e-03, -6.00627903e-03,
       -2.34078476e-03, -5.63263521e-03, 5.68083860e-03, 6.03602640e-03,
       4.37089941e-03, 9.70954075e-03, 2.32660910e-03, 5.42998081e-03,
       -5.51350694e-03, -3.84671870e-03, -3.44948238e-03, 6.25509722e-03,
       6.78980211e-03, 6.09073648e-03, 8.10445379e-03, 1.03144243e-03,
       3.04037030e-03, -8.07233248e-03, -2.66639190e-03, -3.98861570e-03,
       6.11226354e-03, 7.80919008e-03, 6.16150070e-03, 1.10753439e-02,
       2.01567728e-03, 4.73826518e-03, -7.65193207e-03, -4.49759467e-03,
       -4.71324347e-05, 1.36235077e-03, -1.68532995e-03, -9.92463538e-05,
       -2.06047087e-03, 1.99598074e-03, 1.22682820e-03, 1.28987222e-03,
       -3.63724632e-03, -4.47995953e-05, -2.07491830e-04,
       -5.05742012e-03, 4.28501458e-04, -8.70525429e-04, 1.58162764e-03,
       8.96930404e-04, 4.14810493e-04, -6.15115790e-03, -5.76943530e-05,
       2.37179920e-03, -3.24184331e-03, -1.70999346e-03, -2.12601712e-03,
       3.15752509e-03, 1.89954939e-03, 2.54215556e-03, -3.48330615e-03,
       -4.11226174e-05, 9.68597480e-04, -7.44044641e-03, -2.08172249e-03,
       -1.06151588e-03, 2.00710003e-03, 1.98164419e-03, 2.70991470e-03,
       -6.07659854e-03, 1.48809410e-03, 1.93112926e-03, 3.36038345e-03,
       4.18577529e-03, 2.22538877e-03, -2.73546460e-03, 8.37693282e-04,
       -3.97502398e-03, -7.23185716e-04, 3.07864801e-04, 1.91785395e-03,
       3.24350549e-03, 3.68102011e-03, 4.81311604e-03, -3.34480242e-03,
       2.49646860e-03, -3.79658211e-03, -2.60703661e-03, 2.02316348e-03,
       1.28165970e-03, 3.39623005e-03, 5.66514162e-03, 2.40882882e-03,
       -2.11378792e-03, 2.06776639e-03, -6.56217197e-03, -6.85786305e-04,
       -4.75271867e-04, 1.05321954e-03, 2.86270445e-03, 5.19046793e-03,
       5.19951433e-03, -3.33506847e-03, 4.30062879e-03, -6.41211495e-03,
       -3.14761116e-03, -6.01413054e-03, -1.55336733e-04,
       -1.75778777e-03, 8.51446413e-04, 2.61318032e-03, 2.16773106e-03,
       2.23573460e-03, -4.81207436e-03, -4.86899540e-03, -3.66229983e-03,
       1.33746350e-03, 2.00464274e-03, 3.30944126e-03, 3.40399751e-03,
       2.24297540e-03, 2.67301826e-03, -6.87741721e-03, -6.51694601e-03,
       -7.64256576e-03, -7.31447581e-05, 9.05840017e-04, 3.81167885e-03,
       3.41327023e-03, 2.51677213e-03, 2.83178501e-03, -4.49805288e-03,
       -5.04001928e-03, -4.88027837e-03, 1.86220650e-03, 6.48127915e-03,
       7.92506523e-03, 3.38145578e-03, 2.75722751e-03, 2.99565447e-03,
       -6.56979950e-03, -6.59351889e-03, 1.09269016e-03, -2.08168029e-04,
       -6.37493329e-04, -1.13688863e-03, 4.88356873e-03, -9.59406898e-04,
       -6.69259252e-03, -2.44249357e-03, 3.51964933e-04, 3.40213464e-03,
       1.68902450e-03, 3.62459046e-04, -2.04263953e-03, 6.33299630e-03,
       -1.17860583e-03, -7.89139047e-03, -1.46415888e-03, 1.38679054e-03,
       5.89276140e-04, 4.19934309e-04, -7.93004176e-04, -1.89373072e-03,
       8.26019235e-03, 2.07814109e-03, -9.79142636e-03, -3.67210247e-03,
       3.21913161e-04, 2.21858267e-03, 2.29979167e-03, 3.16768681e-04,
       -1.71594659e-03, 9.43221431e-03, 1.87089667e-03, -1.18606593e-02,
       -2.76153884e-03, 2.21376284e-03, -5.95784222e-04, -1.40303382e-04,
       1.53115718e-04, 2.14059558e-03, 5.08731324e-03, -4.52204637e-04,
       -4.72663157e-03, -2.34768889e-03, -2.61483155e-03, 1.93609094e-06,
       -3.46032117e-04, 2.72669131e-04, 9.59419296e-04, 6.68707257e-03,
       -5.10757789e-04, -4.71621100e-03, -3.48563190e-03,
       -1.83045689e-03, -2.11980645e-04, 3.36091674e-04, 1.78101996e-04,
       1.91291166e-03, 5.61455870e-03, 1.17525144e-03, -7.79692316e-03,
       -5.08116325e-03, -4.08669561e-03, 1.25952775e-03, 5.94891084e-04,
       1.57983261e-04, 6.83774415e-05, 6.99456269e-03, 1.56663486e-03,
       -8.32565129e-03, -7.03640236e-03, -3.46118794e-03,
       -5.42385736e-03, 3.23246117e-03, 2.48586223e-03, 1.42049836e-03,
       3.34022427e-03, -2.70891842e-03, -2.88151251e-03, 4.26627637e-04,
       -3.42571991e-03, -5.80735784e-03, 6.07012818e-03, 3.86924273e-03,
       2.95936153e-03, 2.08312669e-03, -5.06524835e-03, -3.57554457e-03,
       4.26490529e-04, -3.96075333e-03, -5.78007102e-03, 4.96058166e-03,
       4.19987552e-03, 4.00096318e-03, 2.38317228e-03, -5.49227325e-03,
       -2.54268548e-03, 1.66801468e-03, -4.56835609e-03, -5.74010704e-03,
       8.22249148e-03, 6.40058191e-03, 5.32763544e-03, 1.16868981e-03,
       -8.94344319e-03, -3.01895197e-03, 1.43482129e-03, -5.08193392e-03,
       1.06925797e-03, 4.79217106e-03, 2.41040066e-03, -7.03048799e-03,
       3.87067930e-03, -2.16126745e-03, 1.28443528e-03, -5.46066230e-03,
       -4.64905519e-03, 1.67942664e-03, 5.35740145e-03, 1.22608873e-03,
       -7.22425664e-03, 6.72362465e-03, -3.34371836e-03, 1.95093395e-03,
       -7.27863330e-03, -4.61089425e-03, 2.36731046e-03, 6.35043485e-03,
       3.29278177e-03, -1.08648241e-02, 2.41010264e-03, -3.08456994e-03,
       -4.69269115e-04, -7.79769011e-03, -2.51537841e-03, 3.46207432e-03,
       6.56152330e-03, 1.81777379e-03, -1.20906653e-02, 4.07886459e-03,
       -4.11789585e-03, 3.67283123e-04, -9.82783735e-03, -5.35250816e-04,
       -5.80080261e-04, -2.09007249e-03, -1.31424796e-03,
       -1.88665628e-03, -1.53541937e-03, 2.90213269e-03, 1.03027746e-03,
       1.91298896e-03, -5.72945137e-05, -1.74375146e-03, -2.95848120e-03,
       -2.15532701e-03, -2.98862508e-03, -2.64420919e-03, 2.76834378e-03,
       1.63868978e-03, 2.36048130e-03, -1.95927429e-03, -4.16333147e-04,
       -3.36582237e-03, -2.39873980e-03, -3.21494415e-03,
       -9.16754012e-04, 3.58588481e-03, 1.46853877e-03, 2.54450110e-03,
       1.79540575e-03, -2.01710733e-03, -3.63075570e-03, -4.59404197e-03,
       -4.11046902e-03, -1.10164343e-03, 3.48391267e-03, 1.90207502e-03,
       4.71893046e-03, 7.99419009e-04, -4.50974982e-03, -1.63839443e-03,
       -2.25114939e-03, -9.74751776e-04, 2.02704594e-03, 3.30883730e-03,
       1.95095863e-03, 3.07999016e-03, -2.63962150e-03, -4.76002693e-03,
       -1.40486355e-03, -5.70764393e-03, -2.04230100e-03, 2.43323273e-03,
       4.41754516e-03, 3.55526293e-03, 5.24662994e-03, -3.42967873e-03,
       -1.70416629e-03, -3.99433915e-03, -3.16019426e-03,
       -1.61375944e-03, 2.06523109e-03, 4.28119022e-03, 2.84876325e-03,
       3.34323128e-03, -2.48645945e-03, -1.18871068e-03, -4.96513210e-03,
       -7.90754985e-03, -2.85014068e-03, 3.23089468e-03, 5.78015437e-03,
       4.64927033e-03, 5.87072875e-03, -2.11823429e-03, 1.25575534e-04,
       -1.96081889e-03, -2.77478807e-03, -3.28911003e-04, 1.08209800e-03,
       3.71726649e-03, 1.31908653e-03, -1.79134790e-04, -5.01146214e-03,
       2.16846238e-03, -6.31994393e-04, -3.89326224e-03, -3.04946071e-03,
       -3.08123359e-04, 4.80962312e-03, 7.31958717e-04, -2.62305140e-04,
       -4.34542773e-03, 8.75037455e-04, 1.32613175e-04, -2.35819467e-03,
       3.35428085e-05, 7.98183959e-04, 3.34283034e-03, 6.54591480e-04,
       -1.68374903e-03, -4.36058966e-03, 4.26983973e-03, 2.39605200e-03,
       -2.68007093e-03, -3.32414126e-03, -1.37896743e-03, 3.14552314e-03,
       -7.56402966e-04, -1.19849655e-03, -2.31800415e-03,
       -5.13615133e-03, 1.47566840e-03, -4.32261638e-03, -3.37278307e-03,
       -1.16885733e-03, 3.15492414e-03, 1.88557478e-03, 2.74512859e-04,
       -5.16278716e-03, -4.86892788e-03, 2.97449436e-03, -5.05967811e-03,
       -3.93469399e-03, -4.12866473e-04, 4.87157516e-03, 4.20748070e-03,
       1.04714221e-04, -6.45460654e-03, -2.02405942e-03, 2.43173749e-03,
       -3.46161262e-03, -3.58697190e-03, 1.52762840e-03, 4.21271147e-03,
       2.20949389e-03, -1.62753067e-03, -6.14113314e-03, -4.35247377e-04,
       4.26615449e-03, -3.30572086e-03, -3.78976716e-03, 2.96323630e-03,
       5.42815123e-03, 4.92792297e-03, -1.97057356e-03, -7.34260632e-03,
       -5.93625242e-03, 1.63306366e-04, -3.20498628e-04, 2.67974660e-03,
       2.38043047e-03, -2.87948875e-04, 2.11076648e-03, 1.79439585e-03,
       -2.84776068e-03, -7.87260476e-03, -2.66857957e-03,
       -2.17657629e-03, 1.76139176e-03, 1.49785343e-03, -2.82303081e-04,
       3.86012415e-03, 3.37820780e-03, -1.79715117e-03, -5.52316010e-03,
       1.11046189e-03, -1.80058158e-03, 1.24384428e-03, 1.44537271e-03,
       -1.56833569e-03, 2.94431089e-03, 3.75978579e-03, 2.05232664e-05,
       -6.64951000e-03, -1.46729301e-03, -3.86787555e-03,
       -1.23508784e-04, 1.17503782e-03, -1.87075464e-03, 4.43835417e-03,
       4.96404339e-03, 2.57902476e-03, -3.58149270e-03, 1.94918644e-03,
       2.07322743e-03, 3.98828968e-04, 5.01234317e-03, 1.07442332e-03,
       4.84926917e-04, 8.42498906e-04, -3.83893144e-03, -2.61074817e-03,
       2.50864401e-03, 1.48230523e-03, 6.97124226e-04, 5.61056379e-03,
       1.57176051e-03, 1.96253485e-03, 1.62187940e-03, -5.35699725e-03,
       -2.71822652e-03, 1.13464298e-03, 1.30967377e-03, 6.91606023e-04,
       4.43672435e-03, 1.42464577e-03, -5.13667532e-04, 3.76473501e-04,
       -2.72509619e-03, -2.63045123e-03, 1.84653630e-03, 1.32418436e-03,
       1.16949312e-04, 4.76767821e-03, 1.95784518e-03, 1.81072438e-03,
       -1.90729086e-04, -3.09929717e-03, -2.07159808e-03,
       -3.70763452e-03, 2.70274282e-03, 1.33186259e-04, -1.77698885e-03,
       2.13315920e-03, 4.57715103e-03, 1.90990488e-03, -4.92648548e-03,
       4.24545608e-04, -3.73895746e-03, 2.40779063e-03, -4.24019032e-04,
       -1.69627706e-03, 1.98910781e-03, 7.36967288e-03, 3.72889941e-03,
       -1.45619013e-03, -1.68009588e-04, -4.08781739e-03, 2.68574106e-03,
       3.70891241e-04, -3.79408267e-03, 2.87573203e-03, 6.50046160e-03,
       4.45093581e-04, -4.18375246e-03, 2.46313727e-03, -4.58081160e-03,
       2.59324815e-03, 1.34653979e-04, -2.49533704e-03, 3.09778866e-03,
       9.58758965e-03, 2.41935207e-03, -1.27842883e-04, 3.49289924e-03,
       5.79280825e-03, 1.65655394e-03, -2.50420603e-03, -5.04108844e-03,
       -4.67743073e-03, 3.35039478e-03, 2.15145224e-03, -5.74457168e-04,
       7.73716066e-03, 7.59271160e-03, 1.99741474e-03, -3.80021916e-03,
       -5.46792056e-03, -3.06330947e-03, 2.92290980e-03, 1.82687736e-03,
       3.89579887e-04, 4.60995408e-03, 6.01530354e-03, 3.74525506e-03,
       -4.11219429e-03, -5.22438996e-03, -5.65543305e-03, 4.12987778e-03,
       2.65992666e-03, -1.14111544e-03, 1.03144497e-02, 7.44554447e-03,
       4.02209582e-03, -5.57426270e-03, -5.04881935e-03, -3.20119504e-03,
       4.00594436e-03, 2.16590054e-03, -3.23677436e-04, -1.40710839e-03,
       1.51222339e-04, 2.86209141e-03, 4.24538832e-03, 2.34924466e-03,
       -6.15811208e-04, 3.64636932e-03, -3.47880856e-03, -4.99764364e-03,
       -4.06774227e-04, 5.40187990e-04, 4.02343133e-03, 3.91271198e-03,
       2.60891416e-03, -3.25571338e-04, 3.90929030e-03, -6.83546346e-03,
       -7.37182563e-03, -1.44730147e-03, -1.06351287e-03, 5.59762469e-04,
       4.77740588e-03, 3.68262199e-03, -1.29455270e-03, 4.99460706e-03,
       -2.78911903e-03, -4.18197643e-03, 1.15048769e-03, -6.59270852e-04,
       8.82014050e-04, 4.42782976e-03, 3.77624808e-03, -1.62611730e-04,
       5.28417202e-03, -6.10035844e-03, -5.41455997e-03, 6.57805416e-04,
       1.02024944e-03, -1.93389482e-04, -1.79020572e-03, 1.45890983e-04,
       -1.91671075e-03, 1.72465295e-03, 8.22405447e-04, 1.63938373e-03,
       3.47552611e-03, 1.52559928e-03, 8.59604508e-04, -1.87420374e-04,
       6.52829243e-04, -2.83401227e-03, 3.72544467e-03, 2.34583882e-03,
       4.60886769e-03, 6.34757278e-04, 1.02633465e-04, 3.09846568e-04,
       -1.89207401e-03, 1.21367374e-03, -1.71732879e-03, 2.20138463e-03,
       2.35836767e-03, 1.39209931e-03, 4.70902771e-03, 1.76418549e-03,
       1.63051893e-03, 1.12465094e-03, 2.45996588e-03, -3.33845639e-03,
       3.36911785e-03, 3.45864031e-03, 4.66195913e-03, 4.10455046e-03,
       2.63491855e-03, 1.91773323e-03, 3.36901867e-03, 7.93324725e-05,
       1.91152573e-03, -1.98778021e-03, -5.11410460e-03, -2.77333381e-03,
       3.81906074e-03, 5.86087955e-03, 4.48578876e-03, 6.63007377e-03,
       -2.68292875e-04, 3.25906021e-03, -4.70654434e-03, -5.88239264e-03,
       -4.34022769e-03, 5.87670784e-03, 2.98765535e-03, 3.13587324e-03,
       3.72043881e-03, 6.78925309e-04, 1.21805213e-04, -2.62538739e-03,
       -9.42998100e-03, -4.67721466e-03, 5.09492867e-03, 6.60880748e-03,
       5.80587517e-03, 7.08241668e-03, 5.34400810e-04, 1.91638840e-03,
       -5.42396540e-03, -9.87998489e-03, -5.35376603e-03,
       -2.56519648e-03, 1.28921762e-03, 3.05944821e-03, 3.71422758e-03,
       -7.07164640e-04, -5.92678203e-04, 3.63507913e-03, 3.32136033e-03,
       -3.54761304e-03, -2.28164485e-03, 1.01991987e-03, 2.76246015e-03,
       5.22226235e-03, -1.12206803e-03, 8.18367043e-05, 3.68787115e-03,
       2.22530705e-03, -3.01509537e-03, -4.64017177e-03, -6.39845792e-04,
       2.67564692e-03, 4.38919896e-03, -5.46984433e-04, -1.18775747e-03,
       2.78222258e-03, 3.51091381e-03, -2.78066820e-03, -4.93980804e-03,
       -1.01073796e-03, 2.36712862e-03, 6.07508468e-03, -1.30725894e-04,
       -1.50578431e-04, 1.73495710e-03, 3.59219173e-03, 2.18373054e-04,
       -6.37519918e-03, -5.65309264e-03, -1.64031831e-03, 1.33394322e-03,
       2.87426799e-03, 2.41831341e-03, 3.25462874e-03, -4.60879412e-04,
       -1.87045278e-03, -8.48835427e-03, -7.12495204e-03,
       -1.85990229e-03, 2.04604492e-03, 2.67764088e-03, 2.94746622e-03,
       4.14558966e-03, -2.35070172e-03, -1.04938750e-03, -6.63942937e-03,
       -6.11695414e-03, -2.19651381e-03, 2.38228170e-03, 2.14782031e-03,
       1.59850041e-03, 2.19052401e-03, -3.26145324e-04, -3.63517739e-03,
       -9.40405764e-03, -7.32344342e-03, -3.20940884e-03, 3.25486599e-03,
       1.89344445e-03, 2.87134061e-03, 2.93485844e-03, -2.83674663e-03,
       -2.90227006e-03, -2.80170498e-04, -2.75380653e-03, 3.57248541e-03,
       3.00436723e-03, -2.90731876e-03, -2.50978865e-05, -6.35403849e-04,
       -2.99271033e-03, -4.99989081e-04, -1.59832081e-04,
       -4.13061166e-03, 5.11180144e-03, 3.69887939e-03, -1.46445876e-03,
       -1.98043985e-04, 2.70796183e-04, -3.79648805e-03, -6.56292075e-04,
       2.96498463e-03, -4.18353453e-03, 4.07698471e-03, 2.02609156e-03,
       -4.52004559e-03, -8.00401845e-04, -1.38964877e-03,
       -2.85279518e-03, 2.18338682e-03, 4.26896522e-03, -3.98754235e-03,
       6.21936796e-03, 3.59428604e-03, -3.44848866e-03, -1.17909641e-03,
       9.26197026e-05, -3.09024449e-03, 1.31688989e-03, -3.53004644e-03,
       -2.74877902e-03, -2.13414407e-03, 3.84086045e-03, 4.00782423e-03,
       4.87433420e-03, -2.90616212e-04, -4.68726066e-04, -1.68448559e-03,
       -4.83343937e-03, -4.10422403e-03, -2.49485485e-03, 2.67856498e-03,
       2.40391982e-03, 6.44726306e-03, 3.45142587e-04, -3.36624653e-04,
       -1.53251924e-03, -4.92336648e-03, -4.54040244e-03,
       -2.11807038e-03, 5.30683110e-03, 6.38186093e-03, 4.54048812e-03,
       1.19862484e-03, 2.42502219e-03, -4.05703811e-03, -5.57548972e-03,
       -6.86809607e-03, -1.54267077e-03, 4.53970628e-03, 5.85750630e-03,
       5.73937315e-03, 1.90210936e-03, 2.75957887e-03, -5.21720340e-03,
       -2.89420108e-03, -2.80380319e-03, -1.21506897e-03, 1.71803357e-03,
       8.57558858e-04, 2.44811061e-03, 7.50099309e-04, 1.57475320e-03,
       -1.99794467e-03, -4.71526897e-03, -2.73068598e-03,
       -5.41507849e-04, 3.47419665e-03, 2.53682304e-03, 2.89412076e-03,
       -9.59967263e-04, -2.70617078e-04, -2.34497921e-03,
       -3.38502019e-03, -3.69441253e-03, -1.40142557e-03, 1.40768348e-03,
       1.86087622e-03, 2.27003987e-03, 2.76088831e-03, 4.06788336e-03,
       -3.37295048e-03, -5.78320026e-03, -4.61402070e-03,
       -3.12843797e-04, 3.28975264e-03, 3.86146782e-03, 1.86610385e-03,
       1.46177760e-03, 3.76992091e-03, -2.93230708e-03, -2.93772295e-03,
       -7.63438700e-04, -8.07242177e-04, 1.29283103e-03, 1.89148553e-03,
       2.53446493e-03, 3.85538931e-03, -1.87915735e-04, 1.65054560e-04,
       -1.44791754e-03, -4.50123625e-05, -2.92445329e-04,
       -3.25359724e-04, -6.18951221e-04, 4.22152737e-03, 5.45825250e-03,
       1.73313869e-03, 3.22788232e-03, -5.41070942e-03, -1.14468543e-03,
       8.58535641e-04, 3.23112193e-03, 1.44316605e-03, 4.32370650e-03,
       3.46529949e-03, -9.48875004e-06, 7.36031143e-05, -3.64424847e-03,
       -1.59753894e-03, 4.37263167e-04, 2.25197454e-03, -3.58251244e-04,
       5.49670355e-03, 4.08182759e-03, 1.91282656e-03, 3.38170351e-03,
       -9.13115102e-04, -6.38594572e-03, -1.22180406e-03,
       -2.96251324e-04, 4.48379258e-04, 1.02085767e-04, 9.39838123e-04,
       3.05097457e-03, 2.87835835e-03, -1.13087743e-04, -7.07528880e-03,
       8.49469390e-04, 7.31062901e-04, 7.59183778e-04, 2.03774357e-03,
       2.59892223e-03, 2.03078776e-03, 3.93097941e-03, -3.58071597e-03,
       -6.38085185e-03, 1.73927809e-04, 5.08483965e-04, 2.18515843e-03,
       -8.82718363e-04, 8.71037832e-04, 2.55624251e-03, 2.28814851e-03,
       -4.55554109e-03, -8.04033969e-03, 2.52124108e-03, 8.49391450e-04,
       2.91643548e-03, 2.07471568e-03, 2.93560559e-03, 1.46107539e-03,
       3.67418840e-03, -5.13534807e-03, -4.44525992e-03, 9.77339689e-04,
       7.69067695e-03, -4.09094291e-03, 2.00910191e-03, 1.45313982e-03,
       3.50735057e-03, -7.53767381e-04, -4.85093147e-03, -6.20919792e-03,
       1.29848684e-03, 8.74918979e-03, -4.27904772e-03, 3.53082968e-03,
       2.80526374e-03, 4.80729761e-03, 1.92043171e-05, -4.06397367e-03,
       -1.16296811e-03, 6.64449821e-04, 6.53031934e-03, -7.20479526e-03,
       1.33207603e-03, 1.76578620e-03, 3.56464810e-03, -2.70644785e-03,
       -4.17425856e-03, -2.97212554e-03, 1.83716009e-03, 7.94844609e-03,
       -7.97837600e-03, 2.87843868e-03, 3.10798851e-03, 4.01974795e-03,
       -1.89848489e-03, 2.73899757e-04, -1.44042110e-03, -1.66397693e-03,
       -6.65778236e-04, 3.88682075e-03, 1.61083683e-03, 2.89307302e-03,
       -8.07172561e-04, 3.27739399e-03, 4.20747354e-04, -2.01650104e-03,
       -8.50203796e-04, -9.59436235e-04, 4.15740581e-03, 4.52634739e-03,
       3.94088728e-03, -2.65000528e-03, 2.10170890e-03, 1.34777394e-03,
       -3.76595906e-03, -3.79739050e-03, -9.77658667e-04, 6.67960895e-03,
       2.35771853e-03, 4.01040586e-03, -5.40686771e-04, 3.55485594e-03,
       2.66366359e-03, -4.27944306e-03, -2.46901927e-03, -3.56589124e-04,
       7.26363948e-03, 5.61165158e-03, 4.83627897e-03, -2.62269285e-03,
       1.86160090e-03, -6.11113792e-04, 7.17858959e-04, 1.06819696e-03,
       -3.45026446e-03, 7.25030992e-03, 6.73275135e-05, -3.49311787e-03,
       -1.32417225e-03, 1.01372611e-03, -1.24767574e-03, 2.06018821e-03,
       1.98204722e-03, -4.55794670e-03, 7.18858978e-03, -2.99538515e-04,
       -4.42821486e-03, 6.77870703e-05, 2.42555188e-03, 8.59642751e-04,
       1.05706777e-03, 1.38888147e-03, -3.38921021e-03, 6.11797953e-03,
       -1.92251813e-04, -4.57794545e-03, -2.37755571e-03, 1.76341413e-03,
       1.12094707e-03, 1.61652628e-03, 2.01693340e-03, -5.40933618e-03,
       6.07697666e-03, -4.29439533e-04, -5.45651093e-03, -1.97465648e-04,
       5.34279831e-03, -2.79890111e-04, -2.56026862e-03, 6.96834642e-04,
       4.41366719e-04, -6.13054074e-03, -1.20616716e-03, 3.34228575e-03,
       4.22328291e-03, 1.88965094e-03, -5.03989810e-04, -3.65481386e-03,
       -3.86435131e-04, -1.22659991e-03, -8.78889579e-03,
       -4.43732279e-04, 4.72173374e-03, 4.55490593e-03, 3.34524224e-03,
       -8.64765170e-05, -1.58925762e-03, 1.72271614e-03, -1.08634774e-03,
       -6.86125830e-03, 4.52608874e-05, 4.56195744e-03, 4.85427724e-03,
       1.20435702e-03, 6.94366579e-04, -2.64927954e-03, -5.49359771e-04,
       -2.62080529e-03, -9.42096394e-03, 8.39193002e-04, 6.46820990e-03,
       4.73583164e-03, 2.74334336e-03, 2.10325909e-03, 8.68382922e-04,
       1.70653861e-03, 1.18913094e-03, -5.54873561e-03, -2.85821478e-03,
       -7.19553151e-04, 1.07556710e-03, 1.21405174e-03, 2.23712088e-03,
       -6.48060115e-04, 1.88329781e-03, -7.36171729e-04, -6.75104000e-03,
       -1.27355300e-03, -5.70370932e-04, 1.87659520e-03, 2.14446895e-03,
       2.21910770e-03, -1.02040544e-03, 8.64467234e-04, -6.91192632e-04,
       -7.31992954e-03, -2.52431934e-03, 1.60037889e-03, 2.11003167e-03,
       2.03339523e-03, 3.36147286e-03, -1.94945827e-03, 9.48999077e-04,
       -3.80734378e-03, -8.15309212e-03, -1.62494413e-04, 2.58026714e-03,
       2.85678031e-03, 3.92092252e-03, -1.41771161e-03, -7.30767963e-04,
       -3.75713687e-03, -3.81692499e-03, 1.11460651e-03, -2.59637204e-03,
       9.55601165e-04, 1.25727081e-03, 6.70765876e-04, -2.06143991e-03,
       -1.10366358e-03, -4.84476704e-03, -4.16438095e-03, 4.36834898e-03,
       -1.40532095e-03, 2.79803528e-04, 1.66434422e-03, 3.14893085e-03,
       -6.47938054e-04, -1.08325947e-03, -4.46133828e-03,
       -4.27680789e-03, 2.40109791e-03, -6.14391221e-03, 6.22528081e-04,
       1.44642894e-03, 1.09638924e-04, -8.22007947e-04, -8.57340347e-04,
       -5.37652802e-03, -5.35120396e-03, 5.69651648e-03, -5.08302590e-03,
       3.83852777e-04, 2.62191123e-03, 3.52933002e-03, -4.46526054e-03,
       -2.15157145e-03, 1.30122306e-03, 4.04254161e-03, 2.03461526e-03,
       2.53936020e-03, 2.65080482e-03, 8.81464395e-04, -3.88489873e-03,
       -4.82965959e-03, -1.82208931e-03, -7.98549270e-04, 2.26725661e-03,
       1.64669903e-03, 2.73482618e-03, 2.88443756e-03, -1.13243458e-03,
       -3.69676482e-03, -4.46460908e-03, 4.15904768e-04, 1.76041422e-03,
       3.22562782e-03, 4.20558499e-04, 3.46968486e-03, 3.58010666e-03,
       1.08979689e-03, -2.88723572e-03, -4.68388153e-03, 1.13882625e-03,
       2.20529746e-05, 5.38863824e-04, -1.15130260e-03, 4.59722057e-03,
       3.16119730e-03, -1.42111490e-03, -2.15675309e-03, -3.44225275e-03,
       2.82138330e-03, 7.19110947e-03, 4.08382592e-04, -9.72862181e-04,
       -5.46051608e-03, -2.74675176e-03, -6.84177561e-04,
       -1.50211179e-03, -3.74635449e-03, 1.30657747e-03, 6.71235658e-03,
       1.22654135e-03, -9.16349236e-04, -6.10158592e-03, -3.87152098e-03,
       -8.19298031e-04, -2.52741203e-03, -3.61412950e-03, 1.69039366e-03,
       8.01886059e-03, -1.00551639e-03, 5.95540390e-04, -8.96021724e-03,
       -2.76063289e-03, -2.48696942e-05, 2.37900385e-04, -3.83367063e-03,
       6.52057293e-04, 6.89615076e-03, -1.41327607e-03, -6.68786059e-04,
       -1.03846882e-02, -4.03844193e-03, -1.42659133e-04,
       -4.67697944e-04, -5.46027580e-03, -1.26210379e-03,
       -3.64935986e-04, -3.65932263e-03, 5.63973980e-03, -6.34031428e-04,
       -1.83600129e-03, -3.78967234e-05, -5.01171174e-03,
       -5.67927444e-03, -2.96972576e-03, 1.51096191e-03, -3.13699222e-03,
       7.94544909e-03, 1.38494081e-03, -3.51771479e-03, 1.27457106e-03,
       -5.55454195e-03, -3.60853761e-03, -2.19503953e-03, 1.24124053e-04,
       -4.29120567e-03, 7.17221294e-03, -3.24645615e-03, -1.16758654e-03,
       1.21526129e-03, -2.29222421e-03, -2.80418759e-03, -4.05535428e-03,
       1.75333198e-03, -3.14214383e-03, 9.35455970e-03, -1.49037282e-03,
       -2.16766261e-03, 3.64218908e-03, -1.25168462e-03, -1.94366463e-03,
       2.39715609e-03, 3.13014816e-03, -2.41068844e-03, -4.66646347e-03,
       -1.80617161e-03, 3.30780284e-03, -1.93485653e-03, -2.79839290e-03,
       -6.70254813e-04, 4.65849089e-03, 4.30170260e-03, -3.15150409e-03,
       -7.35980459e-03, -3.66538274e-03, 4.49813250e-03, -2.66872905e-03,
       -1.80296041e-03, 9.04066837e-05, 5.22299716e-03, 4.59517958e-03,
       -4.39263927e-03, -8.11066199e-03, -3.50404321e-03, 2.12326390e-03,
       -3.04207439e-03, -4.89662227e-04, 2.69252108e-03, 8.44765548e-03,
       5.92958648e-03, -6.13064598e-03, -1.22492146e-02, -5.05092321e-03,
       4.51493729e-03, -5.29970136e-03, 8.43334885e-04, 2.28570658e-03,
       4.33260342e-03, 1.17850723e-03, -3.96473659e-03, 2.39603594e-03,
       1.54739490e-03, -3.93090857e-04, -3.88660934e-03, -5.22080250e-03,
       1.42899179e-03, 5.01235295e-03, -8.59162130e-04, -4.22225799e-03,
       2.91977730e-03, 3.80604505e-03, 8.02532071e-04, -4.07249993e-03,
       -5.95853291e-03, 2.90934998e-03, 6.14050310e-03, 2.49050790e-03,
       -5.75798796e-03, 3.56581667e-03, 1.90359598e-03, -8.03802337e-04,
       -3.57444235e-03, -3.72752501e-03, 1.27954094e-03, 6.37620082e-03,
       1.99542977e-04, -5.90000860e-03, 3.79100675e-03, 5.63073345e-03,
       3.62415594e-04, -2.62554525e-03, -4.23164107e-03, -1.46187271e-03,
       -1.86039659e-03, 9.92900692e-04, -1.14323455e-03, -9.62502498e-04,
       -1.67566875e-03, -2.69361841e-03, -3.89007531e-04, 2.65764771e-04,
       3.25482310e-04, 7.44750083e-04, 1.00912154e-03, -1.52508519e-03,
       4.75944631e-04, -2.70028622e-03, -3.51137808e-03, -3.31271277e-03,
       9.21435421e-05, 2.45078863e-03, 4.41091979e-04, 3.02880956e-03,
       -2.37327558e-03, -1.57212617e-03, -2.95614335e-03,
       -3.20131844e-03, 7.48283928e-04, 1.43757951e-03, 4.87280963e-03,
       4.13424149e-03, 3.09764547e-03, -2.34853686e-03, -9.60507663e-04,
       -4.97351633e-03, -5.11589460e-03, -1.35016860e-03, 2.91774608e-03,
       2.48946191e-04, 2.33967020e-03, 1.48740131e-03, -1.56647689e-03,
       8.67196475e-04, 3.89378006e-03, -6.47305569e-04, -5.45391394e-03,
       -2.47963122e-03, -4.68211714e-04, 2.63330317e-03, 1.58846611e-03,
       -2.37859017e-03, 1.96657679e-03, 5.08289132e-03, -5.87112911e-04,
       -6.42616721e-03, -3.58388969e-03, 1.54061650e-03, 1.95329194e-03,
       6.16444508e-04, -2.42779939e-03, 5.10206039e-04, 4.32269508e-03,
       7.09669665e-04, -4.83332900e-03, -3.26004316e-04, 1.22276787e-03,
       2.95378873e-03, -2.55051447e-04, -3.28898709e-03, 1.98376598e-03,
       6.22031279e-03, 1.08941528e-03, -5.69629716e-03, -1.47890067e-03,
       -1.39030424e-04, -1.81179272e-03, -3.44950124e-04,
       -9.72694979e-05, 2.21939851e-03, -1.74986475e-04, 2.44639884e-03,
       -2.54594325e-03, -3.29872617e-03, -4.16492985e-04,
       -3.69672966e-03, -4.61759802e-04, 1.04072550e-03, 1.55141740e-03,
       -9.76750394e-04, 3.88544239e-03, -5.11850091e-03, -3.58732045e-03,
       1.24523498e-03, -2.82373070e-03, -1.12626782e-04, -1.80482445e-03,
       3.36239045e-03, -3.33322503e-04, 2.11348641e-03, -2.34288885e-03,
       -6.22264750e-04, 1.00922491e-03, -3.85846035e-03, 9.34021198e-04,
       -6.87314314e-04, 2.69772648e-03, -1.47598170e-04, 3.43623245e-03,
       -5.20496350e-03, -2.28724792e-03, -2.49932427e-03, 8.69152893e-04,
       2.52061570e-03, 1.09660323e-03, 2.42395885e-03, 2.18163035e-03,
       -3.63152451e-03, -2.75555486e-03, -1.56912938e-04,
       -3.12971650e-03, 2.30948208e-03, 4.44781501e-03, 3.37139238e-03,
       4.32072021e-03, 2.89957318e-03, -6.00548787e-03, -4.84652445e-03,
       -7.42850709e-04, 4.34538932e-04, 2.68002762e-03, 5.17488783e-03,
       1.94283179e-03, 8.92435957e-04, 1.70436676e-03, -3.34459008e-03,
       1.97699366e-04, 4.08588862e-03, 1.08943507e-03, 4.33675852e-03,
       7.38137402e-03, 4.51213401e-03, 2.67307949e-03, 3.33705125e-03,
       -4.93846089e-03, -1.38989987e-03, 4.77878796e-03, 1.62241119e-03,
       3.44594824e-03, 3.11231846e-03, 1.50059059e-04, -1.10405217e-05,
       -1.30830193e-03, -7.93560781e-03, -6.22570748e-03, 1.16711482e-03,
       2.74603930e-03, 7.26586115e-03, 4.86456463e-03, 1.01340876e-03,
       -8.04439944e-04, -1.31632725e-03, -7.07490230e-03,
       -8.05412512e-03, 1.07813044e-03, 4.08894941e-03, 4.90358705e-03,
       4.59087640e-03, 3.37327627e-04, -9.68887878e-04, -2.70304387e-03,
       -8.95550288e-03, -6.47590915e-03, 2.21122871e-03, 5.50407730e-03,
       8.38140119e-03, 6.99493242e-03, 8.97799386e-04, -1.21522381e-03,
       -3.46297259e-03, -7.96402246e-03, -9.15024150e-03, 2.33364105e-03,
       2.84743053e-03, 4.59559634e-03, 2.65427679e-03, -5.03753824e-03,
       -4.70761349e-03, 2.12531118e-03, -8.75049154e-04, -1.61991513e-03,
       1.67972024e-03, 4.78796195e-03, 6.41104672e-03, 3.21502262e-03,
       -4.44026291e-03, -2.40525790e-03, 1.14602747e-03, 1.07761798e-03,
       -1.25003594e-03, 2.72873184e-03, 6.13261573e-03, 6.02058833e-03,
       2.50513433e-03, -7.74269132e-03, -4.93224431e-03, 1.71955419e-03,
       3.52595307e-05, -1.40417556e-04, 4.94701695e-03, 8.16596486e-03,
       8.70304368e-03, 2.15832656e-03, -7.78141152e-03, -2.52864533e-03,
       7.78993417e-04, 3.36477463e-03, 8.51623423e-04, 6.82198908e-03,
       1.77619501e-03, -8.10649304e-04, -1.43796927e-03, -3.53673985e-03,
       4.04346874e-03, 1.28777931e-04, -1.33490015e-03, 2.40367791e-03,
       2.93818256e-03, 2.19300878e-03, 2.03994539e-04, -1.14055339e-03,
       -4.86470712e-03, 6.07728492e-03, 2.05150980e-04, -2.96869804e-03,
       8.57181381e-04, 2.82430160e-03, 5.79553714e-04, -8.81740649e-04,
       -1.71891088e-03, -4.22732206e-03, 4.81993007e-03, 2.73281941e-04,
       -9.07917158e-04, 3.08133103e-03, 2.25001317e-03, -6.96699310e-04,
       4.33215755e-04, -7.99710979e-04, -6.42153574e-03, 7.36523001e-03,
       4.71914973e-04, -2.44452781e-03, 1.73903070e-03, 1.96010387e-03,
       -1.24998775e-03, -2.14799168e-03, 4.04484104e-04, -2.90520396e-03,
       4.47866245e-04, 1.79969321e-03, 3.74496146e-03, -2.65679229e-03,
       1.67652743e-03, -1.11804728e-03, -1.53591274e-03, 9.52245668e-04,
       -2.22372892e-03, 1.04099978e-03, 2.10125116e-03, 4.43598442e-03,
       -3.54192290e-03, 1.00858253e-03, -1.18831522e-03, -1.37737801e-03,
       1.38947484e-03, -4.62710811e-03, 2.82777916e-03, 4.04578401e-03,
       6.21621823e-03, -7.61642295e-04, 4.94490610e-03, -2.02464769e-04,
       -4.11874324e-04, 1.85646862e-03, -2.61024712e-03, 3.23051983e-03,
       4.16911533e-03, 6.05000323e-03, -5.89040050e-04, 5.47232991e-03,
       -7.46139465e-03, -4.56083886e-04, -8.21575013e-05, 1.89028471e-03,
       -4.72260901e-04, 6.07308990e-04, 4.18159505e-03, 4.51715570e-03,
       -3.26135964e-03, -9.28003527e-03, -9.00630315e-04,
       -1.02650619e-03, 3.03797354e-03, 2.09365482e-03, 1.37276924e-03,
       3.49658122e-03, 7.22612301e-03, -2.80220434e-03, -7.84493797e-03,
       2.17884924e-04, 8.37164771e-05, -5.31695114e-05, 3.98536387e-04,
       2.63446383e-03, 6.88609388e-03, 7.23618222e-03, -2.64205271e-03,
       -9.99112427e-03, 1.13297836e-03, -8.91634787e-04, 9.81269637e-04,
       2.19488656e-03, 3.09191714e-03, 5.87532157e-03, 1.03616426e-02,
       -1.14867324e-03, -7.20267976e-03, -1.74031814e-03,
       -1.34521944e-03, 1.56442600e-03, -2.21225200e-03, 6.36762846e-03,
       6.18304964e-03, 4.11814079e-03, -2.21042824e-03, -9.37238242e-03,
       -1.49506424e-03, -3.46910371e-03, -1.02233083e-03,
       -4.52996959e-04, 8.51064920e-03, 7.57869799e-03, 4.42570075e-03,
       -3.47516430e-03, -3.92440800e-03, -6.84468978e-05,
       -1.61143823e-03, 1.87103311e-03, -3.28078959e-03, 5.89716388e-03,
       5.88691141e-03, 5.88107482e-03, 5.37537679e-04, -5.52297058e-03,
       3.97345721e-04, -4.38063312e-03, -1.59919786e-03, -1.00739207e-03,
       8.13253690e-03, 6.48745475e-03, 5.59199369e-03, -1.14022475e-03,
       -1.22736994e-04, -1.39010372e-03, 1.15376397e-03, -5.09145204e-04,
       -6.09125150e-03, 1.07550994e-03, 4.16335743e-03, -3.22218100e-03,
       -2.58553424e-03, 1.20743725e-03, -1.26670767e-03, 9.42628598e-04,
       8.83207831e-04, -2.37753312e-03, 1.64653396e-03, 3.41357291e-03,
       -5.12816431e-03, -4.30657668e-03, 1.02795276e-03, -1.33125973e-03,
       1.45842950e-03, -2.12010927e-03, -6.86263526e-03, 2.94212135e-03,
       4.64428356e-03, -1.32609648e-03, 1.99152646e-03, 2.48752721e-03,
       1.99066926e-04, 1.34353340e-03, -3.52847215e-04, -2.18212302e-03,
       3.51491780e-03, 4.08785604e-03, -1.92494888e-03, 5.31689264e-04,
       -2.75237457e-04, 5.59910573e-03, -1.81110681e-03, -1.79598620e-03,
       -3.94238019e-03, 2.77215033e-04, 1.37211161e-03, -4.98791039e-03,
       -4.33610578e-04, 1.06216304e-03, 6.56462740e-03, -2.19733687e-03,
       8.94005061e-04, -1.61592010e-03, 3.91652575e-04, 1.03626319e-03,
       -5.50209405e-03, -7.17241026e-04, 3.61710670e-04, 5.12610516e-03,
       -2.50697345e-03, -2.60454672e-03, -4.30461625e-03,
       -7.02613965e-04, 2.61928479e-04, -5.14768623e-03, 2.74316454e-03,
       1.50614709e-03, 5.26519585e-03, -3.56781762e-03, 3.66602966e-04,
       -2.21678964e-03, -6.05323643e-04, 8.18020082e-04, -4.86671599e-03,
       3.27815930e-03, -4.00098506e-03, -2.56673992e-03, -1.95671877e-04,
       -1.34737079e-03, -2.22423230e-03, 3.24286404e-03, 2.55499268e-03,
       3.65844625e-03, -3.20929266e-03, -5.09920903e-03, -2.77765095e-03,
       6.94689050e-04, -3.23042390e-04, -2.64194421e-03, 4.31846175e-03,
       3.19674122e-03, 2.59654410e-03, -2.79095815e-03, -2.14080745e-03,
       -2.14828108e-03, 2.19283719e-03, -3.01076536e-04, -1.79024134e-03,
       4.22541564e-03, 2.37470842e-03, 3.77256097e-03, -5.82918234e-04,
       -2.47410126e-03, -1.07480737e-03, 2.98098731e-03, 1.26010366e-03,
       -9.68218024e-04, 5.09229628e-03, 3.30742169e-03, 2.92611402e-03,
       6.34371769e-04, -2.21569222e-04, -7.40478572e-04, -7.68181781e-06,
       6.05594076e-04, 1.42537779e-03, 3.69495549e-03, -2.79270369e-03,
       -1.37406262e-03, 2.34734593e-03, 6.99417782e-04, -8.10577592e-04,
       1.63640711e-04, -1.96150225e-03, 4.01321886e-04, 4.28503891e-03,
       -2.89175403e-03, -2.41183955e-03, 3.62721621e-03, 1.34502910e-03,
       -3.84307961e-04, 1.47996878e-03, 1.16410293e-03, 3.03837098e-03,
       5.07125165e-03, -2.15546903e-03, -2.48174911e-04, 2.24519544e-03,
       1.80758152e-03, -3.16912890e-04, 1.25719735e-03, -1.11402164e-03,
       2.09285133e-03, 5.40471915e-03, -2.45197024e-03, -1.67068641e-03,
       3.66792316e-03, 1.75008748e-03, -2.14176462e-03, -4.78849513e-03,
       -3.51474131e-03, 3.76777863e-03, 5.46039268e-03, 4.15677531e-03,
       1.71924650e-03, 3.90028465e-04, 1.85579062e-03, -3.32588796e-03,
       -8.25948361e-03, -4.94542625e-03, 3.00707575e-03, 7.80626480e-03,
       5.04134456e-03, 2.76117329e-03, 2.27308599e-04, 3.76308570e-03,
       -2.27374723e-03, -3.38231260e-03, -6.15743082e-03, 1.93009269e-03,
       7.66936503e-03, 6.95715379e-03, 3.76359303e-03, 1.31955123e-04,
       5.17618796e-03, -2.98199570e-03, -7.25100422e-03, -7.99974985e-03,
       1.07979460e-03, 1.07037099e-02, 8.66622105e-03, 5.56106027e-03,
       -1.15764313e-04, -2.04707775e-03, -3.50209419e-03, 2.07080343e-03,
       -2.36222695e-04, 2.51202169e-03, 4.00860648e-04, -5.32698119e-04,
       -2.26224936e-03, 3.92769754e-04, -3.37711093e-03, -2.11991929e-03,
       2.62411498e-03, 1.71886466e-03, 2.29920866e-03, 1.57451897e-03,
       -9.74385766e-04, -2.38540815e-03, 5.96809492e-04, -8.91606847e-04,
       -2.38889200e-03, 2.69751577e-03, -1.08317938e-03, 1.48485845e-03,
       6.12732139e-04, 2.50747224e-04, -9.47349297e-04, 2.66866828e-03,
       -1.26024755e-03, 9.30545593e-06, 2.68342299e-03, 1.29677367e-03,
       1.95403467e-03, 2.19559809e-03, -2.07335615e-05, -1.04809750e-03,
       2.37479853e-03, -2.21319776e-03, 1.77121186e-03, 1.20979757e-03,
       1.26262498e-03, -1.00900279e-03, -1.25191675e-03, -1.18972101e-04,
       1.48583599e-03, -5.23657631e-03, -4.37925616e-03, 2.12620036e-03,
       2.64815101e-03, 2.77842791e-03, 4.25239187e-03, 5.51523990e-04,
       6.01171691e-04, 2.98092561e-03, -5.21006063e-03, -1.73871475e-03,
       -9.19052836e-05, 2.54154345e-03, -1.06451495e-04, -2.57327151e-03,
       -1.39219046e-03, -6.39810052e-04, 2.10631010e-03, -3.33965709e-03,
       -4.40922240e-03, 6.85030464e-05, 3.39605170e-03, 1.07101002e-03,
       2.77478434e-03, 1.18879706e-03, 5.30287507e-04, 3.99037404e-03,
       -2.63409526e-03, -2.67171278e-03, 3.79268476e-03, 2.87401583e-03,
       2.62025488e-03, 1.00408970e-05, -7.43569341e-04, 1.64704095e-03,
       1.95868034e-03, -6.23424491e-03, -1.47401530e-03, 4.36245836e-03,
       2.56128679e-03, 3.76937445e-03, 2.88400240e-03, 6.98073782e-05,
       2.88061774e-03, 3.89045267e-03, -7.01892702e-03, -4.87228594e-04,
       4.00817860e-03, 4.39784955e-03, 2.62122951e-03, -9.17985526e-05,
       -2.58187589e-04, 9.41082777e-04, 1.93681812e-03, -7.12150754e-03,
       5.20428701e-04, 4.69621830e-03, 4.57211677e-03, 4.10343753e-03,
       2.72929971e-03, 5.02200972e-04, 2.06031254e-03, 3.08398530e-03,
       -7.94031937e-03, -2.27685226e-03, 5.64853370e-04, 1.45862321e-03,
       -8.47049232e-04, 4.55989782e-03, 4.18032100e-03, 1.68099592e-03,
       -2.40488420e-03, 1.87556670e-05, -4.15004510e-03, 6.43402745e-05,
       2.10330193e-03, 9.60290199e-04, 3.13875661e-03, 6.18868880e-03,
       2.34036311e-03, -1.67238549e-03, -7.06453866e-04, -1.76978903e-03,
       1.40411931e-03, 1.33608724e-03, -9.14073375e-04, 2.56352290e-03,
       3.68218031e-03, 3.25078680e-03, -9.38257319e-04, 1.80317962e-03,
       -3.11740488e-03, 1.15385395e-03, 2.63496931e-03, 8.89632269e-04,
       -6.20690626e-05, 6.02957886e-03, 4.39809868e-03, 2.73442245e-04,
       1.62067008e-03, 1.61241309e-03, 4.33436688e-03, -1.38210854e-03,
       8.49909266e-04, 2.56245397e-03, -1.50463136e-03, -2.55051092e-03,
       5.49967866e-04, -4.43321187e-03, 3.18761496e-03, 4.62524965e-03,
       -2.39605666e-03, 1.41697691e-03, 3.52854677e-03, -8.79028987e-04,
       -3.35039012e-03, 9.86815430e-04, -4.20289487e-03, 2.19813478e-03,
       6.47086557e-03, -1.37467578e-03, 2.08688527e-03, 3.56080150e-03,
       -3.02522036e-04, -2.42432160e-03, -1.01045286e-03,
       -7.52544496e-03, 4.22608806e-03, 6.42216019e-03, -2.38340022e-03,
       3.08653433e-03, 6.70824759e-03, 5.29853511e-04, -4.77846246e-03,
       -2.94750789e-03, -7.52285589e-03, 5.72850788e-03, 2.50421208e-03,
       2.40064505e-03, -2.50124442e-03, -4.37999191e-03, -8.89099669e-04,
       3.23019893e-04, -2.93530454e-03, 1.22928945e-03, 6.45209057e-03,
       2.20774580e-03, 1.77081185e-03, -3.14165559e-03, -5.17099630e-03,
       1.95251429e-03, 1.10871985e-03, -3.16729955e-03, 7.62740092e-04,
       7.69993290e-03, 3.12748156e-03, 3.41330329e-03, -3.53335682e-03,
       -3.79574229e-03, -1.62522774e-03, 4.61109012e-04, -5.02213882e-03,
       1.55972969e-03, 7.87019543e-03, 3.09511716e-03, 2.64720712e-03,
       -3.21298302e-03, -5.81079395e-03, 9.92182875e-04, 1.35562196e-03,
       -5.68564469e-03, 2.23929482e-03, 5.56431524e-03, 1.63370569e-05,
       -5.55883767e-03, -5.85967069e-03, -2.63119982e-05,
       -1.16245158e-03, 1.18408134e-04, 1.27151166e-03, 1.98642677e-03,
       4.34782309e-03, -6.53112715e-04, -4.75350022e-03, -4.13145684e-03,
       1.60359940e-03, 7.46501959e-04, 8.67760391e-04, 1.86212873e-03,
       2.74255616e-03, 5.45498915e-03, 1.89872284e-04, -4.36165091e-03,
       -6.11302536e-03, -2.32066421e-04, -1.27679540e-03, 5.03133575e-04,
       1.29946461e-03, 3.09398561e-03, 3.62369628e-03, -4.67510312e-04,
       -2.46849586e-03, -4.02724976e-03, 1.30374741e-03, 4.79402690e-04,
       9.28264111e-04, 2.25920533e-03, 3.44829075e-03, -1.81361230e-03,
       -2.19964585e-03, 2.22333218e-03, -2.17368361e-03, -5.16112894e-03,
       4.36955248e-04, 3.64123564e-03, -3.66370950e-04, 2.99252220e-03,
       -2.53670244e-03, -2.55703554e-03, 2.64168787e-03, 7.86716191e-05,
       -2.43105507e-03, -3.35504854e-04, 3.19676730e-03, -3.39106610e-03,
       2.10097665e-03, -1.69589987e-03, -5.35537489e-03, 1.60237052e-03,
       -2.72671180e-03, -6.76263124e-03, -9.03001113e-04, 3.89264757e-03,
       -4.81258816e-04, 5.42224245e-03, -2.37897411e-03, -6.28960319e-03,
       1.63751480e-03, -1.48429390e-04, -3.72203952e-03, -1.33504358e-03,
       3.98747949e-03, -4.38616844e-03, 4.72937711e-03, -1.98139017e-03,
       2.74132751e-03, 6.63497392e-03, -1.73870090e-03, -2.47077644e-03,
       -2.13624025e-03, 5.66329225e-04, 2.42632534e-03, -3.44814570e-03,
       -2.11484177e-04, 3.34398518e-03, 5.82235167e-03, -2.81080510e-03,
       -1.50725502e-03, -3.94050125e-03, 7.73135747e-04, 1.47536618e-03,
       -3.58279236e-03, 2.55297200e-04, 4.59421566e-03, 7.02058850e-03,
       -3.81907518e-03, -4.13680542e-03, -2.99553247e-03, 2.79078929e-04,
       3.09401099e-03, -3.06866248e-03, 2.79273163e-03, 4.94301179e-03,
       4.13658610e-03, -5.53084677e-03, -2.81965174e-03, -4.31320490e-03,
       -5.07023142e-05, 2.22884468e-03, -3.21139046e-03, -5.89853432e-03,
       -6.47658133e-04, -1.89232966e-03, -7.81513692e-04, 5.90631505e-03,
       -7.79489419e-05, 9.02547035e-04, 1.01520808e-03, -2.39710743e-03,
       -5.05789509e-03, 4.49947838e-04, -1.20485714e-03, -1.65549235e-03,
       6.82416139e-03, -1.34959770e-03, 9.77267511e-04, 2.93000950e-03,
       -2.46318080e-03, -6.76865643e-03, -3.41432024e-05,
       -4.02594963e-03, -1.81898929e-03, 8.27776920e-03, 1.52312836e-03,
       1.62565487e-03, 2.65068514e-03, -3.91580164e-03, -5.80476364e-03,
       1.93635037e-03, -3.72170797e-03, -2.83264345e-03, 9.61516891e-03,
       1.26655377e-03, 2.53515458e-03, 5.14951721e-03, -3.90124298e-03,
       1.76006928e-04, 7.06972263e-04, 3.43190716e-03, -4.20103897e-04,
       -6.83265645e-03, -5.01502957e-03, -5.53887628e-04,
       -1.13710307e-03, 9.29170521e-04, 3.08077224e-03, 2.91339098e-03,
       5.48398076e-03, -2.63218884e-03, -9.04833246e-03, -6.56667305e-03,
       9.41901089e-05, -1.73827691e-03, 5.05432603e-04, 3.14833689e-03,
       2.70459714e-04, 5.03852777e-03, -3.17483238e-04, -7.01167947e-03,
       -5.70474938e-03, -1.15255709e-03, -2.80184019e-03, 2.41731363e-03,
       7.30967615e-03, 2.99636438e-03, 8.09410494e-03, -2.25781207e-03,
       -9.19912849e-03, -6.24797819e-03, -9.56426840e-04,
       -4.08460433e-03, 2.13893712e-03, -3.74350289e-04, -3.87520390e-03,
       -4.85954853e-03, 1.86978467e-03, 1.04030897e-03, -3.52961360e-03,
       -8.80874650e-05, 1.82854221e-03, -4.93862899e-04, -1.78892212e-03,
       -4.08127625e-03, -6.37798896e-03, 1.09709380e-03, 2.18461640e-03,
       -1.96413090e-03, -9.76950745e-04, 1.14823761e-03, -1.82345742e-03,
       -2.69894162e-03, -4.36221017e-03, -3.00384988e-03, 1.28386484e-03,
       3.71096912e-03, -3.41664860e-03, -6.97177951e-04, 2.80586258e-03,
       -2.22105742e-03, -4.84569417e-03, -4.55268100e-03,
       -5.28287049e-03, -1.14636228e-03, 5.10477135e-03, -1.13949936e-03,
       -4.95370710e-04, 2.71848566e-03, -2.53845868e-03, -2.88063893e-03,
       -1.35154859e-03, -3.24306288e-03, 2.31621030e-04, -1.74512563e-03,
       -1.35537854e-03, -1.98114873e-03, 1.21058954e-03, 7.94120133e-05,
       -2.34984676e-03, -3.49744165e-04, -2.15936708e-03, 6.97558688e-04,
       -2.95856362e-03, -1.63535867e-03, -1.40019762e-03, 3.08108772e-03,
       2.03014002e-03, -1.57606113e-03, -9.38073790e-04, -3.92179610e-03,
       1.42073783e-03, -2.36347062e-03, -3.15521774e-03, -3.14028864e-03,
       7.59347691e-04, -1.59994059e-03, 7.69250153e-04, 3.62621387e-04,
       -2.72629783e-03, 1.79171527e-03, -3.85912880e-03, -4.05510841e-03,
       -3.50817037e-03, 2.61964975e-03, 9.57968587e-04, 2.79887783e-04,
       1.11917325e-03, 7.86632358e-04, 7.04733597e-04, -2.91572488e-03,
       -3.13481619e-03, 1.32173253e-03, 4.09482192e-04, 3.58848978e-04,
       2.05612479e-04, 9.70442372e-04, -9.46442422e-04, 1.39784621e-04,
       -2.15424015e-03, -1.55039516e-03, 3.16259754e-03, 2.31944304e-03,
       -4.91929357e-04, 2.58638733e-03, 3.10701691e-03, 7.43042154e-04,
       -1.58126262e-04, -3.76689062e-03, -3.61435022e-03, 2.07419600e-03,
       -4.36696457e-04, 1.00639218e-03, 2.70820060e-03, 3.84879694e-03,
       -6.36517711e-04, 7.65356061e-04, -2.46645021e-03, -2.09946837e-03,
       3.55088036e-03, 1.15953642e-03, -1.61346936e-04, 4.16461960e-04,
       -1.35927601e-03, 2.70013371e-03, 5.10637136e-03, -2.07187771e-03,
       -1.72322977e-03, -3.10199289e-03, -2.78216787e-03,
       -1.48388499e-04, 6.67825923e-04, -1.20755075e-03, 3.77796678e-04,
       4.43125702e-03, -2.52983556e-03, -1.99105917e-03, -3.01969540e-03,
       -3.09486152e-03, 5.93072909e-04, -6.72737428e-04, -2.84327869e-03,
       3.82278790e-03, 6.36470877e-03, -2.52729427e-04, -5.74225734e-04,
       -1.64361054e-03, -1.57190626e-03, 6.05890062e-04, -1.08535704e-03,
       -2.07249308e-03, 2.65661534e-03, 5.95931290e-03, 4.33491281e-04,
       2.46732932e-04, -2.18826090e-03, -2.35723006e-03, 1.40603166e-03,
       1.67364051e-04, 2.83509307e-03, 2.14946247e-03, 8.91075179e-04,
       -3.48951574e-03, -3.75515968e-03, 2.11942952e-05, 9.46200977e-04,
       -1.14565506e-03, -3.42493848e-04, 2.63241492e-03, 2.15230160e-03,
       1.52062217e-03, -3.86330485e-03, -5.79171116e-03, 3.48976464e-04,
       -5.97946113e-04, -1.52136758e-03, 1.70272833e-04, 8.71627650e-04,
       5.82511188e-04, 7.08975771e-04, -3.83794634e-03, -2.69131036e-03,
       5.22599090e-04, 2.77441600e-03, -9.53753362e-04, -3.79775331e-04,
       2.72575882e-03, 2.17152876e-04, 1.36963138e-03, -1.89387321e-03,
       -4.69652750e-03, 1.75906369e-03, 4.37177514e-04, -1.96821103e-03,
       -2.95961020e-03, -1.89769338e-03, 4.48019104e-03, -2.08223215e-03,
       6.83024479e-03, -5.98959632e-05, -5.54073928e-03, -2.12796708e-03,
       -2.92778877e-03, -2.84836721e-03, -6.00194093e-04, 5.35162538e-03,
       -2.86132912e-03, 7.32305832e-03, 2.43424394e-04, -5.54830022e-03,
       -2.84337113e-03, -3.47173214e-03, -1.21705839e-03,
       -1.03245198e-04, 4.92311316e-03, -2.47022347e-03, 8.02137423e-03,
       -2.17645847e-05, -6.02742936e-03, -2.11680704e-03,
       -2.70375342e-04, -3.91199515e-04, 1.62603159e-03, 5.50989527e-03,
       -3.31760570e-03, 7.94230681e-03, 6.07527618e-04, -5.73297637e-03,
       -1.59958471e-03, 4.50437394e-04, 1.26189392e-04, 1.26907066e-03,
       1.94725420e-04, -2.58042989e-03, -2.82496470e-03, 2.75445194e-03,
       1.42204412e-03, 2.60191923e-03, 2.33640219e-03, 2.01783981e-03,
       2.55610468e-03, 1.25713705e-03, -2.59611127e-03, -5.40602487e-03,
       2.33089761e-03, 1.51080196e-03, 1.94457429e-03, 4.58905892e-03,
       8.06641765e-04, 3.88243934e-03, 2.19053729e-03, -3.64402356e-03,
       -4.49614553e-03, 5.20341936e-03, 4.24325932e-03, 3.70604149e-03,
       2.25225231e-03, 2.56367936e-03, 5.33524016e-03, 3.21764639e-03,
       -3.84734571e-03, -6.31752750e-03, 5.22211520e-03, 3.90891265e-03,
       3.92287225e-03, 5.70290722e-03, 1.29176117e-03, 8.42662121e-04,
       1.14377134e-03, -2.75837083e-04, -4.32248414e-03, -1.04179594e-03,
       1.17816089e-03, 3.36408179e-04, 4.83831717e-03, -6.31319883e-04,
       -2.25574404e-04, 2.43161572e-03, 5.72558201e-04, -7.07342848e-03,
       -1.78573560e-03, 1.94689573e-03, 2.47384119e-03, 5.91098284e-03,
       9.84222046e-04, 3.29255732e-03, 1.09136757e-03, -1.23347901e-03,
       -3.93128116e-03, -1.75709743e-03, -9.77524440e-04,
       -1.18389388e-03, 5.70967933e-03, -8.96222133e-04, 1.69127283e-03,
       3.84553662e-03, -7.93622457e-04, -5.89031493e-03, -3.26500484e-03,
       -1.08815126e-04, 1.05294201e-03, 6.60121953e-03, 4.18772595e-03,
       -1.07848994e-03, 8.47432297e-04, 8.08882643e-04, -3.01436288e-03,
       6.87313557e-04, -1.52262452e-03, -3.14829103e-03, 1.07622740e-03,
       5.33169974e-03, -2.19812756e-03, 1.35167886e-03, 1.40257122e-03,
       -4.20925254e-03, -1.20040693e-03, -1.04622100e-03,
       -4.70416341e-03, 4.61877033e-04, 6.46659452e-03, -2.42098249e-04,
       2.04264093e-03, -7.45983620e-04, -4.12570825e-03, 4.71989508e-04,
       -2.77938158e-03, -4.70791990e-03, 1.81137305e-03, 8.37377924e-03,
       -1.09655986e-04, 3.40501196e-03, -3.61859420e-04, -7.74838729e-03,
       -1.10450061e-03, -2.69248150e-03, -6.31639035e-03, 1.19858060e-03,
       7.67606590e-03, -6.14199525e-05, 1.59970135e-03, -4.58162418e-03,
       -5.36544761e-03, -1.27855956e-03, -1.45413133e-03,
       -1.12859579e-03, 2.27939081e-03, 1.01176705e-02, -2.29119076e-04,
       1.43508532e-03, -4.42001875e-03, -5.66745363e-03, 2.75022394e-05,
       6.87820371e-04, -2.92213863e-05, 2.53645633e-03, 8.73611774e-03,
       2.74686812e-04, 8.45452305e-04, -6.64850138e-03, -6.28847396e-03,
       -4.08754742e-04, -1.33056496e-03, -5.21883427e-04, 3.44672916e-03,
       1.06011266e-02, 4.17095463e-04, 1.43833680e-03, -7.39828125e-03,
       -6.32213661e-03, 1.28148927e-03, 8.78887426e-04, 7.96661014e-04,
       3.82943870e-03, -1.89032697e-03, -3.38642229e-03, 1.33464823e-03,
       1.40702934e-03, -5.27961878e-03, 4.35157772e-03, 6.98368205e-03,
       6.00593456e-04, -8.10798199e-04, -1.85405626e-03, -7.13450648e-03,
       -4.69108665e-04, -5.62147237e-04, -5.79389697e-03, 4.32798965e-03,
       7.76541932e-03, 2.69743265e-03, 1.06871338e-03, -1.88219175e-03,
       -3.78517387e-03, 2.00668862e-03, 9.72246635e-04, -4.72970959e-03,
       4.88915481e-03, 8.34083185e-03, 1.42911926e-03, -3.91853915e-04,
       -1.72347494e-03, -7.85603933e-03, -7.17544230e-04,
       -1.07642100e-03, -5.31002134e-03, 5.09231305e-03, 8.75070691e-03,
       4.16472787e-03, 1.25679711e-03, 1.49970013e-03, -4.64749243e-03,
       -4.50768799e-04, -1.96794188e-03, -2.68675736e-03, 1.20612001e-03,
       1.11718045e-03, 3.81562830e-04, 9.80832847e-04, 5.18919842e-04,
       -5.48232254e-03, -1.02621817e-03, -1.12855935e-03, 1.56542319e-05,
       2.95515638e-03, 1.78829767e-03, -3.17322381e-04, 1.93102562e-04,
       4.14268114e-03, -3.55799124e-03, -8.05825111e-05, -2.85782991e-03,
       -3.80200590e-03, 1.96572649e-03, 2.58890702e-03, 1.44412275e-03,
       2.48048012e-03, 4.37641470e-03, -5.08857751e-03, -1.41232658e-05,
       -1.20765506e-03, -8.76346545e-04, 4.41207178e-03, 3.57060903e-03,
       3.29625676e-04, 1.01729529e-03, 2.74425442e-03, 2.78087100e-03,
       -2.51316675e-03, -6.58355327e-03, -2.51840753e-03, 1.99989227e-04,
       2.01101787e-03, 2.76330253e-03, 2.50525866e-03, 2.80645397e-03,
       2.19522510e-03, -3.34488298e-03, -5.32699050e-03, -1.40720396e-03,
       1.57703715e-03, 3.37403268e-03, 2.52248463e-03, 1.80816301e-03,
       4.12913878e-03, 4.43575764e-03, -1.79594941e-03, -6.78099832e-03,
       -2.81765289e-03, -2.50037806e-03, 2.19899928e-03, 5.00701321e-03,
       4.65817144e-03, 3.83622246e-03, 2.99601536e-03, -3.40890000e-03,
       -5.90838259e-03, -1.67720218e-03, -1.95628242e-03, 4.16400284e-03,
       5.31588309e-03, 3.35917878e-03, -6.33401622e-04, 5.00706723e-04,
       -6.14819210e-03, -1.38694665e-03, 6.56576187e-04, -2.26430898e-03,
       4.05181060e-03, 1.39770634e-03, 2.38549337e-03, 3.83347971e-04,
       4.16606228e-04, -6.82258746e-03, -8.59220221e-04, 2.33227061e-03,
       -1.80870155e-03, 5.09228650e-03, 1.25966955e-03, 2.28769216e-03,
       2.53791921e-03, 2.25399225e-03, -6.75727054e-03, -1.09175267e-03,
       -8.04491399e-04, -4.49268287e-03, 2.95780110e-03, -1.32528623e-03,
       3.96664441e-03, 4.45714779e-03, 3.25900409e-03, -7.27133267e-03,
       9.20872753e-06, 1.60296878e-03, -4.61258180e-03, 3.52555607e-03,
       -2.06417148e-03, 4.47318237e-03, 1.13747618e-03, -3.85136780e-04,
       -3.94298550e-04, -3.63922352e-03, -6.51952112e-04, 2.07202742e-03,
       5.07767545e-03, 2.27236981e-03, -2.97649414e-03, 1.90479856e-03,
       -1.20985997e-03, -8.09758320e-04, -3.06468620e-03,
       -1.45676243e-03, 3.67906131e-03, 5.53497998e-03, 2.97347619e-03,
       -2.80730717e-04, 1.86296785e-03, -1.03420776e-03, 1.38255229e-04,
       -6.39154715e-03, -1.68129662e-03, 1.50907505e-03, 5.31150308e-03,
       4.37583821e-03, -3.78295477e-03, 2.19001761e-03, -2.90832832e-03,
       -5.17709705e-04, -5.34871966e-03, -2.34822510e-03, 3.80117353e-03,
       6.08651154e-03, 4.96794889e-03, -4.80600684e-05, 2.37278035e-03,
       -4.27400647e-03, 3.82399739e-04, -4.79691010e-03, -4.07572323e-03,
       1.39297533e-03, 4.62189363e-03, 2.76164408e-03, 5.75868273e-03,
       2.26971786e-03, -4.33822069e-03, 7.35462876e-04, -5.58048626e-03,
       -6.94986759e-03, 1.62207265e-03, 2.64316378e-03, 2.40795873e-03,
       8.39139614e-03, 3.46261263e-03, -4.10446478e-03, 1.10361050e-03,
       -4.32550395e-03, -4.32076585e-03, 2.58190418e-03, 7.23078428e-03,
       3.29673663e-03, 6.57209661e-03, 4.27234173e-03, -3.55122471e-03,
       1.63189799e-03, -4.41741478e-03, -6.95421826e-03, 2.42476910e-03,
       5.41555742e-03, 3.30828317e-03, 9.18428693e-03, -1.80270046e-03,
       -1.42997561e-03, 5.70501247e-03, 1.53720705e-03, -5.62447298e-04,
       -4.43831028e-04, -2.61384062e-03, -7.13263813e-04, 3.58703983e-04,
       -1.48609921e-03, -5.01355855e-04, 5.18604787e-03, 8.94462748e-04,
       5.01508999e-04, -4.41289885e-04, -1.19539059e-03, -1.54218927e-03,
       -7.20040698e-04, -1.17729406e-03, -2.28216266e-03, 4.24959464e-03,
       -3.89792258e-04, 1.93435489e-03, 3.03680165e-04, -1.92174909e-03,
       -6.83363352e-04, 2.10390962e-03, -7.91401952e-04, -1.63510500e-03,
       2.83084647e-03, -1.76024321e-03, 3.37102311e-03, 5.66793198e-04,
       5.82421024e-04, -1.24486163e-03, 1.21640007e-03, 6.03239809e-04,
       1.08311209e-03, 7.80813512e-04, -1.53147127e-03, 1.37896248e-04,
       -2.88650393e-04, 7.44139077e-04, 3.39539140e-03, -1.57973019e-03,
       2.41596089e-03, 3.65600036e-03, 1.65047275e-03, -3.20793013e-03,
       1.55766064e-03, -4.71836101e-04, 1.93641492e-04, 3.57413548e-03,
       -1.69891515e-03, 1.39488676e-03, 2.56202626e-03, 1.74931207e-04,
       -1.49645284e-03, -1.67599041e-03, -7.40676769e-04, 1.82849390e-03,
       6.59661600e-04, -2.41336925e-03, 4.27401206e-03, 5.64502412e-03,
       1.87699276e-03, -2.51084426e-03, 3.30055627e-04, -1.15430483e-03,
       9.42236744e-04, -3.13962460e-04, -2.33447202e-03, -2.18381640e-03,
       2.57508759e-03, -1.29495375e-03, 1.43976475e-03, 1.54361501e-03,
       -1.61031284e-03, -9.14015691e-04, 2.82146526e-03, 5.04621246e-04,
       -1.13289431e-03, 3.93248582e-03, 2.62559857e-04, 1.76434201e-04,
       3.66767705e-03, -9.36994911e-05, -1.94067683e-03, 1.89847313e-03,
       7.54445558e-04, -3.20110470e-03, 2.65394663e-03, -7.09127053e-05,
       1.23365142e-03, 4.23600944e-03, -3.29995004e-04, 1.00546422e-05,
       2.59110169e-03, -1.32462010e-03, -2.70434376e-03, 4.43870481e-03,
       1.72165199e-03, 1.17425306e-03, 6.58887718e-03, 1.48510444e-03,
       -4.71557811e-04, 2.31139502e-03, -1.61325629e-03, 3.54461255e-03,
       1.03983970e-03, 3.83129506e-03, -2.27036979e-03, -1.70789030e-03,
       -2.91631557e-03, 1.17543701e-03, -2.15309366e-04, -1.91452715e-03,
       2.40868120e-03, -2.24072960e-06, 2.91911024e-03, -6.26255805e-03,
       -2.38098390e-03, -2.56927125e-03, 2.10365001e-03, 3.44795524e-04,
       -2.25794944e-03, 4.86686034e-03, 5.69135358e-04, 3.71650117e-03,
       -3.63891758e-03, -4.40809829e-03, -2.05845316e-03, 4.54477791e-04,
       -1.90454302e-03, -2.76923017e-03, 3.61596700e-03, -1.84191833e-03,
       1.83689210e-03, -8.53699725e-03, -5.59692085e-03, -1.95371569e-03,
       1.04561413e-03, -9.22668201e-04, -2.81557185e-03, -1.44762825e-03,
       1.82236359e-03, 9.54533578e-04, 8.43154266e-04, -2.30981896e-04,
       -2.53289100e-03, 1.60567218e-03, -1.86533062e-03, -3.44917155e-03,
       -2.23866338e-03, -8.38774547e-04, 3.44205159e-03, 1.68688176e-03,
       -2.59936933e-04, -2.12538056e-03, 1.10009365e-04, -2.29986641e-03,
       -3.00850347e-03, 2.83404719e-04, 3.30001721e-03, -6.88693835e-04,
       -8.16044572e-04, -1.20032928e-03, -3.15014506e-03, 1.40844553e-03,
       -2.03409756e-04, -1.83562376e-03, -4.87793179e-04, 7.38160685e-04,
       2.07293476e-03, 4.10081848e-04, -2.80136537e-05, -2.59592338e-03,
       -1.94018736e-04, 4.38760508e-05, -1.46277144e-03, -1.93695698e-04,
       -1.92838465e-03, 3.52204865e-04, -5.69092762e-03, -1.03296991e-03,
       -3.55142052e-04, 2.79142172e-03, 3.69805703e-03, 2.10921120e-04,
       5.18944755e-04, -4.70226211e-03, -2.90593691e-03, -5.70430467e-03,
       -2.73732119e-03, -2.51665042e-04, 3.77314910e-03, 5.28588239e-03,
       1.80964475e-03, -3.01362178e-03, -3.55916447e-03, 1.27966036e-04,
       -6.48999494e-03, 4.26283776e-04, 1.65872963e-03, 4.55304980e-03,
       4.27059457e-03, 4.37376584e-04, -1.94440724e-03, -6.25992334e-03,
       -4.60025296e-03, -6.04908075e-03, -1.15868833e-03, 3.50315170e-03,
       6.33986294e-03, 6.41096383e-03, 3.99555359e-03, 6.30938332e-04,
       5.69935830e-04, -6.23756903e-04, 1.09597936e-03, -1.92878547e-03,
       -4.71051782e-03, -8.41394576e-05, -2.68330215e-03,
       -1.74511620e-03, -5.61577966e-04, 4.37616464e-03, -4.20464530e-05,
       1.81613129e-03, -2.08590319e-03, -6.59341924e-03, 1.03650417e-03,
       -3.22752655e-03, -3.10114748e-03, 5.42863680e-04, 1.33513124e-03,
       -2.85275193e-04, 1.81130425e-03, -2.14104052e-03, -5.11929393e-03,
       1.84336596e-03, -2.12653400e-03, -2.09721809e-04, -6.92722853e-04,
       5.73223503e-03, 9.38258192e-04, 4.54289885e-03, -2.36306386e-03,
       -6.81599416e-03, 3.73974373e-03, -2.97592487e-03, -1.17547985e-03,
       2.80127482e-04, 3.98782035e-03, 1.43386936e-03, 3.58527876e-03,
       -5.43891313e-03, -3.71419662e-03, -3.24968045e-04,
       -1.78936054e-03, -3.39854904e-03, -4.09777887e-04, 5.12878085e-03,
       2.94157746e-03, 3.58930416e-03, -6.86020916e-03, -3.76012851e-03,
       1.44100899e-03, 3.98970238e-04, -2.90581491e-03, 7.06193445e-04,
       6.53140247e-03, 3.32232984e-03, 5.65522444e-03, -4.56748903e-03,
       -5.38709620e-03, -1.66449999e-03, -2.00812495e-03,
       -6.00756798e-03, -7.56194058e-04, 7.92032480e-03, 5.56110125e-03,
       6.43562665e-03, -4.92147868e-03, -6.06439263e-03, 4.95953485e-04,
       6.47232868e-04, -6.66514086e-03, 1.28807523e-03, -3.26859136e-03,
       -6.41446793e-03, -7.48648541e-03, -1.10152178e-03,
       -3.10806587e-04, 3.12678399e-03, 1.04651100e-03, 3.47347395e-03,
       2.17389013e-03, -4.41368483e-03, -5.67177823e-03, -5.48070436e-03,
       2.76295003e-03, 9.09348659e-04, 4.36541066e-03, 2.23805779e-03,
       3.80076654e-03, -3.66186432e-04, -4.85445280e-03, -6.99251750e-03,
       -7.83298817e-03, -8.47400632e-04, -1.98810780e-03, 2.99619068e-03,
       1.53298059e-03, 4.29283408e-03, 1.01692532e-03, -5.09991171e-03,
       -5.84063912e-03, -5.73393703e-03, 1.86259358e-03, -1.96242690e-05,
       5.45165455e-03, 3.00528249e-03, 4.66679223e-03, -5.89771103e-03,
       -1.41178037e-03, -3.24763148e-03, -2.88208807e-03, 3.59655102e-03,
       1.80571817e-03, -1.14666566e-03, 1.62894168e-04, -3.13593866e-03,
       -9.34942719e-03, -6.11222349e-04, -3.31583503e-03,
       -1.82516186e-03, 4.23041033e-03, 1.62986061e-03, -5.15182328e-04,
       3.83173377e-04, -6.99674571e-03, -8.25647824e-03, -1.76578329e-03,
       -4.85786423e-03, -2.22933176e-03, 7.35351350e-03, 1.50220154e-03,
       -6.67540065e-04, -1.43153034e-03, -4.15695924e-03,
       -1.30997216e-02, -1.39416894e-03, -4.95788967e-03,
       -5.38658351e-04, 8.82660504e-03, 6.67087035e-04, 8.40862805e-04,
       -1.31604495e-03, -8.81092809e-03, 4.62599797e-03, 7.83985713e-04,
       2.43549631e-03, -8.62742250e-04, -5.21511724e-03, -4.86510945e-03,
       -4.57098475e-03, -1.82355579e-03, 1.89047726e-03, 7.40557304e-03,
       4.72793588e-04, 3.77645809e-03, -3.88155784e-03, -9.14195925e-03,
       -4.05211374e-03, -4.99671791e-03, -1.94029999e-03, 3.94589175e-03,
       6.27834536e-03, 4.43834579e-03, 3.43308621e-03, -1.19775868e-04,
       -6.53163437e-03, -6.65148068e-03, -6.95609068e-03,
       -2.18552444e-03, 1.09944365e-03, 8.64374079e-03, 6.25070464e-03,
       5.50755439e-03, -2.47934298e-03, -9.09472164e-03, -6.79269386e-03,
       -8.31946824e-03, -1.44090224e-03, 2.59153615e-03, -1.06218515e-03,
       4.55220137e-03, 4.19091247e-03, -1.96332694e-03, -1.24051305e-03,
       -4.44544200e-03, -8.33724975e-04, 1.75419508e-03, 1.30953244e-03,
       -3.32323625e-03, 2.09624157e-03, 3.53801437e-03, -2.19043694e-03,
       5.68257354e-04, -3.75466538e-03, -8.50254670e-04, 3.19102709e-03,
       6.43005944e-04, -3.65799497e-04, 5.40985167e-03, 2.31138477e-03,
       -2.27512280e-03, -3.95964234e-05, -3.40072461e-03,
       -4.79593931e-04, 2.28277361e-03, 1.89720804e-03, -2.87053571e-03,
       3.59427463e-03, 8.44281865e-04, -2.05445383e-03, 1.81474967e-03,
       -2.39968626e-03, -1.93848493e-04, 3.16116470e-03, 1.29392813e-03,
       -8.95773643e-04, -2.88528274e-04, 1.92902004e-03, 2.86624674e-03,
       3.05385306e-03, 7.88185745e-04, -1.39887829e-03, -5.03747538e-03,
       6.26994588e-04, -2.32319254e-03, -1.22891238e-03, 3.44597502e-03,
       3.17811943e-03, 3.45676742e-03, 1.21581927e-03, -1.72857812e-03,
       -8.02179892e-03, -2.29722544e-04, -1.07215194e-03,
       -7.63828866e-04, 4.47713910e-03, 1.83057599e-03, 4.72066784e-03,
       9.67202650e-04, -3.70390038e-03, -5.05052647e-03, -5.91680990e-04,
       -2.84678303e-03, -1.92154187e-03, 7.69110862e-03, 2.22883630e-03,
       4.67435643e-03, 1.56326359e-03, -2.73250020e-03, -7.44704111e-03,
       -1.83630746e-03, -2.54199840e-04, 1.32381404e-03, 1.01315172e-03,
       -3.97280417e-03, -7.23220501e-03, -1.75412081e-03,
       -7.49220548e-04, 1.12978008e-03, 5.62180672e-03, 3.16745078e-04,
       2.84974906e-03, 2.84515647e-03, -2.75223097e-03, -9.81333945e-03,
       -3.35594057e-03, -2.16690009e-03, 3.34693259e-03, 8.48926045e-03,
       1.61073374e-04, 2.69404543e-03, 1.50541449e-03, -3.14553780e-03,
       -7.35973706e-03, -1.28781307e-03, -1.31954468e-04,
       -4.78617236e-04, 4.50854609e-03, 1.87341450e-03, 4.90865950e-03,
       2.77472869e-03, -1.36051502e-03, -1.02923065e-02, -3.32151563e-03,
       -2.26836698e-03, 1.76251947e-03, 8.23194254e-03, -4.50657355e-03,
       7.12805369e-04, -4.00361663e-04, -1.38419168e-03, -4.31214785e-03,
       -6.99806784e-04, 1.58823805e-03, -4.70651023e-04, 2.97306594e-03,
       -3.66115733e-03, 2.24206317e-03, 7.36044676e-05, -2.29961216e-03,
       -1.53194065e-03, -2.13364139e-03, 1.59579597e-03, -1.58389994e-05,
       2.49003153e-03, -5.08885225e-03, 7.85480195e-04, -4.30801039e-04,
       -1.55475060e-03, -4.48570400e-03, 1.33418676e-03, 3.31931893e-04,
       -3.99660756e-04, 5.30775776e-03, -4.22242703e-03, 2.92121526e-03,
       4.17665986e-04, -2.03362689e-03, -1.77684077e-03, 2.94722249e-05,
       -4.17553005e-04, -7.39836192e-04, 4.59360611e-03, 7.39990151e-04,
       2.37376522e-03, 1.35882234e-03, 7.26539700e-04, -2.54293694e-03,
       3.34997731e-03, 1.84961839e-03, -2.47021974e-03, -4.53593954e-03,
       2.39835028e-03, 5.35174366e-03, 9.49449837e-04, 1.89297905e-04,
       -5.84131293e-03, 4.66378871e-03, 1.72377098e-03, -2.73692911e-03,
       -5.05700707e-03, 5.95922233e-04, 1.42005109e-03, 3.12344474e-03,
       2.83350164e-05, -4.30389959e-03, 2.37959786e-03, 1.07741507e-03,
       -2.19237152e-03, -4.04032692e-03, 1.93365163e-03, 5.24923205e-03,
       2.55001057e-03, -3.82396101e-04, -6.95672119e-03, 4.21825843e-03,
       3.95035953e-04, -2.42104800e-03, -4.76219552e-03, -7.46000977e-03,
       7.93561339e-05, 1.68030313e-03, -2.12536007e-03, -5.36049576e-03,
       -1.08934450e-03, 6.09175826e-04, -5.51466306e-04, -2.48403125e-03,
       -9.59309191e-03, 1.97289116e-03, 3.28126573e-03, 1.39859982e-03,
       -3.07360571e-03, -3.61111364e-04, 9.61770929e-05, -9.86912986e-04,
       -4.28600237e-03, -9.76818614e-03, 9.57594952e-04, 2.65732664e-03,
       -2.30538007e-03, -4.18662140e-03, 4.08711421e-05, 2.33572908e-03,
       -2.57005449e-03, -6.70402497e-03, -1.20036099e-02, 4.16259607e-03,
       4.54902695e-03, 1.55505748e-03, -1.31620059e-03, 8.19129462e-04,
       2.14254833e-03, -4.18441370e-03, -1.05720786e-02, -2.68298318e-04,
       2.89611844e-03, 2.00716173e-03, 3.05531686e-03, -1.67604664e-03,
       -1.96871159e-04, 1.28339650e-03, 8.44461727e-04, 8.23722105e-04,
       -2.43205833e-03, 3.87896108e-03, 2.88681872e-03, 3.56954802e-03,
       -3.21444310e-03, 6.20242034e-04, 2.70290114e-03, 2.14037020e-03,
       4.22154466e-04, -1.04485906e-03, 2.92506488e-03, 2.60471227e-03,
       3.05829290e-03, 9.84729966e-04, -1.75958627e-03, 5.93650911e-04,
       3.06788192e-04, -5.77910978e-04, -2.90996511e-03, 3.41014029e-03,
       3.68442084e-03, 4.30655759e-03, 1.22520971e-04, -9.15848068e-05,
       3.12811579e-03, 2.10426678e-03, -2.02926621e-03, -7.17235846e-04,
       2.74273707e-03, -1.16701471e-03, -1.70220074e-03, 4.14847716e-04,
       -6.81397971e-04, 2.19535548e-03, -1.18066184e-03, 2.75691011e-04,
       -5.35151281e-04, 4.24619671e-03, -1.82318699e-03, -2.88669486e-03,
       1.64427632e-03, 1.97339265e-04, 3.17351287e-03, -1.41363684e-03,
       -3.98031727e-04, -8.43857415e-05, 2.94944551e-03, -1.44984829e-03,
       5.56444225e-04, 3.15171899e-03, -9.30067559e-04, 2.44338741e-03,
       -3.21513670e-03, 8.75614234e-04, 4.68389999e-06, 5.61918691e-03,
       -2.68168910e-03, -4.86936944e-04, 4.40117158e-03, -1.02478713e-04,
       3.16352863e-03, -1.98682165e-03, -5.11706894e-05, 4.06653853e-04,
       -1.21973373e-03, 3.83230712e-04, 2.29216204e-03, -1.71693310e-03,
       2.70768278e-03, -1.36392761e-03, 1.31204340e-03, 8.22946371e-04,
       1.05884508e-03, -2.07752199e-03, 1.67801115e-03, 2.04738695e-03,
       -5.83499670e-03, 2.78885732e-03, -1.31567346e-03, 3.66704375e-03,
       1.93596596e-03, 1.26788893e-03, -4.53435961e-04, 1.35827344e-03,
       2.87841260e-03, -1.00422662e-03, 2.58178334e-03, -2.35886686e-03,
       1.50470971e-03, 5.90126983e-05, 2.03182292e-03, -8.62455810e-04,
       3.53401736e-03, 3.29624559e-03, -5.97749231e-03, 1.76748296e-03,
       -2.45843828e-03, 3.53136472e-03, 4.40464355e-04, 8.48012161e-04,
       2.13191542e-03, 4.81038168e-03, 3.57569428e-04, -4.37947968e-03,
       -1.41326257e-03, -1.66201347e-03, 2.41369344e-05, -4.82025032e-04,
       3.04102851e-03, 3.88765987e-03, 4.91562672e-03, 1.69661839e-03,
       -3.59132513e-03, 9.01335909e-04, 1.13704114e-03, -1.02771109e-03,
       1.70938030e-04, 1.84255245e-03, 1.06036116e-03, 4.18450311e-03,
       -2.82500405e-04, -5.59461815e-03, -3.88820699e-05,
       -3.51324352e-03, 3.65424668e-04, 6.79875782e-04, 4.75203898e-03,
       3.65815335e-03, 4.15106816e-03, 2.17118461e-04, -5.56028588e-03,
       2.75852578e-03, -5.30995952e-04, -8.37607076e-04, 1.37320370e-03,
       -7.38880917e-05, -4.78441361e-04, 3.45977466e-03, 2.45818798e-03,
       -3.58323986e-03, -1.38991498e-04, -5.74291218e-04, 3.57592828e-03,
       -8.58602405e-04, 2.72813020e-03, 1.22408790e-03, 4.58830409e-03,
       2.91598029e-03, -5.54340053e-03, -9.42733255e-04, -5.55287814e-04,
       4.30608913e-03, 9.23758897e-04, -1.26387598e-03, -5.26101561e-04,
       2.66500283e-03, 3.11679207e-03, -5.96715463e-03, 1.13193324e-04,
       -8.95801641e-04, 3.56220384e-03, -2.65576271e-03, 2.00836314e-03,
       1.22759922e-03, 3.55437258e-03, 3.96861136e-03, -9.48404148e-03,
       -1.90554559e-03, -1.10593112e-03, 4.37469315e-03, -4.90222825e-04,
       -2.28452985e-03, 1.17188123e-04, -2.40434034e-04, -4.35894821e-04,
       -4.93101822e-03, 8.49919088e-05, 3.38132470e-03, 2.88732885e-03,
       9.44123953e-04, -4.16504499e-03, -7.29049905e-04, -9.30643931e-04,
       1.69359462e-03, -2.90763238e-03, -1.58197456e-03, 5.27931936e-03,
       4.59768670e-03, 6.88868284e-04, -5.56692248e-03, -4.44717327e-04,
       -1.87136279e-03, -4.23155958e-04, -5.12643903e-03, 6.02963497e-04,
       5.40470146e-03, 3.01017100e-03, 1.16397138e-03, -7.65699707e-03,
       -1.69258763e-03, -2.22527981e-03, 2.11051409e-03, -3.68894683e-03,
       -9.23739222e-04, 7.77232042e-03, 4.32842690e-03, 2.99227861e-04,
       3.36674345e-03, 4.27789008e-03, 1.46140903e-03, 5.31406933e-03,
       -5.09569887e-03, 4.60590207e-04, -6.28020091e-04, 1.25027355e-03,
       1.91562774e-03, 3.10253329e-03, 6.39430620e-03, 1.00025279e-03,
       3.91176622e-03, -5.61526697e-03, 1.86192605e-03, 5.02031995e-04,
       -1.71675449e-04, 2.85656704e-03, 1.68815779e-03, 4.46535368e-03,
       -2.85276823e-04, 4.24957881e-03, -6.68295193e-03, 9.63702798e-04,
       5.62759087e-05, 2.84708873e-03, 2.63120118e-03, 1.12524361e-03,
       8.19794834e-03, 2.14872533e-04, 2.66842730e-03, -7.65598286e-03,
       2.97791604e-03, 1.87809125e-03, 1.47129060e-03, 3.72623210e-03,
       -5.28847519e-03, 1.20298145e-03, 6.91268547e-03, 1.26216596e-03,
       -3.65714123e-03, -3.72536510e-04, -8.13819468e-04, 1.96385384e-03,
       3.31792020e-04, -3.17148189e-03, 2.59691803e-03, 8.23713839e-03,
       7.24922109e-04, -4.37925849e-03, -2.81118351e-04, -1.06242741e-03,
       2.07915762e-03, 1.67335710e-03, -4.78668604e-03, 4.75888699e-03,
